type,x_0,x_1,x_2,x_3,x_4,x_5,x_6,x_7,x_8,x_9,x_10,x_11,x_12,x_13,x_14,x_15,x_16,x_17,x_18,x_19,x_20,x_21,x_22,x_23,x_24,x_25,x_26,x_27,x_28,x_29,x_30,x_31,x_32,x_33,x_34,x_35,x_36,x_37,x_38,x_39,x_40,x_41,x_42,x_43,x_44,x_45,x_46,x_47,x_48,x_49,x_50,x_51,x_52,x_53,x_54,x_55,x_56,x_57,x_58,x_59,x_60,x_61,x_62,x_63
RSM0001,0.18223792,-0.052778434,-0.025544835,0.06903792,0.029065704,-0.09969002,-0.05961714,0.045185998,-0.009621638,-0.018773982,-0.1577318,0.012376932,0.028340044,0.12140944,-0.009764762,-0.07460559,-0.0028007084,0.141223,0.008262484,0.03491501,0.028810509,0.036006797,0.0981388,0.05978615,-0.087274544,-0.051497117,0.11102457,-0.028097415,-0.15029188,-0.12889598,0.06776593,-0.0054096878,0.0934243,0.09503806,0.03360904,-0.014801894,0.01870705,0.15593277,-0.030861687,-0.13042733,-0.1098428,-0.025176018,0.015759083,-0.02503141,-0.004129014,0.04422977,0.03908542,0.018760912,0.025280785,0.14403401,0.01516605,0.10004629,0.11729335,0.07898504,-0.0619319,0.03696615,0.058077104,0.06493654,-0.0036908805,-0.104176216,-0.053878434,0.05886356,0.003976745,0.08749568
RSM0002,0.19163293,-0.036969002,-0.028788116,0.058118816,0.024159504,-0.08828563,-0.060772367,0.026988594,-0.0054288143,-0.031064775,-0.16909891,0.0323958,0.034067836,0.12749903,-0.012629138,-0.06850107,-0.0103295185,0.14789827,-0.012164882,0.011576541,0.023956757,0.016861793,0.09654691,0.06384545,-0.087650985,-0.054610744,0.117778815,-0.014901847,-0.13795722,-0.12162414,0.078931145,-0.0083208,0.108718134,0.09110453,0.043586172,-0.020456383,0.016649578,0.16183922,-0.02677693,-0.13803038,-0.10098979,-0.032369044,0.02244062,-0.016294234,-0.02799569,0.04351257,0.045944117,0.0048196753,0.014562945,0.1335669,0.00983656,0.09540278,0.11120805,0.08465221,-0.062548965,0.048998076,0.060546633,0.04930379,-0.013195095,-0.08943992,-0.06596902,0.06981289,0.011091046,0.068308614
RSM0003,0.19366732,-0.030187031,-0.033241887,0.05251528,0.0070672645,-0.09293296,-0.06560792,0.047242776,-0.0027634131,-0.02025678,-0.16125822,0.025900062,0.035871193,0.15382513,0.003589689,-0.07870388,-0.009521967,0.14716785,-0.0127068525,0.030768164,0.013018519,0.026427096,0.078056715,0.06770494,-0.10255076,-0.0320505,0.12216571,-0.024347592,-0.14815997,-0.12180103,0.059030592,-0.011887907,0.09347873,0.07703153,0.025631145,-0.00011047335,0.008136436,0.15500475,-0.022360703,-0.13889866,-0.102085896,-0.021285536,-0.001624009,-0.023286352,-0.022814175,0.034086507,0.064341344,0.0036810094,0.04467822,0.12449751,0.0013579838,0.10082268,0.1104784,0.08209528,-0.035923343,0.0418163,0.055343736,0.05866092,-0.008305868,-0.103454866,-0.0410075,0.051069885,0.015339184,0.07135766
RSM0004,0.18715923,-0.060078487,-0.02062409,0.07179478,0.03174585,-0.106986,-0.0592801,0.02998436,-0.020055654,-0.029870884,-0.1655346,0.0012027574,0.038332507,0.12586688,-0.007703683,-0.052408013,0.012184212,0.12216759,-0.01744171,0.033247855,0.024318632,0.0055099344,0.0902097,0.07368392,-0.109548844,-0.03347721,0.12403483,-0.013409461,-0.15080687,-0.120070525,0.06864295,-0.008055953,0.09673065,0.08935614,0.046635486,-0.021295777,0.020962162,0.17308345,-0.018442687,-0.12124263,-0.09428608,-0.044256646,0.013308612,-0.01662787,-0.02781469,0.05426616,0.04570491,0.01616496,0.03384847,0.14429154,0.018788109,0.07391641,0.11701401,0.061679598,-0.046569694,0.030804452,0.057318512,0.073956914,-0.0050773616,-0.08434254,-0.062070396,0.062911116,0.00736028,0.066928826
RSM0008,0.25223476,-0.042562053,-0.044296183,0.08412401,0.020519529,-0.13139236,-0.054741763,0.04611789,-0.045316055,-0.020460993,-0.2031387,0.010913048,0.08044337,0.18584234,-0.050739672,-0.11717067,0.008669101,0.1727029,-0.012223512,0.03567033,0.025545154,0.03742429,0.12771435,0.086564645,-0.13665682,-0.036663607,0.1351446,-0.002893547,-0.197231,-0.14591599,0.07309877,0.0016480358,0.17644742,0.114033096,0.069232285,0.012524902,-0.0026367756,0.21043389,-0.043128308,-0.1725321,-0.12328384,-0.034884054,0.010875518,-0.023121515,-0.05505942,0.053740326,0.053641632,0.0018975106,0.035117872,0.16682549,0.018115861,0.1115558,0.14450172,0.103649944,-0.052662123,0.011428743,0.078411706,0.096855715,-0.04188295,-0.118971854,-0.052420966,0.06232015,0.027302463,0.10158454
RSM0009,0.2784628,-0.053475674,-0.03402273,0.06267976,0.034958854,-0.11092112,-0.051702823,0.04145411,-0.027292622,-0.014738407,-0.19232671,0.030947547,0.07027669,0.18173075,-0.040594526,-0.098659925,0.006563035,0.17834875,-0.011910069,0.03621778,0.007823562,0.025216656,0.113303445,0.08045951,-0.11236498,-0.060311586,0.14665346,0.0014221473,-0.1759315,-0.15854049,0.08073928,0.0021905657,0.18050508,0.124206126,0.07643188,0.028389508,0.016198382,0.21165295,-0.038378764,-0.16633308,-0.1445941,-0.03606378,0.0030495552,-0.014100982,-0.042751547,0.056993674,0.07677294,0.0004346945,0.044276964,0.16456588,-0.006757381,0.11014198,0.15137906,0.09419562,-0.040273327,-0.0009479709,0.08767146,0.092189275,-0.03368946,-0.11766189,-0.036782186,0.069120094,0.008693438,0.09399172
RSM0010,0.2513737,-0.07206244,-0.044867847,0.08287296,0.020539474,-0.12293099,-0.10123491,0.050646987,-0.041387275,-0.039894085,-0.18871059,0.011134326,0.04466339,0.17009817,0.006852215,-0.09310437,-0.03129477,0.20284538,0.012768736,0.019466603,0.0066025783,0.035661936,0.11969836,0.0859566,-0.13353343,-0.07426482,0.15670867,-0.027427686,-0.20726554,-0.18253976,0.07717443,-0.03957188,0.13761866,0.11393309,0.0345903,-0.027174346,0.002054316,0.22313836,-0.022952681,-0.16502695,-0.117470175,-0.03678513,0.0002462422,-0.0484612,-0.01936965,0.07451351,0.078238465,0.019214556,0.05029527,0.19077618,0.0021125204,0.10203966,0.14908841,0.08827078,-0.05032867,0.046084084,0.07254522,0.061103575,5.800819e-05,-0.13193087,-0.08853205,0.08296747,0.004470148,0.10480153
RSM0011,0.25232902,-0.08975678,-0.030946253,0.08920714,0.025490327,-0.10536455,-0.07740804,0.066561446,-0.054759733,-0.02660027,-0.1865505,0.0045258324,0.07288688,0.15762499,-0.019082045,-0.083869055,-0.03079133,0.19325353,0.018131312,0.022034636,0.015052586,0.045775276,0.11439178,0.07039482,-0.12834272,-0.04475283,0.1505505,-0.0040795673,-0.22185741,-0.17421566,0.06504708,-0.0048746276,0.124898106,0.13701327,0.056498945,-0.035248566,0.0044673025,0.19855417,-0.029556537,-0.16247357,-0.13275306,-0.04784876,-0.009498612,-0.041497566,-0.05577891,0.08454915,0.07560389,0.027759554,0.01498352,0.16747823,0.01152316,0.09418518,0.14209522,0.10575188,-0.044685084,0.021080008,0.070426606,0.058896516,-0.02055286,-0.10177499,-0.061473567,0.060826678,-0.010455931,0.11719662
RSM0012,0.2433897,-0.10438371,-0.03468144,0.073307,0.030190172,-0.101165555,-0.05450599,0.056049347,-0.05828216,-0.03219638,-0.19500394,0.011151007,0.0718736,0.14550507,-0.018912459,-0.090650305,-0.03465381,0.18546045,0.014529693,0.048987553,0.004967388,0.02724668,0.06956902,0.09695216,-0.088348076,-0.021704536,0.12764634,-0.014219301,-0.2638902,-0.16741592,0.072075866,0.0076581263,0.16114984,0.1286271,0.05463374,-0.038518295,-0.0005112426,0.16891924,-0.04026772,-0.15439105,-0.13995863,-0.013783058,-0.025211062,0.0041833497,-0.075812876,0.086411774,0.060531203,0.050634824,-0.0064324173,0.16562556,-0.0040907073,0.0940734,0.1597904,0.105230115,-0.04747559,0.020311492,0.07337806,0.060937166,-0.021561367,-0.10041752,-0.05936088,0.059230592,0.013384555,0.09624054
RSM0015,0.2910154,-0.070400104,-0.06426176,0.10301095,0.038128257,-0.15078309,-0.11298746,0.05435548,-0.01348982,-0.036422603,-0.21636863,0.01975886,0.061572026,0.19168687,0.013760447,-0.08687838,-0.008804612,0.21457331,-0.0143127795,0.02837471,0.01879298,0.024258928,0.13573556,0.09936189,-0.16070369,-0.07246784,0.1781387,-0.043357976,-0.21967067,-0.19324502,0.09254066,-0.034355383,0.14350158,0.14199233,0.03496185,-0.036335036,-0.00043596924,0.25178328,-0.02803421,-0.2075953,-0.15948711,-0.049906958,0.011986553,-0.039838366,-0.004638696,0.06922398,0.06790654,0.022117347,0.032374334,0.20483904,0.021908075,0.13744265,0.16050734,0.11381643,-0.08411743,0.060094688,0.071663566,0.07670269,0.016422061,-0.14735316,-0.08615395,0.08158533,0.00056761404,0.11094055
RSM0016,0.28044075,-0.0853261,0.11275584,0.03913866,0.12456403,-0.10684681,0.045699336,0.12644969,0.03905154,0.011164089,-0.19099988,0.07266178,0.018136952,0.18040557,-0.06490873,-0.08025475,-0.0920702,0.24016595,-0.031436067,-0.08699155,0.09256688,0.005781172,0.13417014,-0.03687917,-0.07944836,-0.08854804,0.08795234,-0.026751585,-0.17864648,-0.14024869,0.16285676,0.055547062,0.046172265,0.1373997,-0.07274276,-0.04508613,-0.033721272,0.23550653,-0.05244235,-0.050428562,-0.19931974,0.015140265,-0.07596902,-0.10286616,-0.12558305,0.03494554,0.08797224,0.06306441,0.013602154,0.15093957,0.01791136,0.10152525,0.2262668,0.17180583,0.06497988,0.10372083,0.06929791,0.038857084,-0.14363675,-0.10458047,-0.006785967,-0.09123352,-0.013380976,0.16472442
RSM0018,0.31550387,-0.05591859,-0.034414038,0.08576943,0.019868707,-0.14427428,-0.08962093,0.059428252,-0.020717666,-0.03379418,-0.23796187,0.040031493,0.05435938,0.21292426,-0.011268787,-0.08782174,0.01191763,0.20990367,-0.03074213,0.030036625,0.022918165,0.021285985,0.14499547,0.07420535,-0.16339794,-0.059165835,0.17653155,-0.031143997,-0.1880997,-0.16807285,0.111680634,-0.030031439,0.15839638,0.14315718,0.053590555,0.019522972,0.025604859,0.23312296,-0.041563623,-0.1928992,-0.16194274,-0.055257246,0.020621726,-0.026759125,-0.010629681,0.056613896,0.056582954,0.028450852,0.043594,0.18890119,0.035505887,0.13269304,0.16439627,0.109699056,-0.059262894,0.035819024,0.08290573,0.10235252,-0.01252344,-0.15970483,-0.063069806,0.0935629,0.002313733,0.10300766
RSM0019,0.2916248,-0.076634765,-0.042648014,0.06389362,0.02136119,-0.12429661,-0.0149004245,0.0709748,-0.09939492,-0.021936543,-0.22934824,0.014534055,0.1345459,0.18479618,-0.07793272,-0.13887288,-0.03957668,0.19794974,-0.006401861,0.045759607,-0.009050762,0.05035016,0.097446196,0.113322474,-0.100787126,-0.040579233,0.12018354,0.0071177613,-0.29117516,-0.17344888,0.030727718,0.039445993,0.21444231,0.17215374,0.085203394,-0.014491081,-0.0070747696,0.19481158,-0.033078603,-0.18234181,-0.13645242,-0.009583266,-0.034237284,0.0006274113,-0.114913054,0.08114818,0.073272444,0.049084023,0.001621709,0.1589542,-0.036013443,0.09135796,0.19551864,0.13619776,-0.01913866,-0.025979307,0.08403163,0.0749209,-0.07655104,-0.114948206,-0.043262865,0.04518053,0.03131811,0.105746046
RSM0020,0.2665586,-0.082142524,0.08087536,0.020318069,0.08464337,-0.09591869,0.05114168,0.10423004,-0.02370671,0.005579669,-0.21269405,0.05115666,0.095615834,0.21543248,-0.12750536,-0.14525603,-0.08799327,0.2536655,-0.034206122,-0.048648603,0.06509617,0.039806206,0.13340403,0.0067383046,-0.06618178,-0.047357433,0.05259491,0.0036046626,-0.22694163,-0.11267553,0.12506309,0.08160373,0.13841198,0.13659698,0.00037655857,-0.013547313,-0.034569524,0.17670655,-0.05671546,-0.05274743,-0.1886304,0.04257152,-0.07253016,-0.06649768,-0.15430087,0.053298675,0.07814188,0.04951624,0.0075695403,0.14724411,0.007716021,0.0935086,0.2156084,0.16728908,0.09023522,0.023095166,0.090822615,0.05766847,-0.13910684,-0.11291209,0.018121695,-0.10247623,-0.005563853,0.15558471
RSM0021,0.28908655,-0.078744926,-0.03216619,0.058024053,0.03313357,-0.13242649,-0.027994614,0.0394214,-0.07814338,-0.018569555,-0.21332987,0.01882767,0.13233437,0.17990154,-0.08910623,-0.14013657,-0.05340917,0.21076964,-0.008411158,0.041790754,-0.015595223,0.04341841,0.08764096,0.09876608,-0.1136151,-0.027455702,0.13166146,0.013408126,-0.27753553,-0.16831163,0.056340594,0.025359621,0.24494627,0.16245353,0.090102986,-0.0027555942,0.004374502,0.17509428,-0.023638098,-0.19409417,-0.15194246,0.003648415,-0.018430796,-0.00529526,-0.11211068,0.08210953,0.06008096,0.03468339,-0.00098292,0.166524,-0.022310754,0.11161612,0.19106801,0.14014249,-0.0012837491,-0.052736115,0.08547944,0.09444425,-0.045489587,-0.11911017,-0.017184537,0.040875748,0.024937548,0.112496644
RSM0022,0.33281144,-0.058037706,-0.04538051,0.07773712,0.0034727543,-0.14195015,-0.07094596,0.045958873,-0.06871036,-0.023181302,-0.24890149,0.02491391,0.09446925,0.2277084,-0.06548943,-0.1212671,-0.0004200366,0.21468045,-0.027181279,0.05292666,0.01319296,0.05275621,0.14699382,0.0988805,-0.14298202,-0.060517117,0.14554773,-0.0022915136,-0.22688879,-0.17125472,0.07912376,-0.006716212,0.21364689,0.1586785,0.08347408,0.013565451,0.023512738,0.2339861,-0.028654149,-0.19843481,-0.1472893,-0.03145249,0.019021496,-0.018662138,-0.0515422,0.058445163,0.06594948,0.011925461,0.051688682,0.18542841,0.004495419,0.1404313,0.16847184,0.14120209,-0.04626411,-0.011259776,0.098539315,0.088880815,-0.042546913,-0.17350177,-0.047261886,0.071392626,0.02494202,0.10463262
RSM0023,0.31624347,-0.09472436,0.13364597,0.045967698,0.118790716,-0.1263542,0.07656562,0.1308883,0.013802489,0.05098595,-0.21138436,0.063257195,0.038625043,0.23244432,-0.11408088,-0.12448244,-0.09493947,0.27225113,-0.064590596,-0.09024544,0.08363571,0.022494515,0.16021435,-0.063548215,-0.07948716,-0.08613498,0.074860595,-0.00766693,-0.16013005,-0.12189195,0.15553272,0.07507728,0.106654264,0.14548044,-0.016154421,0.012956077,-0.0031463092,0.23718841,-0.022587763,-0.031948373,-0.22199959,0.045638997,-0.06961915,-0.06899125,-0.12529474,0.031032693,0.07864396,0.055876434,0.019033743,0.15207747,0.011196283,0.097576044,0.24484392,0.15365297,0.11054337,0.08829602,0.08959683,0.06902213,-0.13545644,-0.13175705,0.022451883,-0.13797575,0.0020033217,0.18428558
RSM0024,0.35620055,-0.07161599,-0.06604518,0.10082677,0.015135268,-0.1665372,-0.11371152,0.04690608,-0.014470694,-0.018836852,-0.2696801,0.011258696,0.058794472,0.2552482,-0.00832055,-0.10945208,0.018875884,0.21084312,-0.048667185,0.042186957,0.02335744,0.04119044,0.16521743,0.10175493,-0.19102553,-0.08322336,0.2141186,-0.006761254,-0.22064869,-0.19245912,0.11587176,-0.01574838,0.17970222,0.1473047,0.06071452,0.019648587,0.017046701,0.26537904,-0.02500961,-0.22083578,-0.17042053,-0.06320692,0.01961493,-0.05493539,-0.033938486,0.06712619,0.082501955,0.0170364,0.06300267,0.23322235,0.035194438,0.1528019,0.17507277,0.12551491,-0.09744485,0.046411157,0.08710085,0.12255774,-0.0012293027,-0.15740739,-0.07834074,0.087173425,0.00677733,0.12089779
RSM0025,0.29424402,-0.09751002,0.07659679,0.025819857,0.10131273,-0.12711853,0.08081938,0.11679095,-0.005458724,0.02918911,-0.20686696,0.06357682,0.07402934,0.1998511,-0.12436025,-0.12438354,-0.12772341,0.24727966,-0.022550061,-0.026495915,0.07805734,0.018382665,0.14772625,0.0007568282,-0.058418788,-0.064067155,0.07022421,0.0039976086,-0.26381758,-0.14855127,0.124817334,0.077359,0.13551211,0.17292543,0.0015486773,-0.041825246,-0.03684326,0.20042962,-0.056138065,-0.06614061,-0.17878358,0.056941554,-0.092909664,-0.084934115,-0.15163395,0.06257679,0.07592811,0.056149606,-0.029001646,0.16203217,0.0015467667,0.09228066,0.24135485,0.19212884,0.09809082,0.032558702,0.071886264,0.023693087,-0.17062517,-0.1238613,0.02585896,-0.100556284,0.010794943,0.13994111
RSM0026,0.29643136,-0.0863055,-0.038180273,0.07263229,0.034988664,-0.14949611,-0.054119233,0.08089889,-0.0450369,-0.04551642,-0.21940754,0.025415901,0.09939227,0.21797764,-0.035149157,-0.12570633,-0.019684888,0.21723738,-0.010501428,0.014684163,0.03073429,0.028836263,0.13214113,0.09667276,-0.13928463,-0.04684734,0.16058524,-0.003917955,-0.2401604,-0.18683887,0.084368266,-0.001683725,0.17475392,0.14999066,0.0408794,-0.009769884,-0.013116639,0.21457312,-0.04545602,-0.16185933,-0.13357031,-0.026859187,-0.009192194,-0.03221477,-0.078365095,0.070853725,0.07333748,0.025129205,0.016508553,0.19577105,0.018634632,0.11105345,0.18630491,0.12993312,-0.032581877,0.016513795,0.07991292,0.08893469,-0.044368092,-0.117069796,-0.059468184,0.054503243,0.0074647055,0.11080015
RSM0027,0.3393697,-0.08505148,-0.04550208,0.107085764,0.037674297,-0.16815,-0.10348756,0.079724826,-0.024328213,-0.0516812,-0.27431074,0.027134879,0.081243515,0.23644634,-0.01984695,-0.12659836,-0.016480487,0.24556015,-0.017747182,0.039017726,0.036017876,0.0386456,0.14753811,0.114352345,-0.17145199,-0.06547823,0.21073951,-0.03722296,-0.22165352,-0.20742807,0.1049162,-0.03902005,0.18143018,0.15107155,0.056080803,-0.009402437,0.025235225,0.2758976,-0.050913826,-0.22188093,-0.15151168,-0.074892975,0.009870245,-0.06273371,-0.023279537,0.0862038,0.08129507,0.02494013,0.0631437,0.23728614,0.020365499,0.16552085,0.17051296,0.13104466,-0.09464352,0.032503657,0.108361274,0.10468831,-0.017608533,-0.17531987,-0.095433645,0.11122561,-0.008878011,0.15152451
RSM0030,0.28119886,-0.09917937,-0.043263264,0.07599469,0.030506702,-0.14318438,-0.025349688,0.05809659,-0.090637974,-0.021495976,-0.2271284,0.005112644,0.15948395,0.20849407,-0.1104662,-0.16100714,-0.043950703,0.19855428,0.0034711333,0.035337817,-0.01690237,0.03733956,0.10131714,0.11013197,-0.09423226,-0.038661126,0.12614827,0.01813372,-0.3201586,-0.19565807,0.047043953,0.031651802,0.2385077,0.16590595,0.10866302,-0.0049349284,-0.016272305,0.17531674,-0.03696594,-0.19170262,-0.13680845,0.0075547546,-0.025854474,-0.02287282,-0.12997182,0.109855466,0.07578545,0.035310972,-0.009743712,0.18317083,-0.023858799,0.097325,0.20928842,0.14941706,0.0005076236,-0.046924274,0.0968063,0.077439055,-0.073380046,-0.12998737,-0.016339421,0.048122246,0.047964882,0.103436515
RSM0031,0.35409632,-0.07534948,-0.030234529,0.10998057,0.03477398,-0.17903806,-0.095093496,0.05648566,-0.04154702,-0.03430257,-0.2760194,0.044307534,0.06245671,0.24475166,-0.0009958126,-0.100906536,0.022570416,0.2417954,-0.019144539,0.036888998,0.020724265,0.032736268,0.15821016,0.0986881,-0.19793653,-0.07395875,0.20337568,-0.009233405,-0.22299819,-0.2062281,0.111691676,-0.016819961,0.17347752,0.16166897,0.073086716,-0.0029480865,0.015314999,0.28670222,-0.016144587,-0.22587036,-0.1837029,-0.06815316,0.032451436,-0.051420752,-0.024747929,0.076338276,0.08862891,0.026260898,0.05305141,0.24339013,0.02065366,0.17364724,0.1773196,0.11562808,-0.095704556,0.052265175,0.098854475,0.11079976,0.0016596956,-0.19164512,-0.09771469,0.09948939,0.011496847,0.1397911
RSM0033,0.34645852,-0.07094112,-0.04622694,0.09707856,0.018512297,-0.16544415,-0.1160616,0.07683715,-0.012482191,-0.052873872,-0.26879966,0.023490883,0.077741474,0.248187,-0.012668866,-0.10202362,0.0006396119,0.21950252,-0.027325036,0.025456004,0.03548742,0.050880738,0.13952498,0.11878286,-0.17994481,-0.081055015,0.2200306,-0.027760155,-0.23722371,-0.20675035,0.1038387,-0.01764501,0.18425442,0.16917889,0.06626758,-0.019241355,0.016336536,0.26112458,-0.04850597,-0.23639536,-0.15820247,-0.057230372,0.02248934,-0.060556885,-0.03595258,0.082781054,0.09127045,0.021083107,0.05352889,0.24166389,0.019741025,0.1686158,0.1690148,0.124992,-0.09415789,0.040843688,0.08059201,0.12131573,-0.008335681,-0.14815807,-0.08234422,0.103346035,0.014606363,0.14059512
RSM0035,0.340734,-0.07324958,-0.047802933,0.0846988,0.00710136,-0.13552262,-0.07085222,0.04532468,-0.06654957,-0.03306563,-0.25944394,0.0062820762,0.110856354,0.22324204,-0.048789088,-0.13784634,0.009707495,0.22720316,-0.032516863,0.032994654,0.018316446,0.049092807,0.12184701,0.10148272,-0.16683868,-0.06319449,0.19158709,0.010807733,-0.22531866,-0.17937185,0.10947998,-0.008529794,0.2421245,0.1573249,0.09961456,0.02154527,0.025103275,0.23941317,-0.047554307,-0.22544008,-0.18061322,-0.04270011,0.029381642,-0.019414818,-0.05267911,0.086850196,0.08337615,0.007691848,0.04807741,0.1995966,-0.0017993546,0.14222936,0.17483541,0.12716103,-0.052150875,0.0017805018,0.10068352,0.13231218,-0.026374826,-0.15744667,-0.05037048,0.06545369,0.0040838397,0.11443469
RSM0036,0.38012972,-0.049923964,-0.0552592,0.100962944,0.024192585,-0.15385352,-0.09424684,0.061481945,-0.023670169,-0.011626591,-0.2660334,0.043782488,0.06643051,0.25433287,-0.0329563,-0.1428955,0.015671887,0.21937361,-0.05275569,0.033377767,0.02526403,0.05624959,0.14864214,0.10935896,-0.17349896,-0.05510837,0.20043936,-0.007745663,-0.19514112,-0.19974217,0.10608841,-0.030179027,0.22448869,0.15844765,0.07389672,0.019908747,0.025711745,0.26489654,-0.026968382,-0.22135165,-0.17751995,-0.059431117,0.046434764,-0.047140576,-0.029812502,0.05426475,0.076632485,0.012935416,0.08182874,0.21958879,0.033993274,0.15761459,0.18815643,0.12148123,-0.07904665,0.041425884,0.11258237,0.1402741,-0.025052214,-0.1769531,-0.07141341,0.09678725,0.0155174015,0.127019
RSM0037,0.35808814,-0.051809106,-0.049166165,0.108272,0.024424601,-0.17761064,-0.124753654,0.056993622,-0.014760692,-0.022872562,-0.25830948,0.038904533,0.06938567,0.25486878,-0.021667128,-0.12942857,0.0200993,0.2155336,-0.04671967,0.047511738,0.016861355,0.0383849,0.1734795,0.10742951,-0.19928108,-0.067566305,0.21796125,-0.02039794,-0.20129588,-0.18740134,0.12539181,-0.009832691,0.2059431,0.15283842,0.06982878,0.019744743,0.023344627,0.27746603,-0.034656685,-0.24471934,-0.18601458,-0.0663489,0.046103604,-0.032848276,-0.027321136,0.0651754,0.07633571,0.010745452,0.058317307,0.21598557,0.02539247,0.16084771,0.16681291,0.12480891,-0.073408134,0.048523076,0.082282834,0.11555423,0.014094073,-0.16576807,-0.080959566,0.10278547,-0.0067405626,0.1402903
RSM0038,0.32501566,-0.090262234,-0.05594776,0.108386524,0.033223506,-0.15792851,-0.122005425,0.07116726,-0.03291621,-0.048304863,-0.26918963,0.019539967,0.04315013,0.2296794,0.010642064,-0.08724403,-0.008009063,0.24370615,-0.0033113365,0.04107779,0.016122261,0.02563994,0.14311333,0.09672523,-0.17443916,-0.086739965,0.22789457,-0.03963128,-0.25344956,-0.22280325,0.09967979,-0.03796298,0.15057302,0.17009236,0.06283103,-0.049164098,0.022617923,0.2752636,-0.03618673,-0.23964441,-0.16598569,-0.07637224,-0.0040147123,-0.0641168,-0.0046069636,0.067537375,0.088746384,0.042675517,0.0510535,0.24064521,0.037016053,0.1617774,0.15006484,0.132642,-0.1077559,0.06752586,0.07861693,0.083929814,-0.0053050066,-0.14630519,-0.12337413,0.100306965,-0.0064801816,0.14029707
RSM0039,0.34058547,-0.10796948,-0.06274146,0.11603775,0.036238424,-0.15753281,-0.13483842,0.063377805,-0.019209506,-0.042941257,-0.25495648,0.03226475,0.042648256,0.21138638,0.025050659,-0.10759604,-0.018546531,0.2391105,0.01787042,0.04264703,0.026783837,0.01961599,0.15468135,0.11063058,-0.16191249,-0.09513014,0.21809772,-0.042799547,-0.24302234,-0.24093497,0.11258903,-0.04313416,0.16628624,0.17606474,0.067792736,-0.037945315,0.024135895,0.2725727,-0.043786783,-0.23443574,-0.1809262,-0.057212807,0.0018349688,-0.045496244,-0.0193131,0.094763845,0.09131898,0.02386172,0.05384081,0.23700255,0.026200803,0.1393178,0.16588046,0.11361931,-0.10764126,0.077528164,0.09635008,0.0971649,-0.007304704,-0.14402908,-0.12846883,0.1255121,0.011145854,0.14403063
RSM0040,0.30488598,-0.0924474,0.12574139,0.041028406,0.14736366,-0.13079262,0.094515905,0.14414974,0.012298972,0.05105838,-0.20790046,0.09542905,0.018882794,0.19948684,-0.105390824,-0.11851078,-0.08439352,0.29247323,-0.03882917,-0.08787568,0.10868418,0.045997296,0.13097009,-0.07446748,-0.07446219,-0.09496529,0.053564012,-0.038410086,-0.20951127,-0.13075255,0.18399397,0.0676987,0.08727316,0.16033117,-0.021275716,-0.056647897,-0.011573841,0.28160343,-0.031094603,-0.034679044,-0.2542922,0.035261024,-0.105148055,-0.09508064,-0.13649154,0.02128456,0.04507201,0.04694727,0.015391073,0.17530926,0.0032757525,0.10094979,0.25970298,0.15429892,0.12042628,0.09684742,0.08931945,0.0967558,-0.13799173,-0.13947979,0.005399065,-0.14391378,-0.020580845,0.17673422
RSM0042,0.3645096,-0.06818439,0.03476133,0.07061048,0.079813965,-0.15854786,-0.009924553,0.09966073,0.034902044,0.04365899,-0.24487719,0.08565815,0.015583357,0.23633084,-0.05049652,-0.08919992,-0.022464452,0.25734863,-0.077306114,-0.011148051,0.06738209,0.010651026,0.1778537,0.031939067,-0.1461792,-0.06620723,0.14609113,-0.020016244,-0.16409297,-0.14833403,0.1635699,0.016635964,0.12345081,0.133644,-0.031631477,0.012379312,0.018714886,0.28192273,-0.02606972,-0.13999306,-0.20553593,-0.011192301,-0.0040147635,-0.07471719,-0.06365638,0.02216942,0.054851506,0.016248552,0.06420686,0.18709622,0.04920535,0.1447357,0.21687126,0.16289225,-0.01005485,0.11679707,0.082268566,0.09130135,-0.10014436,-0.18201265,-0.04238805,-0.01914776,0.00063407957,0.14384222
RSM0043,0.32780623,-0.058396716,-0.03783928,0.09024256,0.0011550067,-0.15203582,-0.074394494,0.06653315,-0.048638795,-0.003469438,-0.23708797,0.009417647,0.116594724,0.21883872,-0.0738044,-0.121744886,-0.018544372,0.21370672,-0.030192606,0.05018731,0.02344904,0.03756135,0.15477772,0.09349839,-0.16230191,-0.039859552,0.16855162,0.011138983,-0.22123504,-0.16686417,0.05056781,0.0062628114,0.21985032,0.1586109,0.06798677,0.02762303,0.008490815,0.23407026,-0.019603467,-0.19713928,-0.14294547,-0.055908676,0.006530676,-0.031449366,-0.07294867,0.07429155,0.07187086,0.008783371,0.026879601,0.18636322,0.015619044,0.106325686,0.20531684,0.11794223,-0.026448809,-0.03580396,0.075395085,0.104184,-0.061900318,-0.15874624,-0.049628034,0.051549032,0.032460574,0.11004593
RSM0044,0.36167553,-0.048408408,-0.064003296,0.09864643,0.017427,-0.1631045,-0.10935533,0.057245947,-0.026057526,-0.019575773,-0.26804128,0.02450742,0.09189698,0.2718711,-0.03554748,-0.12537973,0.029523404,0.22800523,-0.04910826,0.046889365,0.03469747,0.044885598,0.17563367,0.11664502,-0.18605827,-0.068983115,0.20612748,-0.008622525,-0.1895602,-0.1885544,0.1204132,-0.0053664325,0.20785072,0.14055899,0.08727244,0.034281004,0.029169431,0.2791846,-0.02238896,-0.23449606,-0.17563292,-0.057037972,0.029907038,-0.03578177,-0.015860744,0.056627475,0.094586365,0.015077282,0.07287264,0.22976755,0.023933277,0.15706816,0.16906938,0.10884511,-0.1002532,0.026669549,0.11433978,0.14552855,0.0113664195,-0.17518923,-0.0893045,0.11222181,0.0070565213,0.124592945
RSM0045,0.35079888,-0.042827796,0.059321944,0.051058624,0.09300088,-0.14639369,-0.02182607,0.087991565,0.030761136,0.022798756,-0.25284612,0.089074604,0.03343795,0.2526892,-0.058672283,-0.10051009,-0.020751232,0.25334802,-0.08087691,-0.019321064,0.060899284,0.0102389,0.14840195,0.022306487,-0.1649935,-0.08960914,0.14793181,0.0026293546,-0.14681344,-0.15925705,0.1948127,0.018347593,0.13065651,0.12441707,-0.02221078,0.025007602,0.027866699,0.28782696,-0.029035423,-0.1457759,-0.19353521,-0.009264647,-0.0054039815,-0.078746594,-0.07901622,0.025063658,0.0701111,0.039446034,0.03860965,0.20411806,0.06519961,0.14613836,0.19933721,0.17186292,-0.003048844,0.11190646,0.07430026,0.08322348,-0.09441797,-0.17136674,-0.022864832,-0.0015388512,0.01996814,0.14972302
RSM0046,0.32746843,-0.06338375,-0.0049089645,0.079962015,0.045852628,-0.12965833,-0.037591428,0.057000756,-0.025055539,0.00815226,-0.2355721,0.031227063,0.116102524,0.2264969,-0.06439208,-0.136295,-0.011944853,0.20679586,-0.02000223,0.013166281,0.016464809,0.0386693,0.13492613,0.081111595,-0.12908287,-0.060332756,0.15555963,0.008751742,-0.21469097,-0.16468088,0.10300321,0.033896875,0.23502436,0.15307936,0.0763559,0.041774288,0.02487427,0.23476486,-0.03905,-0.19107592,-0.18049416,-0.018493975,-0.007028079,-0.015138806,-0.08974617,0.051055178,0.083608426,0.030002125,0.05223057,0.18941994,-0.003475145,0.11608608,0.18777804,0.1447975,0.00023423208,-0.0034429384,0.10484344,0.1137002,-0.054986943,-0.16417333,-0.015827112,0.03306808,0.01893587,0.10909538
RSM0047,0.34137467,-0.093801916,0.13716201,0.02362623,0.13440776,-0.14362116,0.068972915,0.14308412,0.060113832,0.039923463,-0.23935854,0.10845177,0.02155988,0.25393376,-0.12699944,-0.12109222,-0.08099131,0.3114374,-0.06761131,-0.08704642,0.10062487,0.021391308,0.1563232,-0.06967696,-0.11116793,-0.094567955,0.08259882,-0.0056706257,-0.16991162,-0.12002005,0.20747718,0.08255298,0.08758604,0.14978561,-0.053820014,-0.020687634,-0.020057144,0.2827931,-0.028263146,-0.033007633,-0.25868776,0.042030282,-0.08013868,-0.1096785,-0.12696995,0.0034800926,0.06685201,0.052769527,0.03124547,0.18737693,0.02018604,0.13040572,0.2523515,0.20117621,0.11635126,0.114666596,0.0846888,0.076120466,-0.16073509,-0.14158559,0.017663576,-0.13091372,0.0055242595,0.1947324
RSM0048,0.3302958,-0.1052175,-0.075564325,0.11918253,0.046907987,-0.17685358,-0.08700152,0.080401786,-0.05560966,-0.03840021,-0.21806662,0.012136216,0.065772966,0.1988998,-0.014029367,-0.08310634,-0.05000667,0.24122572,0.03014171,0.04435627,0.028315848,0.03252888,0.13628437,0.09844202,-0.13821925,-0.077749945,0.20384814,-0.050479155,-0.27471507,-0.24865077,0.06242382,-0.0139352735,0.13857986,0.16506478,0.047998983,-0.056347944,-0.013961919,0.26627642,-0.023704175,-0.18769735,-0.1532853,-0.046200797,-0.016204348,-0.06975636,-0.054450873,0.10217641,0.070354186,0.034470037,0.019448055,0.24378763,0.020365769,0.124492705,0.17482196,0.1410119,-0.057133526,0.023652535,0.07129923,0.053699337,-0.03078671,-0.14303154,-0.10600284,0.07558482,0.010809609,0.12552159
RSM0049,0.29511204,-0.13568556,0.117477305,0.06479157,0.15971749,-0.12359236,0.07582255,0.1417136,0.018404474,0.009173855,-0.19991766,0.062363364,0.015739035,0.19200471,-0.07968143,-0.1189335,-0.12344908,0.30074862,-0.035414334,-0.097261064,0.10967219,0.035978243,0.129224,-0.043429393,-0.06287419,-0.09007552,0.08174008,-0.039209947,-0.23313442,-0.15514861,0.17635602,0.058153942,0.049916483,0.17101097,-0.023346,-0.098525755,-0.023656586,0.25041085,-0.056895517,-0.015083124,-0.2547595,0.041282516,-0.12328606,-0.08774528,-0.12408787,0.03466367,0.05942929,0.07602749,-0.00024364519,0.18396099,0.004350104,0.09800279,0.2692706,0.165796,0.10329564,0.103550345,0.10398695,0.04745161,-0.12427488,-0.106405534,-0.0032855833,-0.14162596,-0.02833554,0.18671702
RSM0051,0.37097096,-0.044765603,0.05559878,0.052224945,0.08279119,-0.16369554,-0.023885056,0.081123486,0.036945302,0.02422991,-0.24669528,0.0642513,0.026464337,0.25155148,-0.060319785,-0.10587352,-0.039809894,0.2536713,-0.069742076,-0.028649317,0.068717375,0.032680128,0.16914618,0.021444557,-0.15413174,-0.065371364,0.1554677,-0.0219685,-0.14284268,-0.14937161,0.18439554,0.028121678,0.14023072,0.1397345,-0.01833694,0.035029676,0.02040551,0.28776386,-0.029576957,-0.13927412,-0.2153725,-0.01636589,0.0012193801,-0.0861941,-0.06419821,0.047830004,0.07063343,0.016039716,0.06476626,0.20857523,0.059312314,0.15726423,0.19685428,0.16456896,9.580522e-05,0.11509097,0.08480485,0.09344046,-0.07812608,-0.18380125,-0.030258376,-0.013313859,0.010851994,0.16749139
RSM0052,0.37659553,-0.050945204,-0.037543688,0.101844884,0.040276285,-0.19256066,-0.13039924,0.05398075,-0.024671668,-0.016776854,-0.2876692,0.02185622,0.08545522,0.2855535,-0.018657856,-0.13964447,0.008712016,0.23379828,-0.057628237,0.045520063,0.027862843,0.0516063,0.17929886,0.10628992,-0.18471473,-0.082579054,0.21303497,-0.025085388,-0.22052354,-0.19419235,0.11280144,-0.013329609,0.20425479,0.1476409,0.07885634,0.048825845,0.041169886,0.3115345,-0.03526724,-0.23873584,-0.19449377,-0.067994416,0.055487003,-0.04432284,-0.037347835,0.061213437,0.07589119,0.0009183319,0.060184434,0.23474991,0.022099942,0.16408846,0.17742017,0.13058722,-0.09680624,0.05410438,0.098342806,0.13005619,-0.010233507,-0.18394113,-0.06672173,0.11757808,0.0211846,0.14263032
RSM0053,0.35823783,-0.066900976,0.039116815,0.049879316,0.100256264,-0.16246003,-0.02075211,0.08450706,0.041970108,0.04787788,-0.25335848,0.08394794,0.021851886,0.24709539,-0.05151358,-0.09739234,-0.037663456,0.25504056,-0.087178834,-0.018287752,0.07407911,0.033038296,0.18550645,0.034678496,-0.17489083,-0.074967004,0.13608454,-0.003173001,-0.14353442,-0.16517639,0.18575826,0.032160964,0.14106011,0.14476103,-0.017016336,0.020305876,0.021411682,0.2883517,-0.010939612,-0.13910636,-0.2006123,-0.03736221,0.017807864,-0.08209931,-0.06397097,0.035121273,0.074183986,0.028535336,0.06037972,0.20155044,0.039800446,0.15983059,0.20711127,0.16716687,0.008897474,0.12282658,0.062103115,0.08101887,-0.099299125,-0.17518343,-0.040856957,-0.012785777,0.014965419,0.14294887
RSM0054,0.36025515,-0.06408765,0.06675771,0.049222782,0.1063238,-0.15919347,-0.02750187,0.08418518,0.029614111,0.03319128,-0.25519055,0.07082135,0.008608033,0.2222234,-0.042145506,-0.09624077,-0.032403123,0.25694993,-0.06061566,-0.041122407,0.08588482,0.022722265,0.17516257,0.01698716,-0.16554335,-0.06923271,0.13278411,-0.008264198,-0.16079593,-0.1516964,0.17782757,0.013393354,0.13073935,0.12752485,-0.03050159,0.010249289,0.028246773,0.29957184,-0.034468792,-0.13498467,-0.21812889,-0.02387044,0.015084421,-0.0945913,-0.06739608,0.044542126,0.06912975,0.040268797,0.045261797,0.18513489,0.0362596,0.15245216,0.19989577,0.14926066,0.016447155,0.10633636,0.06680524,0.088234425,-0.07802997,-0.1736134,-0.052821405,-0.010112729,0.021906946,0.14418928
RSM0055,0.30260184,-0.08566351,0.10427096,0.011878216,0.118048325,-0.10708587,0.09822556,0.08592339,0.016754314,0.042390727,-0.23550412,0.07653975,0.10632084,0.19410813,-0.121386364,-0.16329262,-0.11709011,0.27119705,-0.031603448,-0.050487626,0.06130303,0.033169966,0.10239013,0.030757604,-0.05747225,-0.041114695,0.09224752,0.0015674508,-0.27396008,-0.08567404,0.14994901,0.086013764,0.20225202,0.15372702,0.017906267,-0.00062664604,-0.022077326,0.21166652,-0.06249686,-0.101168215,-0.21335812,0.06462281,-0.05241372,-0.01180052,-0.19145161,0.07506681,0.07458384,0.06740672,-0.0058425586,0.158994,-0.00028359424,0.12397308,0.24781935,0.193857,0.075074,0.045480438,0.104679495,0.08774897,-0.12935789,-0.10339895,0.008248828,-0.11139924,-0.03203197,0.17615472
RSM0056,0.34584495,-0.04331986,-0.04420548,0.103033416,0.028535124,-0.18713342,-0.07835714,0.06306941,-0.036620144,-0.014115499,-0.24277347,0.039349336,0.114928454,0.23745357,-0.073596075,-0.13043667,-0.007630966,0.22319242,-0.025617227,0.03179653,0.033627678,0.02864944,0.18466952,0.10856901,-0.18486184,-0.07691738,0.18905129,-0.006944948,-0.23750786,-0.22101139,0.084239855,0.018258622,0.22417751,0.14093769,0.06612907,0.0352539,0.014432351,0.25801417,-0.029825265,-0.19610849,-0.16229159,-0.04987141,0.024026196,-0.06609202,-0.040554624,0.06161412,0.06431428,-0.0005387197,0.03966739,0.19456372,0.0022512972,0.12881051,0.20326945,0.120378904,-0.04424259,-0.017557906,0.085485704,0.09413149,-0.04933154,-0.1785415,-0.058440953,0.07429186,0.025302941,0.113927394
RSM0057,0.34586307,-0.059442792,-0.028175607,0.086435705,0.019953974,-0.15839168,-0.06380282,0.045070715,-0.049621787,-0.0028900835,-0.26801535,0.029350264,0.09778476,0.23769249,-0.064419195,-0.13677625,-0.0087902695,0.22008233,-0.04943634,0.038348973,0.005782169,0.055105705,0.14383289,0.092004195,-0.1569333,-0.060133737,0.16883118,0.0045330347,-0.23102589,-0.16955943,0.11193684,0.018135432,0.24339984,0.15885858,0.08965732,0.049741454,0.0067794165,0.25327185,-0.034522116,-0.22128594,-0.16431376,-0.058932938,0.016336195,-0.028108599,-0.07107573,0.07018451,0.08736051,0.016542522,0.046916764,0.19885728,0.019193145,0.15670691,0.21031825,0.13331689,-0.04258459,0.017398318,0.08882265,0.11256118,-0.023590276,-0.15906341,-0.05081659,0.072697006,0.009357308,0.14446004
RSM0058,0.33404937,-0.07653689,-0.041854072,0.08231523,0.05010661,-0.14974418,-0.06036458,0.04792445,-0.037871487,-0.02779098,-0.25363344,0.043330994,0.087463334,0.22060955,-0.04993946,-0.13187572,-0.03071212,0.21218427,-0.03845843,0.024812173,0.010373211,0.0545358,0.13805948,0.11841546,-0.17507018,-0.04844025,0.19248502,-0.008703101,-0.23665258,-0.18372747,0.09060076,-0.009973942,0.18879373,0.15223353,0.07216319,0.0084008975,0.0048742043,0.26636356,-0.05066207,-0.23001036,-0.18858586,-0.045629323,0.008234629,-0.021117238,-0.071919605,0.082504906,0.06937803,0.011638143,0.043037493,0.22283676,0.006541982,0.13288441,0.19761227,0.15412304,-0.07883676,0.031636722,0.10767018,0.11311002,-0.019528827,-0.1671323,-0.06797293,0.086291075,0.009833215,0.13368869
RSM0059,0.32337847,-0.0934967,0.04395967,0.07061892,0.084422804,-0.14480302,-0.009556817,0.10780522,-0.021409342,0.013201134,-0.2120188,0.049489945,0.066150576,0.20405278,-0.088830106,-0.12606008,-0.060753424,0.25967994,-0.03456365,0.0064098923,0.05891199,0.022207737,0.14738388,0.02550876,-0.13249654,-0.078003585,0.10921315,-0.009523427,-0.22765319,-0.1751639,0.11390832,0.02977983,0.12412827,0.14481167,0.03423117,-0.023952048,-0.013757295,0.25634217,-0.03330318,-0.12293712,-0.18497622,-0.010080617,-0.039781988,-0.07401301,-0.09533331,0.06736823,0.075764105,0.023979653,0.038346272,0.182296,0.015634058,0.1076634,0.23369521,0.16872971,0.0544941,0.050571896,0.07383455,0.09306154,-0.097561926,-0.14370568,-0.028342845,-0.018491905,0.0008482486,0.111963235
RSM0060,0.29958543,-0.15496954,0.026694478,0.08297869,0.06542806,-0.13581178,-0.006208209,0.10063638,-0.05750228,-0.033631574,-0.19878575,0.046578024,0.09866935,0.17017072,-0.057978835,-0.11187138,-0.08623683,0.25357768,0.02149161,0.0009836766,0.020355502,0.044096675,0.09567175,0.039164156,-0.076947354,-0.074159764,0.12789561,-0.010415914,-0.31986868,-0.17936426,0.0823348,0.025182633,0.1380742,0.16332941,0.031371042,-0.06597785,-0.04160512,0.22745326,-0.064805776,-0.11905766,-0.18651238,-0.0055743,-0.0621782,-0.05945835,-0.12139375,0.07052904,0.06954612,0.07989427,-0.006914859,0.21062066,-0.0040442585,0.09180745,0.22789164,0.1456864,0.009105638,0.035386555,0.09880168,0.06119355,-0.10029326,-0.09690968,-0.042808723,-0.02134827,-0.0018082785,0.14819841
RSM0061,0.2653971,-0.10750691,0.0010059582,0.06618798,0.076273754,-0.11496391,0.011270452,0.092545986,-0.06252304,-0.05423077,-0.18661499,0.02451961,0.12941487,0.16291942,-0.0963395,-0.12618215,-0.093276866,0.21849355,0.009371443,-0.007405335,0.02519774,0.023073755,0.08749863,0.07999955,-0.07882535,-0.05672556,0.10813291,0.00041945808,-0.30895814,-0.18141928,0.0758601,0.0328333,0.16475701,0.16596638,0.049367793,-0.06254146,-0.039482076,0.18967284,-0.08092705,-0.11124527,-0.15521434,0.02162414,-0.06439809,-0.05192884,-0.1304514,0.09092399,0.07722589,0.0806859,-0.016943268,0.18194737,-0.004845308,0.09544459,0.21137121,0.1774501,0.021741472,-0.00953025,0.09936844,0.020815551,-0.083114974,-0.09402857,-0.041054957,-0.024703933,-0.007094595,0.12366685
RSM0062,0.33689514,-0.08844361,-0.041329958,0.11485664,0.035812486,-0.17449114,-0.07892322,0.08559642,-0.061758965,-0.05717533,-0.2307995,0.03247472,0.09540728,0.20315875,-0.018574208,-0.110074356,-0.029826924,0.22622266,0.0059191934,0.06038771,0.026718054,0.035911344,0.16629957,0.10269383,-0.14103146,-0.06937702,0.19770393,-0.018775716,-0.28902617,-0.24217525,0.08442787,-0.004401678,0.13575205,0.15726107,0.06598362,-0.05433463,0.0074764425,0.25268012,-0.024904564,-0.18527009,-0.14560083,-0.059568577,0.001907515,-0.06250314,-0.059678234,0.08856184,0.08644186,0.053811576,0.031021418,0.22461124,0.016228685,0.12450087,0.19668326,0.14802162,-0.06235756,0.014549675,0.08523976,0.078832865,-0.017319283,-0.14277482,-0.10554211,0.090867184,0.0290947,0.10846951
RSM0063,0.32753706,-0.106672324,0.11423334,0.039908096,0.14488441,-0.13851783,0.07641881,0.1348914,0.040179525,0.04154376,-0.21245433,0.09731556,0.022303205,0.18996182,-0.08650103,-0.103406385,-0.14571975,0.28809512,-0.049657833,-0.09004595,0.09238323,0.009676906,0.14540963,-0.018478708,-0.1012305,-0.08518188,0.09609118,-0.019476002,-0.21978387,-0.17168424,0.17843992,0.075417094,0.051041197,0.17032793,-0.0785802,-0.0621834,-0.030466657,0.26330635,-0.05648549,-0.045463227,-0.23048167,0.033776723,-0.089373425,-0.10602381,-0.13654312,0.04277222,0.0892971,0.068596266,-0.0013680687,0.18939051,0.03786507,0.097043686,0.27161875,0.1993292,0.08795279,0.1393986,0.08375694,0.021066036,-0.16540495,-0.101937875,-0.00014385827,-0.13988943,0.0069343713,0.19017828
RSM0064,0.34422624,-0.07470349,-0.030310307,0.120757796,0.018480388,-0.18582585,-0.06575613,0.07256302,-0.037235074,-0.021381658,-0.25728184,0.038055014,0.095199026,0.24383643,-0.04817106,-0.12291878,-0.0047939233,0.21560025,-0.032112997,0.044765655,0.011167274,0.033188984,0.16010712,0.10798873,-0.17081754,-0.062249165,0.18319577,-0.02600107,-0.23593359,-0.21778895,0.09346929,0.01626854,0.1753923,0.16512737,0.069895536,0.002475455,0.01495049,0.2686171,-0.010782165,-0.19659066,-0.17739652,-0.0405519,0.024348155,-0.06284322,-0.059737686,0.098096214,0.07362847,0.027643595,0.03936065,0.22009751,0.013498813,0.13022678,0.20276983,0.13748978,-0.058248714,0.010420309,0.09334311,0.10847443,-0.023808153,-0.16802102,-0.07636225,0.063329875,0.009655088,0.094025664
RSM0065,0.33575317,-0.08802774,-0.050467122,0.079329565,0.027697282,-0.16092567,-0.089534745,0.045321826,-0.06690276,-0.042813104,-0.26464957,0.012921503,0.11396566,0.21108603,-0.034234017,-0.14142501,-0.037567757,0.23754802,0.0070708045,0.041593038,0.0061692437,0.04310957,0.11837817,0.1377374,-0.15153518,-0.032337904,0.21318553,0.0008519441,-0.29247347,-0.19743876,0.076417685,-0.009760322,0.23940268,0.15332854,0.08767551,-0.0032643285,-0.009409243,0.26491338,-0.04491102,-0.23703733,-0.180803,-0.052886162,0.016303616,-0.01704127,-0.07530491,0.09912096,0.06572288,0.032743268,0.022970121,0.20677127,-0.0003009605,0.12968954,0.20525578,0.13875023,-0.055638302,0.00027352088,0.100477,0.11905008,-0.037022494,-0.15926614,-0.073101066,0.09077221,0.0041958876,0.13322012
RSM0067,0.33018497,-0.13014995,0.110355765,0.06018914,0.14145157,-0.13082214,0.07719312,0.1250416,0.028408607,0.038110614,-0.2247803,0.09846787,-0.0004678816,0.205823,-0.08206421,-0.11732059,-0.099093355,0.29180822,-0.03928911,-0.07623912,0.09584132,0.026809629,0.13549943,-0.061516162,-0.0711846,-0.096212976,0.081134796,-0.034337156,-0.2302384,-0.14676702,0.17210148,0.044684533,0.057628322,0.16833219,-0.031299133,-0.06881709,-0.03058203,0.28901362,-0.030330848,-0.03190092,-0.24303153,0.033624567,-0.087613,-0.09275223,-0.11643026,0.041539546,0.05021348,0.07194936,0.020468017,0.18028006,-0.010609335,0.09941258,0.24193318,0.16832578,0.09327253,0.12729251,0.088891625,0.07226407,-0.12531509,-0.1343763,-0.0025525952,-0.13038124,-0.03283511,0.18079858
RSM0068,0.359018,-0.06250082,-0.047286335,0.07693614,0.017841946,-0.14963607,-0.086300895,0.061064597,-0.06957784,-0.0051680617,-0.26745057,0.032049883,0.11453943,0.24364385,-0.041782457,-0.14993186,-0.005078543,0.23028521,-0.02395871,0.066046886,0.001684125,0.05757988,0.13377742,0.12510975,-0.17109215,-0.035625495,0.1842362,0.011175432,-0.27919966,-0.19386013,0.09628395,-0.018171133,0.23608425,0.14529917,0.10480465,0.020521386,0.013900749,0.27668622,-0.026346944,-0.24011903,-0.199288,-0.04877989,0.016369034,-0.022856018,-0.06768997,0.10479055,0.08614635,0.0043352414,0.06373795,0.2143942,-0.0058429963,0.14144497,0.21834187,0.1317239,-0.07081402,0.019784853,0.09370922,0.15130466,-0.019982763,-0.17801,-0.07895466,0.080307044,0.005436037,0.12715702
RSM0069,0.35776058,-0.044464186,-0.048373863,0.104834706,0.015158619,-0.14711337,-0.10951072,0.053969152,-0.041074466,-0.031185167,-0.2854885,0.042364635,0.11241114,0.2439341,-0.045135785,-0.15261394,-0.0008981549,0.22209701,-0.029329687,0.06634016,0.018399177,0.057238318,0.13395372,0.1209648,-0.19066998,-0.06634615,0.23262116,-0.00028051392,-0.26077524,-0.18015169,0.10522069,-0.020108957,0.23725593,0.13933124,0.10344715,0.03585553,0.015514914,0.26059714,-0.06405559,-0.23768878,-0.16912521,-0.052621104,0.020977197,-0.016581183,-0.051804688,0.09005974,0.089104466,0.006409856,0.06595922,0.21836844,-0.0020962388,0.16383873,0.18658939,0.12690812,-0.0758309,0.010349186,0.11236663,0.13259006,-0.025570897,-0.15010068,-0.07432741,0.08280161,0.0010842634,0.12182829
RSM0072,0.32750592,-0.09777492,-0.05472684,0.090702295,0.043977622,-0.13648361,-0.05199329,0.035678063,-0.08370943,-0.058432568,-0.27658683,0.024203155,0.12804145,0.17870262,-0.04480819,-0.14327207,-0.063999854,0.2578417,0.032751244,0.0536693,-0.0033914575,0.062536776,0.080611184,0.119307704,-0.13455075,-0.048400436,0.2093482,0.0044289683,-0.32641116,-0.19184461,0.09017441,-0.0028808592,0.22780189,0.1747228,0.08418462,-0.01982349,-0.025945636,0.24074587,-0.052142315,-0.24132702,-0.19313535,-0.02200604,-0.004773601,0.015108906,-0.091892235,0.10063677,0.05851769,0.06262356,0.024449712,0.22466594,-0.01615899,0.13226184,0.19697154,0.14019004,-0.056442004,0.02750512,0.095630206,0.12516128,-0.01581401,-0.13085613,-0.0915521,0.0722407,-0.0049719866,0.13894354
RSM0073,0.38442892,-0.08531884,-0.07335923,0.14052658,0.039428566,-0.17516549,-0.123465724,0.07592939,-0.04330136,-0.031292614,-0.29782966,0.0345059,0.062900245,0.23806472,0.019218061,-0.09604493,0.004107023,0.25879106,-0.02358305,0.063078344,0.033396196,0.051967468,0.15597445,0.13248135,-0.18878372,-0.06920736,0.24559814,-0.029880816,-0.24127598,-0.24827348,0.13769306,-0.040607058,0.16703972,0.1652693,0.08263387,-0.028579215,0.016773952,0.3354814,-0.023289787,-0.28436875,-0.18875821,-0.08540498,0.030686244,-0.047941893,-0.0069782827,0.0793625,0.096866675,0.001856458,0.07949246,0.27246204,0.033383258,0.17997639,0.18518528,0.11237127,-0.10336096,0.09541517,0.0904229,0.123543896,0.03735532,-0.17376865,-0.12501326,0.124508575,-0.0036667248,0.14315481
RSM0075,0.37597874,-0.119644046,-0.06161353,0.12805034,0.04301151,-0.19473037,-0.14232297,0.07405946,-0.04403137,-0.053450905,-0.28190047,0.0155012645,0.05039029,0.21294472,0.025841825,-0.09266035,-0.0044811424,0.26065135,-0.0027883442,0.05174518,0.014515141,0.048588358,0.15564325,0.12401459,-0.18259954,-0.0936473,0.24963647,-0.037942935,-0.2741637,-0.2607463,0.11472839,-0.047378015,0.13310134,0.16277233,0.06533375,-0.049704533,0.0051344284,0.32412875,-0.047029458,-0.27285385,-0.2029604,-0.06210646,0.026649008,-0.06126857,-0.001957509,0.08710322,0.078218184,0.023960462,0.056644626,0.28964123,0.021513319,0.1652949,0.18037647,0.12640253,-0.14171252,0.096102126,0.114741035,0.112611495,0.021869328,-0.1552195,-0.13813601,0.12389466,0.0100591825,0.1326074
RSM0076,0.29504165,-0.11387764,-0.028255355,0.093041435,0.04565168,-0.13194047,-0.051711015,0.03922656,-0.10035003,-0.054073386,-0.24205437,0.009317751,0.11981592,0.17511523,-0.057496972,-0.13497138,-0.08474262,0.24738736,0.01900169,0.043905105,0.00011898874,0.050323848,0.077808075,0.13800563,-0.11904645,-0.025343267,0.18247229,-0.006604362,-0.3529633,-0.18853371,0.08399408,-0.0039872,0.21965055,0.15545763,0.08841147,-0.036181755,-0.028469583,0.2214334,-0.066467,-0.23245871,-0.19464779,-0.0008183776,-0.022117473,0.011101229,-0.11955132,0.1299412,0.06835432,0.057694353,-0.008153997,0.19622907,-0.05085328,0.13342243,0.20450719,0.1437171,-0.05346411,0.0014788203,0.09870898,0.10105596,-0.0190444,-0.12671173,-0.08608236,0.055773202,0.006316722,0.14181589
RSM0077,0.33144653,-0.09383146,-0.06256319,0.11890994,0.051343214,-0.16257618,-0.1063307,0.07165163,-0.06541117,-0.044408564,-0.2584478,0.017775014,0.09163532,0.20593363,-0.0379545,-0.12326104,-0.042385124,0.23972195,0.011928381,0.06295528,0.019589482,0.045930058,0.1490959,0.11283666,-0.15815172,-0.053575847,0.22630182,-0.021279398,-0.29639545,-0.2402086,0.084553465,-0.018880954,0.18008539,0.15944456,0.06875317,-0.039919194,-0.013418233,0.27230307,-0.05906812,-0.22842424,-0.17188704,-0.033309583,0.00037241832,-0.055216864,-0.050535187,0.1061907,0.09402484,0.041945454,0.04004367,0.24665147,-0.015764346,0.11874861,0.18895149,0.14699702,-0.083226204,0.038003147,0.08957014,0.082439244,0.0021286292,-0.13282949,-0.089937344,0.11455348,0.024593966,0.11005907
RSM0078,0.4164589,-0.06887041,-0.04663368,0.11441384,0.017084526,-0.19806176,-0.1302791,0.06352977,-0.034123685,-0.02924244,-0.30611643,0.038905162,0.08160589,0.30369416,-0.006898763,-0.13664925,0.028961955,0.249224,-0.04320212,0.042966027,0.022427369,0.035763454,0.17122218,0.09987622,-0.22868769,-0.06998573,0.24869272,-0.028059855,-0.19839916,-0.21565671,0.14193189,-0.0125747565,0.22069916,0.14610846,0.096674874,0.040655278,0.04629621,0.3127987,-0.03105581,-0.2798066,-0.20818733,-0.076781206,0.05138294,-0.055922214,-0.005489471,0.06974749,0.08159229,-0.011487824,0.09428405,0.26181817,0.043129545,0.19924854,0.18076696,0.11976162,-0.08666991,0.035658095,0.11578778,0.15873387,0.01074066,-0.21945359,-0.09897291,0.13063587,0.026900055,0.15908442
RSM0079,0.3975584,-0.0659948,-0.041511826,0.10274174,0.02030538,-0.16979471,-0.11948111,0.053135216,-0.038386475,-0.004910554,-0.2801715,0.034578092,0.06720507,0.27571055,-0.017589297,-0.14132567,0.046131425,0.23102826,-0.07029129,0.05719304,0.028848689,0.039885923,0.17474627,0.0924093,-0.19712982,-0.070180416,0.22963114,-0.025682429,-0.206917,-0.20150313,0.12825753,-0.031152545,0.21245268,0.1583354,0.068392366,0.03854675,0.029560663,0.31321713,-0.014890799,-0.26112068,-0.19564751,-0.08904652,0.051318932,-0.044299297,-0.0017435693,0.061226513,0.07381876,-0.016266353,0.0956716,0.24742621,0.01593761,0.18716794,0.19794175,0.13649552,-0.08777038,0.063951075,0.08934224,0.14397545,0.015767125,-0.22059317,-0.09950458,0.10335026,0.026084976,0.13475609
RSM0080,0.36764008,-0.058427025,-0.06633626,0.09224599,0.024154294,-0.19590206,-0.11366889,0.06789588,-0.037558984,-0.018339258,-0.26541114,0.04034631,0.07769065,0.28446278,-0.045139387,-0.120113686,0.023847532,0.22232927,-0.031723887,0.0399735,0.014147569,0.046874624,0.18165514,0.117915556,-0.20138708,-0.06563653,0.22257513,-0.010870627,-0.21831621,-0.20189403,0.096543,-0.011511075,0.21161707,0.17324051,0.07081993,0.039880898,0.046538815,0.2713545,-0.014605002,-0.25213,-0.18444788,-0.08343142,0.03439951,-0.062830366,-0.024817858,0.07331145,0.07136169,0.005490807,0.077476054,0.24006845,0.037922874,0.14767449,0.1994367,0.11594886,-0.080182225,0.016648136,0.08238477,0.1167893,-0.0002848376,-0.20144306,-0.08502816,0.104258046,0.0077061406,0.12353291
RSM0081,0.3294062,-0.07628959,0.07784389,0.03547378,0.094174646,-0.14106758,0.10016662,0.10876365,-0.015238622,0.045713212,-0.22448795,0.056759253,0.13278422,0.20345633,-0.15098266,-0.16487546,-0.1212779,0.25714234,-0.050733518,-0.021625381,0.07328386,0.02176925,0.120563,0.014855425,-0.07082565,-0.062378425,0.070165135,0.01549995,-0.286865,-0.1150434,0.1082122,0.08968825,0.17660043,0.14296126,0.0167683,-0.010088714,-0.030508518,0.23011026,-0.055140227,-0.091204196,-0.20179422,0.03619579,-0.07413853,-0.05248836,-0.19240089,0.062547214,0.06395185,0.057585925,0.002548448,0.15686804,-0.014422882,0.08255956,0.27583632,0.19291331,0.09730391,0.0099477535,0.09199819,0.07551379,-0.18811952,-0.14491948,0.036290716,-0.12311158,0.0076599633,0.16163172
RSM0083,0.37227383,-0.058455635,-0.069729574,0.09002454,0.020216648,-0.1658173,-0.11059562,0.032235432,-0.04826658,-0.034142174,-0.2936765,0.013311883,0.10992667,0.2481995,-0.03531212,-0.16726667,-0.0007253435,0.25752884,-0.01943737,0.05029646,0.018131569,0.07300377,0.11766108,0.12998107,-0.19021966,-0.05104269,0.21944246,-0.0031991496,-0.26792386,-0.18851927,0.10451496,-0.026605118,0.27850085,0.1372361,0.11760727,0.039203525,0.016599255,0.27875763,-0.066938825,-0.27389523,-0.17698753,-0.049583822,0.023530772,0.0153182,-0.055359192,0.07382732,0.094256125,0.028537974,0.064911194,0.21750472,-0.0041130534,0.17028436,0.21065982,0.12668793,-0.09451739,-0.008422345,0.11868357,0.15541953,-0.007580804,-0.15659733,-0.07349429,0.09474687,0.008254988,0.1552672
RSM0084,0.38314235,-0.06747908,0.11282029,0.04391163,0.1321333,-0.1634482,0.06458578,0.1240279,0.061223846,0.064927414,-0.25552106,0.086618036,0.03384674,0.2703472,-0.10830659,-0.13269395,-0.06874425,0.2999981,-0.07454149,-0.07080492,0.09929641,0.023750488,0.17960133,-0.040066116,-0.11694362,-0.10148864,0.08089396,-0.008275707,-0.17989543,-0.14701739,0.20302539,0.07129264,0.116946995,0.14596651,-0.024183067,0.012990069,0.014971206,0.30114284,-0.050734375,-0.072060496,-0.25944632,0.0048969216,-0.03952258,-0.095778696,-0.13837056,0.008995909,0.07214151,0.04906763,0.044238277,0.2078413,0.026272055,0.12481876,0.258948,0.1761194,0.09172779,0.12218691,0.0997064,0.08681709,-0.15547903,-0.16960037,0.0030730278,-0.109105654,-0.011907094,0.16948988
RSM0085,0.32914278,-0.053824354,0.047833543,0.044708863,0.094038345,-0.13566037,0.020598337,0.07236857,-0.003968137,0.016432898,-0.25605646,0.058837634,0.08820561,0.2341584,-0.10811803,-0.14730075,-0.06360612,0.2585359,-0.052082453,-0.017379025,0.034386545,0.048434965,0.12510248,0.014055441,-0.109797426,-0.06579539,0.11083639,0.009874231,-0.23780361,-0.12997235,0.12653811,0.049952127,0.21668391,0.14299838,0.033183664,0.029124571,-0.0040639415,0.25046718,-0.04845992,-0.12883487,-0.22625698,-0.0011552048,-0.01933229,-0.03678567,-0.11961208,0.042487387,0.052714087,0.028775033,0.030673835,0.19480792,-0.0014238235,0.12568709,0.22882038,0.16469571,0.04403325,0.03600296,0.11215784,0.11384984,-0.08091071,-0.16014744,-0.019754803,-0.05024602,-0.00110196,0.14267068
RSM0086,0.3811341,-0.058355737,-0.06973687,0.1045242,0.0023024578,-0.17838791,-0.11540378,0.0389836,-0.060100865,-0.034433722,-0.27848327,0.0356985,0.13220586,0.2522499,-0.03753693,-0.15976572,0.029681033,0.23096095,-0.038622018,0.04612681,0.0085869795,0.04958495,0.15829018,0.11990402,-0.18632469,-0.063645564,0.2155399,-0.0071398593,-0.24644884,-0.20102282,0.11505835,-0.017386377,0.26564524,0.15247059,0.09522886,0.061083786,0.017738618,0.26561528,-0.062216148,-0.2703857,-0.18102174,-0.051179416,0.04099003,-0.005255936,-0.051189262,0.09145985,0.07214113,0.008157734,0.07778447,0.23097295,0.013193296,0.15582228,0.20169377,0.120329045,-0.07156675,0.0020981913,0.11551432,0.13540494,-0.0050383904,-0.18928619,-0.054950893,0.110138044,-0.008881592,0.1447648
RSM0087,0.36494634,-0.04254095,-0.046352062,0.09638262,-0.000107417545,-0.17306791,-0.11348207,0.0523607,-0.0445169,-0.035219975,-0.2959519,0.012867911,0.13330115,0.25729278,-0.046132516,-0.17272215,0.03079404,0.23367347,-0.021980464,0.047257088,0.029897496,0.06366115,0.14621004,0.119970724,-0.18213089,-0.06448986,0.20073764,-0.011522727,-0.24228317,-0.18107338,0.09495738,0.0030074336,0.26090658,0.14471176,0.08953231,0.044887673,0.02758689,0.25464126,-0.05113719,-0.24513566,-0.16647756,-0.053546734,0.04291675,-0.0016196603,-0.05374343,0.075406924,0.09477199,0.019128092,0.05907578,0.23316085,0.027522288,0.1564539,0.20680276,0.11656235,-0.074675456,-0.0058071297,0.09898544,0.14932582,-0.029119343,-0.16365805,-0.06880218,0.11041691,0.015774269,0.12508664
RSM0088,0.3189165,-0.119171955,0.032290712,0.0660295,0.10952936,-0.14972137,-0.0037273266,0.09956395,-0.009474169,-0.0047738235,-0.23920956,0.044436906,0.06025994,0.19679137,-0.03639913,-0.10889086,-0.07798433,0.27366677,-0.0038989945,-0.021925295,0.04123987,0.04227079,0.11200633,0.029462386,-0.10143192,-0.09118863,0.14544441,-0.034237005,-0.25429797,-0.18450023,0.14125924,0.015753468,0.11285406,0.14360368,0.017633531,-0.0625921,-0.019865548,0.2610333,-0.044294793,-0.14053135,-0.21003434,-0.00024089105,-0.076017804,-0.063433915,-0.09201895,0.076947846,0.0777663,0.060315542,0.0032496639,0.22148018,-0.0015677214,0.113429114,0.20915623,0.14179476,0.02940131,0.07819584,0.098092504,0.07515311,-0.079278134,-0.12007732,-0.04936779,-0.018285189,-0.02182375,0.1432003
RSM0089,0.36327747,-0.13385618,0.12068943,0.050781425,0.14764223,-0.14655505,0.05007558,0.15786959,0.037239034,0.009397929,-0.25795105,0.10187256,0.0021161688,0.20685935,-0.06764575,-0.09352732,-0.10136488,0.33054808,-0.032096747,-0.08396691,0.092682466,0.04032661,0.16416399,-0.029733982,-0.11426688,-0.10560834,0.12730193,-0.028168863,-0.23350638,-0.18362378,0.20245172,0.035050172,0.05005298,0.15330565,-0.056304406,-0.08698214,-0.014457973,0.30114186,-0.060198605,-0.082180314,-0.24460658,0.014098945,-0.07542895,-0.10199332,-0.1298647,0.048272673,0.062403318,0.06520771,0.022608893,0.23074956,0.01754381,0.12811202,0.25245544,0.19694197,0.08892148,0.1520101,0.075887226,0.07150425,-0.14744999,-0.15077348,-0.022600038,-0.088721745,-0.00866316,0.19931902
RSM0090,0.37244108,-0.06397211,0.16107878,0.027232403,0.17234012,-0.16200383,0.119473726,0.1308543,0.081372894,0.061051458,-0.24511251,0.11280989,0.034599565,0.24442723,-0.123130195,-0.14651048,-0.10594596,0.31039178,-0.09363974,-0.09227727,0.10256776,0.011640824,0.1780423,-0.053704128,-0.10378167,-0.10466797,0.08877083,-0.014722532,-0.16002491,-0.11603609,0.2133608,0.1004941,0.10664234,0.15336251,-0.058617707,0.010127826,-0.0039773793,0.26932764,-0.03490889,-0.028346961,-0.2814091,0.046041626,-0.089287326,-0.10484579,-0.14036453,0.012876038,0.07914997,0.058367442,0.03741092,0.1801974,0.044524524,0.13745792,0.27691296,0.21375912,0.12575458,0.124874674,0.084447116,0.07715988,-0.16133974,-0.1540839,0.03666647,-0.1836333,-0.011909916,0.21067235
RSM0092,0.29385132,-0.09431774,0.08715955,0.026236868,0.117965825,-0.112593316,0.11438455,0.08464137,-0.040906567,0.032850295,-0.23226915,0.041163463,0.14921544,0.19318219,-0.17214252,-0.20494683,-0.11321508,0.28652456,-0.017333105,-0.010104679,0.029128004,0.052217077,0.08296738,0.034197714,-0.061584093,-0.04562536,0.06265809,0.044320017,-0.3398735,-0.118047,0.11911803,0.11589719,0.24826647,0.19121483,0.051695433,0.015115199,-0.040733125,0.18595071,-0.05301282,-0.10074308,-0.21601194,0.06882053,-0.09892516,-0.0048202802,-0.22410898,0.06367598,0.0769901,0.074789375,-0.03228666,0.16764933,-0.052450176,0.10641921,0.28081587,0.2199461,0.11772945,-0.017282264,0.09410791,0.06979115,-0.16980107,-0.11406757,0.030652847,-0.119709715,-0.001028302,0.15201192
RSM0093,0.38057956,-0.04431576,-0.042825818,0.1161988,0.029188795,-0.17234132,-0.11373203,0.05032402,-0.024388451,-0.013394405,-0.27503502,0.03503504,0.08610086,0.27353707,-0.028099356,-0.13245955,0.03601496,0.2418307,-0.07099463,0.053905196,0.03916312,0.056513596,0.16132967,0.11919923,-0.21351495,-0.06583711,0.2158425,-0.0086183995,-0.18882912,-0.19436458,0.10692156,-0.007709099,0.21886072,0.14734612,0.08229246,0.06593704,0.026784217,0.28071064,-0.027963,-0.24019608,-0.19354977,-0.07568353,0.045578945,-0.026865639,-0.010321924,0.08487834,0.104163125,-0.0020787392,0.07681605,0.23758142,0.022165352,0.1914694,0.17838354,0.11331076,-0.09766946,0.028154286,0.11370789,0.14169502,-0.017726708,-0.1809438,-0.080877714,0.09017957,0.004704778,0.13026556
RSM0094,0.3900638,-0.050325263,-0.040464014,0.09247063,0.04006735,-0.18039003,-0.10811967,0.05959265,-0.022677103,-0.016943399,-0.29010415,0.02956538,0.07659608,0.26664832,-0.05418061,-0.12213824,0.02974978,0.24520324,-0.066360496,0.04050223,0.0374702,0.029563084,0.17516482,0.07999386,-0.18735813,-0.07800046,0.1988756,-0.02195626,-0.19248837,-0.18947653,0.14927363,-0.0036786464,0.2325871,0.14586961,0.078414686,0.03709795,0.037587628,0.306433,-0.02106871,-0.21119073,-0.20713782,-0.048934627,0.018619644,-0.05103689,-0.030837126,0.06759179,0.08224637,0.016456114,0.08514704,0.22008939,0.046273746,0.17501435,0.20815322,0.1394287,-0.056374475,0.02492951,0.09337726,0.14037324,-0.03848049,-0.19599369,-0.072042845,0.070144586,0.007474374,0.13151674
RSM0096,0.35632044,-0.054968357,-0.043504205,0.078930385,0.01606224,-0.13862246,-0.076832734,0.038116336,-0.08018572,-0.032194618,-0.2831374,0.031220173,0.12406522,0.2268859,-0.074683495,-0.16210075,-0.007818722,0.23397225,-0.022023795,0.04791731,0.019242914,0.06591234,0.12479353,0.12726569,-0.16204919,-0.0200794,0.21531329,0.0072653354,-0.31028578,-0.19023961,0.10750414,0.0039738407,0.2830508,0.1626806,0.11431861,0.026073076,0.017390147,0.26996014,-0.06830745,-0.27404183,-0.20381254,-0.0472082,0.00981167,0.030065425,-0.09833421,0.08897307,0.08274642,0.03142154,0.03828889,0.2225014,-0.026712319,0.1464496,0.19644262,0.13094202,-0.07752051,0.0020885542,0.1207655,0.15199918,-0.009984007,-0.15834534,-0.07752832,0.09586983,-0.0055596293,0.13784084
RSM0097,0.35648355,-0.06718512,-0.052736156,0.09494465,0.020355126,-0.15407191,-0.09435294,0.02088719,-0.043677036,-0.030089585,-0.31255642,0.032380305,0.13125478,0.23447368,-0.03753014,-0.15783545,0.010545672,0.24761534,-0.034271613,0.047307394,0.00092207047,0.053578142,0.14309613,0.12928194,-0.17910957,-0.04134982,0.21815987,-0.005431512,-0.28220108,-0.19254805,0.108992934,-0.022175264,0.2768211,0.16466558,0.11710512,0.031825528,0.02121893,0.28270474,-0.051168736,-0.2707856,-0.20759028,-0.0663405,0.025919944,0.025126638,-0.04964717,0.07135744,0.071990326,0.024002858,0.0417995,0.2219534,-0.01335726,0.18228719,0.20951757,0.12797175,-0.071493894,0.024491202,0.13322479,0.14171295,0.0064290166,-0.16039434,-0.06178927,0.0996916,0.001874344,0.14906497
RSM0098,0.3650293,-0.087786585,-0.066426724,0.11948202,0.04138372,-0.15752882,-0.11741304,0.06118387,-0.05612025,-0.025258496,-0.28342775,0.044668403,0.08886608,0.21337096,-0.01604165,-0.12653658,-0.023258653,0.25168467,-0.0043589133,0.07337573,0.0077170096,0.056687668,0.14673789,0.1269596,-0.1714934,-0.05622951,0.24575987,-0.028982796,-0.2808383,-0.24168512,0.10446949,-0.029373657,0.22377364,0.16871259,0.07902923,-0.020915367,-0.0025823545,0.3022581,-0.056548078,-0.2608326,-0.19455697,-0.07556908,0.008798711,-0.028299604,-0.051681988,0.10708043,0.07789029,0.016717386,0.04415174,0.25605062,0.00081597094,0.15126534,0.18265514,0.1274039,-0.09537309,0.030933838,0.10851908,0.14249155,0.02226356,-0.17593679,-0.09826363,0.10583063,0.01669136,0.14466557
RSM0100,0.33236766,-0.14896211,-0.04257643,0.10067534,0.049827367,-0.15390415,-0.07275413,0.058812693,-0.08123177,-0.07199154,-0.25021195,0.0044645187,0.0855483,0.17433605,-0.0065963967,-0.13586038,-0.075747915,0.23525356,0.02873498,0.036573533,-0.0059112827,0.043181553,0.10810351,0.11848371,-0.13519564,-0.040582377,0.19650453,-0.016649352,-0.3490315,-0.22185695,0.10147498,-0.021853095,0.20540728,0.18839371,0.08241037,-0.043346774,-0.0052515813,0.26449454,-0.049603134,-0.22403377,-0.19084395,-0.030677034,-0.011898383,-0.004921438,-0.096143745,0.09833314,0.0630028,0.046540163,-0.0026983838,0.24283727,-0.03322759,0.11952064,0.21710081,0.15642951,-0.08853219,0.04357126,0.110441126,0.08150186,-0.014373911,-0.11769705,-0.109778486,0.091601826,0.0058997152,0.13311885
RSM0104,0.39152405,-0.11394326,0.15723677,0.04444505,0.16424325,-0.14312324,0.105544895,0.13683976,0.07580629,0.061052844,-0.265143,0.14199404,0.0021758606,0.24911767,-0.123812705,-0.12460739,-0.12970917,0.3175663,-0.089414164,-0.081963256,0.12827507,0.029527256,0.18232165,-0.045053508,-0.12550378,-0.118785076,0.108756095,-0.0125135295,-0.21140249,-0.12887178,0.2430729,0.081341766,0.08003811,0.15972991,-0.07113771,-0.028448252,-0.0042098905,0.32552338,-0.032568574,-0.058662314,-0.2703551,0.035165485,-0.07718726,-0.13661385,-0.14936171,0.032402158,0.08433743,0.059477724,0.00051273254,0.19558148,0.052426267,0.12560594,0.2865046,0.23630619,0.12639372,0.16234437,0.06515761,0.08337417,-0.18725446,-0.1542686,-0.0094674295,-0.16638695,0.0020046518,0.20927073
RSM0105,0.37627497,-0.06187925,-0.058297265,0.12120438,0.057588663,-0.18186434,-0.11949323,0.07357324,-0.008365154,-0.030096864,-0.29688743,0.055405647,0.07755413,0.26254717,0.0069773383,-0.11837581,0.0034759354,0.26169816,-0.037643243,0.049738884,0.034557864,0.04000765,0.17280278,0.126124,-0.19450282,-0.09362587,0.2250421,-0.015691336,-0.24996336,-0.24209233,0.13086867,-0.041776154,0.17936818,0.15999179,0.061017517,0.015411594,0.02095504,0.313677,-0.024193464,-0.26257655,-0.20471372,-0.059557907,0.037448343,-0.050237548,-0.027435096,0.07971458,0.078674905,0.026904222,0.07182286,0.24788603,0.030241264,0.16654985,0.20214768,0.13484247,-0.0951823,0.07831336,0.09714185,0.14189039,0.011071453,-0.19580416,-0.108737275,0.12151927,0.019148342,0.15535975
RSM0106,0.3648928,-0.10872235,-0.07071375,0.12500383,0.0289956,-0.16518468,-0.1053385,0.07335007,-0.038711134,-0.044276517,-0.2818709,0.032822784,0.08643224,0.21256694,-0.03645846,-0.12012608,-0.026173366,0.24963675,-0.016287297,0.06941245,0.0069933413,0.040689796,0.1516627,0.11019581,-0.16569977,-0.06997371,0.23281099,-0.037942864,-0.30515975,-0.2571475,0.11475036,-0.0115640145,0.1809434,0.17692076,0.08805416,-0.018306408,-0.0068679657,0.30617315,-0.02752286,-0.25720173,-0.17857818,-0.05617637,0.023474153,-0.047293913,-0.056671888,0.09937531,0.08240206,0.027104162,0.032710206,0.25298315,-0.004121089,0.1401417,0.19920145,0.1630316,-0.08956297,0.060737282,0.07811113,0.103027314,-0.021115247,-0.17974092,-0.11585963,0.10545191,-0.0039585275,0.1252776
RSM0107,0.35704285,-0.09613244,0.02960325,0.09120821,0.095501445,-0.16548935,-0.026446968,0.09747237,0.028022727,0.023565527,-0.2572334,0.078031726,0.022383077,0.23847216,-0.03621411,-0.09920826,-0.032656796,0.2883049,-0.0583144,-0.02070021,0.067877375,0.020119647,0.1514098,0.047688022,-0.16238028,-0.08206642,0.1785439,-0.045640867,-0.20773523,-0.20484604,0.18367617,-0.006919382,0.09718487,0.14490783,-0.016116325,-0.025607223,0.027659647,0.3190652,-0.04775532,-0.1651213,-0.22546948,-0.031910457,-0.003493798,-0.07995196,-0.042389378,0.050945804,0.08527007,0.045146964,0.05108719,0.2322684,0.034741726,0.1359105,0.21858299,0.16559784,-0.0027195436,0.12204469,0.09186748,0.1077855,-0.056277987,-0.15432326,-0.07885197,-0.00033021634,-0.010883182,0.14792503
RSM0108,0.316325,-0.10040493,0.026270453,0.067094654,0.07175585,-0.13202055,0.018040054,0.062195595,-0.05592197,0.016248705,-0.2611285,0.044463925,0.099448875,0.18593214,-0.10459453,-0.1496818,-0.06340184,0.25307074,-0.019700741,0.023929162,0.035833985,0.043907877,0.094591126,0.061594438,-0.11818246,-0.033305824,0.13881192,0.018017273,-0.2796111,-0.1396951,0.117060795,0.033687547,0.2493051,0.13974568,0.071664825,0.02220089,-0.02065211,0.23363838,-0.050322216,-0.18385728,-0.2111964,0.011368459,-0.02102367,-0.013635496,-0.11501532,0.08366106,0.062244054,0.055122934,0.02044791,0.19316198,-0.026025884,0.11320643,0.24571437,0.16303284,0.0038707266,0.032166496,0.12049268,0.115074426,-0.062294964,-0.14537832,-0.01143366,-0.019670928,-0.004284013,0.13754098
RSM0109,0.370008,-0.07949446,0.047294684,0.07293736,0.10024316,-0.16196963,-0.040665768,0.09764984,0.0336713,0.014082769,-0.25421607,0.09646167,0.019429531,0.25961313,-0.055641443,-0.09757133,-0.03822108,0.28734952,-0.077082805,-0.0004555875,0.06792414,0.033851232,0.1748427,0.025717521,-0.16617483,-0.09425483,0.17661536,-0.020497313,-0.18805099,-0.16827542,0.19788925,0.006367022,0.12303104,0.14707963,-0.0044711395,0.0011888643,0.028523328,0.31781387,-0.02895444,-0.17896928,-0.2165834,-0.025233254,0.006475741,-0.08807767,-0.05436574,0.05871742,0.06361602,0.029546289,0.057705738,0.20795354,0.04566595,0.16476731,0.22659543,0.14766243,-0.008995778,0.10950528,0.09700538,0.12743208,-0.067413904,-0.17300738,-0.05051717,-0.004785185,-0.014861902,0.14380892
RSM0110,0.38233718,-0.06601301,0.056647193,0.060263075,0.12773441,-0.16968982,0.001976331,0.11770688,0.07118495,0.038692895,-0.2689779,0.10002647,0.007678579,0.22405893,-0.052402835,-0.10178654,-0.06573282,0.28562754,-0.08462904,-0.031590804,0.07230013,0.014486117,0.16929163,0.014993545,-0.15662904,-0.10530235,0.17109922,-0.021083232,-0.17936473,-0.15411627,0.20616606,0.01893028,0.105367556,0.14489298,-0.045722824,0.009911752,0.016651474,0.32612526,-0.013481769,-0.14782687,-0.23480436,-0.028308865,-9.6782926e-05,-0.10727649,-0.063713156,0.048767332,0.07621078,0.030581264,0.059081174,0.21777108,0.039868534,0.14808623,0.21021132,0.17504023,0.007362791,0.16238591,0.062406126,0.094504744,-0.09726359,-0.17600238,-0.06376684,-0.03406686,-0.008808672,0.16744463
RSM0111,0.38475078,-0.06365395,-0.037784465,0.111667894,0.033546783,-0.17792152,-0.12250848,0.057180036,-0.0158695,-0.027016176,-0.28764665,0.027637292,0.058905065,0.2686318,-0.01509743,-0.11829297,0.008024939,0.2713922,-0.04951574,0.06355156,0.018351134,0.038109086,0.17209098,0.12863255,-0.19375384,-0.092474505,0.23455049,-0.02259751,-0.23390357,-0.23895931,0.14633642,-0.031809103,0.18424276,0.16414703,0.05889599,-0.0050484883,0.035147093,0.3178827,-0.032000728,-0.2661236,-0.20654592,-0.05894263,0.05041455,-0.062448766,-0.041632157,0.0949918,0.10096786,0.010543494,0.059903305,0.24750446,0.0056696557,0.16903117,0.20001902,0.12866087,-0.10601672,0.046394188,0.0919591,0.1274639,0.01423931,-0.19272768,-0.09062385,0.102896616,0.019850895,0.1504281
RSM0112,0.3793204,-0.09889654,-0.079537146,0.10373868,0.031205049,-0.1793942,-0.120355494,0.044018563,-0.043006856,-0.0399186,-0.28163075,0.037946686,0.0804406,0.21737815,-0.016808942,-0.11574434,-0.017459841,0.26922905,0.013801517,0.08179784,0.013965626,0.049144287,0.14411183,0.13141955,-0.19063523,-0.058218256,0.24020335,-0.0414201,-0.31495172,-0.23331569,0.12552053,-0.035727147,0.20032139,0.16109034,0.08932188,-0.01834854,0.021723703,0.30180004,-0.04872396,-0.2724317,-0.21350722,-0.060623035,0.023566386,-0.030004641,-0.044619832,0.09094866,0.097235814,0.025748668,0.047359724,0.26763672,0.01637046,0.15456311,0.20181255,0.13829464,-0.100238435,0.037801,0.11852175,0.15004796,0.0056043835,-0.17550892,-0.109358266,0.11786551,-0.0025159447,0.14984761
RSM0113,0.3658312,-0.09919523,0.11647899,0.06151799,0.13264906,-0.16390507,0.011955299,0.1135164,0.02357252,0.034177233,-0.23835424,0.08199256,-0.00926972,0.22239435,-0.051513195,-0.11171107,-0.08406081,0.31999537,-0.06881821,-0.06072104,0.07761682,0.026829507,0.134911,-0.029454917,-0.10392035,-0.1120014,0.12377887,-0.03568779,-0.20791581,-0.15277389,0.20452248,0.01884073,0.08908567,0.1561585,0.0024530678,-0.033351146,-0.003473349,0.32244873,-0.011119272,-0.111733824,-0.27474895,0.01231249,-0.07014265,-0.08796787,-0.08358409,0.034956027,0.043928638,0.044322997,0.04091226,0.19922651,0.023584463,0.124213316,0.22951502,0.15403418,0.049562998,0.14733143,0.10250704,0.11049305,-0.068708055,-0.14549205,-0.017343419,-0.07777115,-0.01624992,0.18019968
RSM0114,0.34940886,-0.14275913,0.13420524,0.041080635,0.18851362,-0.15702446,0.093183264,0.15019964,0.06694627,0.018866565,-0.22261353,0.08680969,-0.012438343,0.20868488,-0.07262989,-0.100546844,-0.15239824,0.3330247,-0.04451368,-0.11520301,0.10862649,0.018240264,0.1769524,-0.048178367,-0.072366975,-0.1183256,0.120355204,-0.03451647,-0.22931652,-0.17912313,0.22793142,0.04946262,0.020395422,0.16975714,-0.08172846,-0.07022542,-0.024522753,0.29370666,-0.060428336,-0.023064924,-0.2549733,0.043199435,-0.11951055,-0.11973724,-0.14558466,0.04295498,0.09539858,0.083836116,-0.0023573753,0.21117765,0.018816566,0.114349194,0.2742755,0.21662891,0.08407051,0.15457924,0.08536759,0.05864938,-0.1674875,-0.12817247,-0.008191451,-0.14380707,-0.021125766,0.21910888
RSM0116,0.3326575,-0.085853994,-0.07153152,0.09107456,0.027612047,-0.15601388,-0.116698116,0.07072823,-0.0345063,-0.06287868,-0.2692064,0.027253198,0.09816232,0.21421099,-0.036982976,-0.12374839,-0.034398947,0.23207504,-0.005779341,0.056260962,0.010687627,0.0515542,0.115056604,0.10151222,-0.14930138,-0.06420076,0.21841417,-0.018475082,-0.2652976,-0.22247949,0.10789091,-0.018472409,0.19602928,0.15004057,0.06480772,-0.008838865,0.00651675,0.26774845,-0.04535555,-0.2315945,-0.17671624,-0.05609698,0.00016209148,-0.021024646,-0.0358887,0.08687629,0.099709846,0.041927658,0.03354761,0.23856118,0.01976816,0.15241711,0.17605835,0.1264621,-0.069386646,0.036938623,0.11000006,0.09493201,-0.023434542,-0.12471668,-0.10415227,0.09664411,0.0018008149,0.13282315
RSM0117,0.41991436,-0.12118915,-0.06894963,0.15099639,0.036853198,-0.18286811,-0.14990878,0.06924723,-0.020311344,-0.05930587,-0.31545252,0.032267984,0.051211514,0.24970749,0.04027225,-0.10403836,-0.011663165,0.29249436,-0.0054312246,0.055991232,0.01120446,0.037798572,0.15113838,0.13241367,-0.20932397,-0.10088208,0.2627946,-0.042011853,-0.27631536,-0.2890619,0.13931188,-0.05942352,0.1708002,0.17456625,0.06583225,-0.050495565,0.012293213,0.33822435,-0.030123748,-0.29930997,-0.2251751,-0.09555737,0.018776817,-0.055392202,-0.012355402,0.084466435,0.08725599,0.038724884,0.053402584,0.2837618,0.028635198,0.17427808,0.20438312,0.12772608,-0.12883252,0.121324964,0.10160487,0.1398608,0.03317356,-0.17524475,-0.13720532,0.13683829,-0.00036502208,0.15121476
RSM0118,0.39657465,-0.046958372,-0.06247676,0.096762426,0.028507538,-0.19039619,-0.12193175,0.051646374,-0.034757797,-0.017391726,-0.28084624,0.037008435,0.10134277,0.2715089,-0.062391866,-0.15724438,0.02011,0.24150217,-0.04524501,0.06451746,0.022038333,0.05621827,0.19601654,0.12792666,-0.20417827,-0.06496442,0.2134256,-0.001953219,-0.22437611,-0.21034485,0.104994066,-0.021708304,0.23625542,0.16764839,0.09136834,0.05429411,0.029666144,0.29385394,-0.017874626,-0.23825975,-0.1775215,-0.061442323,0.03570305,-0.05596523,-0.041239247,0.08371576,0.10305062,-0.0012470931,0.061489977,0.22861277,0.016821004,0.16471587,0.19552945,0.12603743,-0.065033935,0.016564026,0.10526159,0.15204631,-0.02061621,-0.21592253,-0.074237145,0.114457205,0.0031152898,0.14909054
RSM0119,0.36878717,-0.05498746,0.026068488,0.0672264,0.087088846,-0.15517841,-0.04614611,0.09772628,0.0354346,0.00788484,-0.2622837,0.08001886,0.036785536,0.26305655,-0.057080712,-0.12725975,-0.020124922,0.27408686,-0.060878403,-0.02525514,0.081271335,0.02189566,0.17959875,0.031326883,-0.15737836,-0.08112529,0.15258291,-0.007701578,-0.18046574,-0.15420529,0.16173501,0.023535853,0.16304515,0.15848683,-0.0035142298,0.035534784,0.033869497,0.2955187,-0.022043541,-0.15285927,-0.22081728,-0.0458282,0.014238629,-0.08992002,-0.06408256,0.04535857,0.07703491,0.01589006,0.047611967,0.21875302,0.05299262,0.14843778,0.22618826,0.16657035,-0.013200216,0.095433764,0.10332948,0.10706534,-0.09411383,-0.1812089,-0.04003613,-0.011193959,0.017936504,0.16218776
RSM0122,0.36293352,-0.061768766,-0.06275082,0.09614376,0.01368843,-0.1826793,-0.068348646,0.0617936,-0.104651116,-0.015368117,-0.26693636,0.0065985336,0.12234792,0.24191387,-0.09160127,-0.15948379,-0.027699575,0.20456399,-0.019554043,0.08848695,0.009877165,0.0409862,0.14699833,0.11635982,-0.15359288,-0.040304713,0.15488383,0.01033796,-0.2812123,-0.22428912,0.040369432,0.041221324,0.23630258,0.16826485,0.11543443,0.023027847,0.015028145,0.27021918,-0.022165963,-0.24686155,-0.17149004,-0.056821533,0.019117689,-0.051016334,-0.09117709,0.087434165,0.050351623,-0.00092286244,0.025011195,0.19377127,-0.01977031,0.11234664,0.23001726,0.14664246,-0.024673868,-0.04713015,0.07665384,0.11099488,-0.04619869,-0.20339839,-0.04881232,0.094745696,0.031779017,0.075976335
RSM0123,0.36364087,-0.08997534,0.114357926,0.06590732,0.14473468,-0.16969433,0.061267305,0.118265174,0.026666744,0.06023009,-0.25938645,0.071785405,0.019291997,0.27655765,-0.10510278,-0.14161903,-0.06344406,0.2845767,-0.076444976,-0.07684113,0.07882829,0.04023868,0.1629721,-0.031931136,-0.120842725,-0.08664194,0.1229737,-0.026275543,-0.15939915,-0.11427086,0.2043853,0.05868815,0.11917125,0.16526496,0.0017389219,0.01902415,0.010453436,0.3067382,-0.02324358,-0.094173215,-0.27790305,0.035823323,-0.04300208,-0.08349159,-0.104499154,0.037461657,0.062111717,0.018117882,0.035945136,0.19100805,0.030048618,0.15445839,0.26917443,0.17429,0.08558692,0.10211873,0.08818438,0.11721875,-0.11060098,-0.17745957,0.027682872,-0.11373867,-0.009002638,0.17080423
RSM0124,0.38505447,-0.07660133,0.08637646,0.050298247,0.122674435,-0.16456854,-0.004803495,0.109661505,0.06966217,0.04268989,-0.25411013,0.09012308,0.002792468,0.2705211,-0.074205674,-0.113854066,-0.050221656,0.27677414,-0.092622355,-0.053127527,0.08709372,0.016762784,0.18614465,-0.012600015,-0.17859702,-0.09035091,0.14631751,-0.024993133,-0.14243755,-0.16308874,0.23363401,0.05191688,0.13734968,0.13131137,-0.046999935,0.0353824,0.035354353,0.2953154,-0.037368916,-0.15423805,-0.25271687,-0.0135348365,0.0010774329,-0.08352912,-0.10155827,0.048167218,0.06024082,0.027561182,0.055748936,0.20839024,0.0752133,0.16285893,0.23276778,0.19034399,0.020787446,0.14818354,0.06896708,0.111055516,-0.12974295,-0.18527743,-0.0234692,-0.05115513,0.018573837,0.16562396
RSM0125,0.3805132,-0.061927516,0.03262273,0.06685566,0.070670694,-0.17969233,-0.026076112,0.105731905,0.026996018,0.039439667,-0.2602908,0.067493536,0.03634481,0.27925992,-0.06043208,-0.11677353,-0.028706694,0.27042294,-0.060753696,-0.01909554,0.06630687,0.037050817,0.18936555,0.03280816,-0.15522161,-0.09479223,0.16046213,-0.010362843,-0.17239107,-0.16768216,0.18427663,0.022581492,0.16988972,0.13362484,0.0058698,0.024872424,0.02196594,0.31428623,-0.022463797,-0.15227146,-0.20963527,-0.04805555,0.014626255,-0.08570043,-0.06136859,0.029430686,0.09147496,0.038709734,0.048932537,0.2015278,0.056071386,0.15306666,0.2018743,0.16050532,-0.011545527,0.107626796,0.09146592,0.09772194,-0.09487431,-0.17077227,-0.024050284,0.009880702,-0.0054593636,0.17442174
RSM0129,0.33927557,-0.12834135,-0.06728772,0.10683014,0.04989073,-0.17142767,-0.09486649,0.056185983,-0.06549578,-0.061553027,-0.2787639,0.013047238,0.07471135,0.19741037,-0.018437397,-0.11215181,-0.05177681,0.23731159,0.01687817,0.054574296,0.020605627,0.05045719,0.13455072,0.12270055,-0.16083011,-0.05428452,0.2316172,-0.019705158,-0.30820552,-0.26213485,0.08684235,-0.016988885,0.16280489,0.17999667,0.08776652,-0.06784277,-0.018355291,0.2659154,-0.044166192,-0.23444666,-0.16777246,-0.03530655,-0.00636681,-0.033162873,-0.07122444,0.122598834,0.09210041,0.05205892,0.0358559,0.2445951,-0.011984038,0.13582346,0.19783315,0.13889833,-0.0810518,0.05443699,0.102289,0.1089274,0.0065827076,-0.15507117,-0.11947263,0.10092698,0.015989792,0.14938655
RSM0132,0.3623767,-0.07299662,-0.023822242,0.06239421,0.017499996,-0.15845673,-0.04525667,0.055140372,-0.10362564,-0.016944828,-0.26852247,0.00884221,0.14950517,0.22074588,-0.09397379,-0.18398768,-0.025453093,0.25689247,-0.008185214,0.05110132,0.0078004478,0.03661405,0.11742203,0.109108195,-0.14408535,-0.022618972,0.17257437,0.013134489,-0.29650047,-0.18529138,0.07963008,0.0041200356,0.30766767,0.16184399,0.1097744,0.025240958,0.020424854,0.23572268,-0.037995227,-0.23250684,-0.18647078,-0.03680207,0.014101883,-0.002965295,-0.10621941,0.10994609,0.04619373,0.017035805,0.039937396,0.20006366,-0.030013314,0.1520464,0.2344215,0.14503208,-0.050519466,-0.018959047,0.098497316,0.13160467,-0.07280659,-0.17981227,-0.054717712,0.068509,0.03312839,0.1338209
RSM0133,0.36154404,-0.061166983,-0.072178036,0.081990786,0.04842802,-0.1402721,-0.059354343,0.027801322,-0.079207495,-0.03273141,-0.31071782,0.015185201,0.1390929,0.22083788,-0.06947308,-0.1838448,-0.034999687,0.24279217,-0.027762055,0.060712323,0.0036596647,0.06371461,0.11112567,0.14328365,-0.14170904,-0.017593665,0.19290337,0.034881998,-0.32098323,-0.1606491,0.101418056,0.025031514,0.32846868,0.15536833,0.14667831,0.06817042,0.018833596,0.24448867,-0.07622538,-0.2833189,-0.21135901,-0.011813652,0.016223406,0.040805783,-0.099969015,0.101209976,0.06660887,0.030732559,0.030996803,0.21706401,-0.04092429,0.14799488,0.21066858,0.14698501,-0.084778555,-0.02095888,0.11198127,0.14173993,-0.0060809315,-0.16017298,-0.0575139,0.07465669,-0.015004559,0.12899214
RSM0134,0.38887158,-0.08607164,0.08530886,0.07017468,0.09903834,-0.15827678,0.029538935,0.1323149,0.030351747,0.052629057,-0.23848227,0.097028844,0.0397039,0.25320435,-0.0857053,-0.123621464,-0.06667808,0.29578725,-0.08176568,-0.056005254,0.073681265,0.025316518,0.17492773,0.012315463,-0.15476982,-0.08695655,0.13308291,-0.0023303847,-0.1844081,-0.15699312,0.1824954,0.038701274,0.10724392,0.14381133,-0.035807934,0.016889257,0.007363013,0.29229838,-0.020741722,-0.13273086,-0.22887035,0.00165162,-0.029143076,-0.097824074,-0.10935607,0.05119622,0.06581733,0.033596057,0.052782062,0.19864519,0.038426716,0.13350163,0.23871209,0.1999835,0.046836916,0.101796485,0.07187626,0.10565619,-0.11365256,-0.19484848,-0.0027955782,-0.05938758,0.016475882,0.16976558
RSM0135,0.4240967,-0.08497653,-0.05358256,0.13414668,0.024971047,-0.20453715,-0.10874791,0.054853898,-0.03334828,-0.023294672,-0.3132709,0.025914278,0.08139641,0.30305713,-0.01554632,-0.14479253,-0.00069330697,0.26604217,-0.03425676,0.049355168,0.031030687,0.03823023,0.19036064,0.13013822,-0.22566566,-0.085705884,0.24028142,-0.018756073,-0.23581421,-0.22203329,0.13731381,-0.020514296,0.2213236,0.16602205,0.067102194,0.040335715,0.048268802,0.34731877,-0.030848268,-0.29416776,-0.23928946,-0.06513372,0.048288662,-0.0477813,-0.03847364,0.08777334,0.06839771,0.012927971,0.06951969,0.2668467,0.009581118,0.19878595,0.22927006,0.15677474,-0.09911002,0.06374221,0.11384596,0.1488523,-0.013074152,-0.223,-0.109892935,0.12537453,0.019267187,0.13866523
RSM0136,0.3337421,-0.031330217,0.014351324,0.06665369,0.0680985,-0.14290826,-0.01938168,0.08029717,-0.01576618,-0.0066886083,-0.2549867,0.06499108,0.10000984,0.26414296,-0.06888862,-0.15262963,-0.0111452,0.21438609,-0.071605116,-0.016294051,0.045079798,0.022314943,0.15741952,0.08840508,-0.1515829,-0.064053416,0.17686585,-0.009502844,-0.1850987,-0.16165978,0.12497779,0.023859976,0.18016039,0.17157137,0.050431542,0.06498343,-0.0002038579,0.24545157,-0.041297335,-0.1523504,-0.19205712,-0.03713472,0.019215973,-0.06901593,-0.07106994,0.07743884,0.09992402,0.026747758,0.066976614,0.18625344,0.042483494,0.17148063,0.19825263,0.15702203,-0.04191577,0.021498885,0.077331394,0.11095811,-0.058993213,-0.15573467,-0.013865001,-0.002948265,0.0046163234,0.1656855
RSM0137,0.40714788,-0.07550304,0.14537759,0.048844237,0.12453438,-0.17708486,0.069430485,0.14390852,0.07558239,0.081536435,-0.2637222,0.10510786,0.03372456,0.31022844,-0.12672585,-0.12545525,-0.07244817,0.30772048,-0.107346855,-0.10027643,0.11532262,0.032420322,0.19337866,-0.05039326,-0.15201609,-0.12517379,0.09849822,-0.011105664,-0.18523209,-0.16562052,0.21708828,0.09541018,0.13824852,0.15265024,-0.058910333,0.00358321,0.003558294,0.3132298,-0.0365443,-0.08253474,-0.2564723,0.007815074,-0.058781266,-0.13772136,-0.16150795,0.031523407,0.0951566,0.06562528,0.038033728,0.20915756,0.061013542,0.14566097,0.29614857,0.20810601,0.10154672,0.11213019,0.08475317,0.079229645,-0.21975929,-0.19344144,-0.0013572306,-0.14062607,0.011704532,0.18483646
RSM0138,0.35116348,-0.08170828,-0.0021417055,0.086542845,0.065444656,-0.15917556,-0.026037846,0.07112455,-0.028651163,0.004150602,-0.2638123,0.035676967,0.077358305,0.24532543,-0.078329295,-0.13713905,-0.026435096,0.27673647,-0.0053381417,0.011060438,0.041607928,0.04660916,0.124907315,0.07143835,-0.12775531,-0.081030555,0.16757014,-0.00754352,-0.2608612,-0.16707799,0.10912972,0.019971242,0.20730929,0.1522218,0.06535913,-0.012649871,-0.0013481604,0.26603624,-0.030963888,-0.16380785,-0.22141086,-0.011887972,-0.029333629,-0.020619264,-0.09149692,0.054094817,0.085822776,0.039163888,0.032094166,0.20826988,-0.008391432,0.139789,0.23617165,0.14718102,-0.008819009,0.04273778,0.101270735,0.10569607,-0.043289896,-0.15251558,-0.040853042,0.009392779,0.013959721,0.1307942
RSM0139,0.33395132,-0.10754294,0.10202244,0.031901427,0.15695749,-0.11952637,0.074400276,0.11572202,0.008079815,0.027497407,-0.22913629,0.09139876,0.022075787,0.18352997,-0.091546826,-0.13549925,-0.119896956,0.3055248,-0.048746686,-0.047686085,0.10188442,0.029116306,0.116725594,-0.033489376,-0.07308118,-0.08875541,0.109665476,-0.01062804,-0.23791139,-0.11839587,0.1755295,0.05679999,0.120209716,0.15034226,-0.022134786,-0.04827388,-0.01043921,0.29433578,-0.048924275,-0.08342004,-0.2723555,0.05299789,-0.11075412,-0.06479777,-0.15055619,0.039304305,0.058829665,0.0742571,0.02403553,0.18602476,-0.007685673,0.12944958,0.25620255,0.17490026,0.089487396,0.11534184,0.093335345,0.08637011,-0.121775426,-0.12929092,0.0006611371,-0.10313486,-0.04059726,0.1802034
RSM0140,0.34000406,-0.07746577,0.07690192,0.040925775,0.110756695,-0.1614175,0.06282587,0.13824533,0.0038753997,0.043314975,-0.25386542,0.058010116,0.1214517,0.24521379,-0.17127888,-0.12753218,-0.10709197,0.27364346,-0.044537857,-0.065374345,0.09219327,0.0049117156,0.19571188,0.0036578006,-0.10436345,-0.083615586,0.0696775,0.0007581389,-0.25092018,-0.19938518,0.12946898,0.11878467,0.15981455,0.18368292,-0.016954627,-0.00861052,-0.0197853,0.20042044,-0.06412149,-0.037752587,-0.16150348,0.03692978,-0.06524993,-0.13285315,-0.20045783,0.067051195,0.08328753,0.090165265,-0.0198065,0.17234024,0.012929294,0.09901258,0.2881478,0.241718,0.108855695,0.012204355,0.07241792,-0.013742935,-0.24079156,-0.14918841,0.008350891,-0.12152113,0.032452032,0.13522066
RSM0141,0.382442,-0.07949995,-0.0637693,0.10247317,0.0014116885,-0.16513778,-0.092195325,0.061185494,-0.07529216,-0.03652404,-0.28067783,0.029762901,0.13651767,0.25494885,-0.058552884,-0.15905644,0.0037425614,0.23943056,-0.032415155,0.039779898,0.019075058,0.04920122,0.14722058,0.117385566,-0.17780688,-0.06411955,0.19569758,-0.0054621743,-0.28232083,-0.20863752,0.114654884,0.000980595,0.27383187,0.16542527,0.100445,0.048138272,0.010074792,0.28271788,-0.04064844,-0.24848206,-0.1675141,-0.05257449,0.03032936,-0.020058,-0.064881325,0.092107534,0.06711985,0.0077309376,0.055255815,0.23217994,-0.0043543824,0.1637591,0.20202626,0.12846455,-0.07506219,-0.0043701357,0.12484486,0.14638565,-0.025963308,-0.18784535,-0.062555596,0.08224849,0.02032745,0.14030352
RSM0142,0.39470395,-0.0695084,0.1302669,0.03995269,0.15626329,-0.15451428,0.07410326,0.12833749,0.08449388,0.077212356,-0.25983337,0.11072517,0.03246764,0.28716248,-0.124619804,-0.1282248,-0.09467261,0.31846258,-0.10390958,-0.091920964,0.116315946,0.02069772,0.2033268,-0.040032197,-0.15076454,-0.077123225,0.099163905,-0.015817858,-0.16745083,-0.153058,0.25238335,0.09258938,0.117330104,0.17121837,-0.06869425,0.021692,-0.0044427183,0.2863768,-0.0532181,-0.08119148,-0.24243174,0.015489543,-0.026811207,-0.12999648,-0.1511171,0.046382505,0.09754709,0.070174456,0.018810583,0.19144392,0.07824545,0.17082436,0.2926902,0.21902573,0.06437229,0.1494634,0.08237324,0.05384597,-0.17577563,-0.16793533,-0.013158818,-0.12860581,0.010469728,0.21859287
RSM0143,0.36672458,-0.07034302,-0.06784102,0.10679609,0.032473207,-0.17032748,-0.08845586,0.064356156,-0.055618294,-0.042414915,-0.27334917,0.017198473,0.12226718,0.26483998,-0.066565976,-0.14252572,-0.0018931299,0.2294541,-0.019071227,0.05618976,-0.00037931837,0.06254708,0.14544822,0.13916568,-0.19105798,-0.070870385,0.21313715,-0.00994909,-0.25165027,-0.21590282,0.10238688,-0.0004388465,0.27229303,0.17968118,0.09240069,0.039663177,0.027351443,0.2666032,-0.04603732,-0.23491165,-0.18770643,-0.045676585,0.02647701,-0.017464545,-0.070849255,0.0952953,0.0918063,0.013959481,0.06745586,0.22609046,-0.008696561,0.16851614,0.21517196,0.124071054,-0.08899604,0.0076766578,0.11150955,0.13350138,-0.0190306,-0.17996314,-0.07708497,0.10320944,0.015823001,0.12670462
RSM0145,0.37007937,-0.10382057,-0.04665189,0.11169877,0.029672926,-0.18533057,-0.09504996,0.07309568,-0.06555379,-0.039607055,-0.29135954,0.0040025706,0.115592174,0.26911417,-0.045274932,-0.14273947,-0.023492666,0.25307718,-0.02592012,0.040160988,0.0037628647,0.043125726,0.1764867,0.11505561,-0.16919194,-0.059059605,0.19254471,-0.018875767,-0.27694613,-0.23520039,0.08692191,0.0061061396,0.23028162,0.17588739,0.082584806,0.011699629,0.0019793399,0.27462596,-0.035482883,-0.24335884,-0.17834973,-0.046045836,-0.004271002,-0.04523696,-0.07755487,0.09656879,0.09992987,0.025006974,0.04271749,0.2435564,0.01602462,0.15172593,0.22716641,0.15469034,-0.051133346,0.017090397,0.12393614,0.07948414,-0.0512596,-0.18208118,-0.060853016,0.07531713,0.020583998,0.1323373
RSM0146,0.3790338,-0.09692558,-0.04382536,0.12533388,0.06481508,-0.17647438,-0.115300834,0.08503097,-0.02752867,-0.033257943,-0.28943434,0.018094625,0.071204506,0.2459786,-0.030589927,-0.11961831,-0.0016564445,0.26174703,-0.023528237,0.010897409,0.04794156,0.04055949,0.17613919,0.08899356,-0.16096903,-0.109874226,0.21853012,-0.036756113,-0.2621571,-0.24306475,0.11092964,-0.03546732,0.1623282,0.18398418,0.030857738,-0.014997208,0.022386644,0.31139278,-0.047979116,-0.209494,-0.18927644,-0.07255568,-0.002524903,-0.06965037,-0.05575566,0.09029327,0.10897424,0.043579035,0.048799984,0.25555265,0.02203259,0.16008344,0.20998408,0.15837082,-0.06540682,0.07304851,0.08926737,0.09194619,-0.052964225,-0.16441534,-0.09054738,0.09227038,0.02429219,0.15272395
RSM0147,0.35168213,-0.109917454,-0.076325625,0.1126176,0.039204206,-0.16994117,-0.07444812,0.0765707,-0.11336516,-0.04675953,-0.26869684,-0.013324973,0.14487718,0.24188958,-0.08378136,-0.15240474,-0.04071815,0.22372694,0.007469589,0.07023473,0.0023841648,0.038508005,0.16623361,0.118277274,-0.15901105,-0.07826613,0.16597706,-0.011574274,-0.33852702,-0.2697107,0.04547048,0.007602259,0.23382573,0.20736858,0.11910456,-0.04426228,0.0025308998,0.2887163,-0.046753474,-0.22043921,-0.175629,-0.04950269,0.002746586,-0.045645773,-0.09815122,0.11119359,0.090011775,0.0404059,0.02494101,0.24841903,-0.0332329,0.11816605,0.2394519,0.1637216,-0.02604575,-0.030779615,0.077600695,0.09822371,-0.058162525,-0.170157,-0.059293758,0.08010344,0.05318859,0.11118566
RSM0148,0.3330655,-0.13982214,0.0026243704,0.07696275,0.055729408,-0.16468814,-0.06268305,0.10051837,-0.038855217,-0.051654767,-0.26049185,0.035487924,0.07966306,0.22475837,-0.071515545,-0.13428333,-0.053477243,0.27307892,0.025041787,-0.002626132,0.04074243,0.046802003,0.12522818,0.05777086,-0.098699324,-0.09573628,0.18610151,-0.023735473,-0.2846737,-0.22784865,0.10941642,0.0044389917,0.17183134,0.17284822,0.052508205,-0.06805837,-0.009057984,0.27842602,-0.058833282,-0.16803953,-0.18714598,-0.009504745,-0.03963943,-0.04223768,-0.08361579,0.08610823,0.086896874,0.06619158,0.020637266,0.24229309,0.010810591,0.1299686,0.24878353,0.1681606,0.0013274552,0.0393948,0.118537575,0.07120645,-0.06817099,-0.1272234,-0.072831556,0.0072066523,-0.0051892106,0.15314117
RSM0149,0.4213027,-0.11206822,-0.077384815,0.14318436,0.034248896,-0.1864246,-0.16880603,0.09405635,-0.031857572,-0.08052816,-0.31899193,0.033170022,0.07093325,0.27247673,0.01740838,-0.12585343,0.0053017,0.2726801,0.012624841,0.0670591,0.023904638,0.032421563,0.16541472,0.12796162,-0.20617631,-0.10090708,0.28784147,-0.03611135,-0.29453066,-0.284222,0.15061711,-0.07871493,0.16618827,0.19593102,0.07961656,-0.044833988,0.02251443,0.3391061,-0.042261224,-0.2805345,-0.1975011,-0.08072878,0.03336562,-0.06270295,-0.0022809845,0.107632704,0.10744857,0.04093281,0.084089726,0.29346845,0.042949155,0.19380835,0.19030361,0.14243217,-0.13933942,0.08546251,0.1024373,0.12088049,0.021119796,-0.18975411,-0.14042431,0.15125367,0.014866167,0.16537331
RSM0150,0.43420875,-0.085971035,-0.058284163,0.13283984,0.025949508,-0.1908661,-0.1419907,0.06157798,-0.048570476,-0.027244799,-0.32697925,0.03849455,0.07922984,0.2913998,-0.0211143,-0.14589947,0.035112362,0.2574227,-0.054383185,0.06421451,0.036156364,0.030082047,0.18487561,0.11513988,-0.2070138,-0.0764393,0.25726786,-0.03456587,-0.2165666,-0.25705767,0.14186464,-0.04793194,0.20697027,0.1624808,0.06973801,0.03488875,0.0341506,0.32503438,-0.033936135,-0.29050156,-0.2142788,-0.09675636,0.051539816,-0.04356559,-0.018474458,0.076633036,0.10567504,0.00018345662,0.101563476,0.26126403,0.030467676,0.2034954,0.19507036,0.14658707,-0.11767584,0.06147961,0.10905016,0.13155606,-0.0038163194,-0.20718932,-0.099470444,0.121217996,0.013909721,0.14828853
RSM0151,0.38287508,-0.09500294,-0.064395316,0.091048405,0.025849195,-0.17126516,-0.11011029,0.060188748,-0.07962888,-0.057271533,-0.2997884,0.020749912,0.12303009,0.26117766,-0.045886315,-0.13935766,-0.016448408,0.25918067,0.0049928287,0.042737443,0.014533614,0.059275072,0.1476528,0.13113184,-0.16304535,-0.0618443,0.21461806,-0.018076057,-0.30650175,-0.21785305,0.094136186,-0.016201451,0.25672933,0.17242025,0.076719105,0.016701743,-0.009063602,0.2754503,-0.04925356,-0.24272858,-0.19692534,-0.044945147,0.018665683,-0.0096897455,-0.06537369,0.08710426,0.07445385,0.03421133,0.037145395,0.24937484,0.0151022365,0.16234258,0.21073154,0.14861633,-0.07644202,0.017122792,0.11862451,0.11320652,-0.045109443,-0.16805798,-0.07997406,0.077386074,-0.0027054835,0.1449365
RSM0152,0.35961682,-0.112247095,-0.05065838,0.10390353,0.069108255,-0.15881956,-0.06305076,0.05701612,-0.10005999,-0.05918729,-0.29178938,0.006327768,0.13060862,0.20842302,-0.053853612,-0.15523243,-0.08669197,0.2662881,0.03861444,0.07153537,-0.011582485,0.053016335,0.11651183,0.14255548,-0.1276668,-0.04362828,0.18826604,-0.009577123,-0.3767782,-0.22495727,0.08981855,-0.005341114,0.26020694,0.18834712,0.09295929,-0.018840788,-0.014499131,0.26985323,-0.079351865,-0.23898995,-0.19694132,-0.004708089,-0.0402141,-0.001880371,-0.11798838,0.10826767,0.09326916,0.06292919,-0.0041971887,0.23706877,-0.042861775,0.14244683,0.24052714,0.16915858,-0.05052674,0.030601682,0.12800872,0.09922521,-0.023933949,-0.12940325,-0.06981827,0.06277281,0.0021556297,0.13472308
RSM0153,0.3605852,-0.10257655,-0.06700382,0.08996442,0.029406693,-0.15962023,-0.06210129,0.05414155,-0.09667886,-0.061732076,-0.28042692,0.0100191105,0.15476131,0.20558953,-0.066022195,-0.1864778,-0.056695826,0.25385347,0.03777589,0.07426121,-0.0113937035,0.056638155,0.09279062,0.1423203,-0.13976647,-0.048277307,0.19503252,-0.009226333,-0.36425763,-0.2228161,0.09028041,-0.016729336,0.26969078,0.18361944,0.1280442,0.0025081092,-0.0044986177,0.24317892,-0.06330278,-0.27940488,-0.2008057,-0.03247945,-0.019267675,0.017410027,-0.0976285,0.124833345,0.09043907,0.034663733,0.014895517,0.2247487,-0.046766322,0.14925937,0.21288896,0.15557471,-0.07478621,0.01891694,0.11747649,0.109006375,-0.032092743,-0.14582804,-0.07407238,0.08142552,0.01058019,0.15166184
RSM0154,0.4209994,-0.06387595,-0.060085226,0.11908193,0.03754464,-0.19200717,-0.1469996,0.077431396,-0.039014984,-0.019727284,-0.32119408,0.018285379,0.08026677,0.3033671,-0.011508592,-0.14688486,0.022534363,0.24623638,-0.042117245,0.050427448,0.04115437,0.0475549,0.1856106,0.107588224,-0.20770402,-0.0735574,0.2291238,-0.032913078,-0.23067592,-0.23508714,0.15630169,-0.038999405,0.22462423,0.17409931,0.060409065,0.041906457,0.04017321,0.30949754,-0.030165922,-0.25883654,-0.20550896,-0.0909514,0.02559785,-0.037514277,-0.02738447,0.05703516,0.08903305,0.022774978,0.08116324,0.27596715,0.03487895,0.18040648,0.191313,0.14655773,-0.10473909,0.044091582,0.10205766,0.13656794,-0.019579267,-0.20729837,-0.08270073,0.118848406,0.024043992,0.15413767
RSM0155,0.40947402,-0.05968141,-0.0703934,0.122481585,0.00079277996,-0.20500793,-0.12785564,0.07184734,-0.045257553,-0.022898527,-0.30385315,0.03217759,0.12233756,0.3175928,-0.030050704,-0.16191715,0.03197807,0.2682174,-0.022623044,0.058702752,0.03482816,0.05231045,0.17912883,0.13394918,-0.21499436,-0.08287533,0.23499072,-0.016923541,-0.2350264,-0.22844076,0.11522089,-0.015853042,0.26314163,0.18263687,0.08930091,0.02237842,0.017276391,0.30740613,-0.056749962,-0.25472343,-0.18848239,-0.09917685,0.05444996,-0.054022122,-0.029502943,0.0721146,0.096981406,0.011419622,0.07949867,0.25306195,0.018399922,0.17027125,0.1967517,0.13620996,-0.09775835,0.0029558174,0.12023025,0.1280187,-0.031271435,-0.19778752,-0.08956849,0.12092464,0.0027614422,0.14721051
RSM0156,0.38136986,-0.07043632,-0.046969566,0.09255814,0.040991023,-0.16637658,-0.082569405,0.038277093,-0.05070285,-0.021908714,-0.31529576,0.0067623607,0.10236481,0.26815137,-0.059063725,-0.17177097,-0.0346877,0.28040296,-0.032474473,0.05808202,0.01774662,0.05206809,0.12903613,0.13890389,-0.18780427,-0.033724777,0.22052447,0.027199231,-0.3108301,-0.18558879,0.13867787,0.004046012,0.28398776,0.17003706,0.09677618,0.04611964,0.013579312,0.28436336,-0.072316475,-0.27770913,-0.2068739,-0.041371502,0.01821289,0.016680676,-0.079417914,0.08807607,0.09034619,0.02546984,0.025639007,0.22901937,-0.02869348,0.16970284,0.23008573,0.15321659,-0.079821035,0.045176145,0.13227087,0.16281556,-0.007272599,-0.15940656,-0.059338316,0.08963136,0.0042692716,0.15219976
RSM0157,0.38775566,-0.056927796,-0.063128665,0.08947915,-0.0047121984,-0.19632632,-0.09052753,0.063033275,-0.053765893,-0.035277855,-0.27510896,0.02159329,0.115006536,0.28154022,-0.060479008,-0.14645822,-0.001611668,0.24670303,-0.047071874,0.045893367,0.010522318,0.060203694,0.16820867,0.1091619,-0.19442113,-0.058743007,0.21381839,-0.014839626,-0.2421842,-0.23301992,0.08269756,0.019157173,0.24240556,0.17851163,0.10216095,0.038438123,0.016853943,0.28057158,-0.02980411,-0.23939073,-0.16491242,-0.07501508,0.024509035,-0.050479114,-0.049241308,0.085453026,0.09830359,-0.0010120017,0.07337247,0.24504972,0.006480524,0.16809885,0.2157133,0.13798864,-0.056355387,-0.013569411,0.09888972,0.11416867,-0.032580834,-0.18924989,-0.0657576,0.096794836,0.03517867,0.13234735
RSM0158,0.3217352,-0.15740262,0.024741525,0.05373612,0.087214485,-0.1392239,0.011274083,0.10911356,-0.047602262,-0.053685393,-0.25239766,0.033174604,0.07613188,0.15614651,-0.085557796,-0.13904727,-0.14512803,0.2858418,0.024971407,-0.011149379,0.033801813,0.03176741,0.07524078,0.07675882,-0.07298523,-0.04644934,0.14750285,-0.011106485,-0.34491923,-0.19024833,0.13505968,0.024352824,0.15621081,0.16959806,0.006369145,-0.08742269,-0.041623164,0.22794527,-0.0598988,-0.14798774,-0.21232067,0.0071062176,-0.065597065,-0.05753239,-0.15292086,0.09805626,0.066191316,0.07914158,0.0041672615,0.20764633,-0.027442183,0.110286266,0.25196284,0.17919336,-0.00063785975,0.081809334,0.08768413,0.049087994,-0.10393533,-0.101144336,-0.05839374,-0.033450503,0.0041718083,0.16651024
RSM0159,0.3403368,-0.16615288,0.1434782,0.06322215,0.15984829,-0.12800755,0.073016204,0.17254408,0.01002105,-0.010578041,-0.22697502,0.06786327,0.012133284,0.24146678,-0.10985568,-0.14518304,-0.12667772,0.34554058,-0.006224411,-0.10278035,0.12421906,0.003899353,0.14518635,-0.07060648,-0.020282699,-0.1288189,0.07941057,-0.04117254,-0.2788102,-0.19109511,0.16812603,0.05178274,0.05739001,0.20906961,-0.02598862,-0.097156644,-0.049159124,0.26956517,-0.06588668,-0.01787891,-0.25055537,0.04530086,-0.15315475,-0.107261896,-0.15482278,0.040970635,0.09933507,0.08539571,0.020353414,0.20719863,-0.016864093,0.10938756,0.29292703,0.18844844,0.13050166,0.12129989,0.11990568,0.045562275,-0.16707127,-0.10527609,-0.010695624,-0.1675013,-0.0012145517,0.20282464
RSM0160,0.33163026,-0.14607489,-0.04249627,0.06635246,0.06560435,-0.12142889,-0.030034015,0.06230936,-0.09465341,-0.07857667,-0.27940026,-0.007460113,0.15573952,0.19096349,-0.06390269,-0.17516796,-0.094836384,0.27749628,0.040133607,0.041602794,0.0072123087,0.04035452,0.09673154,0.15224724,-0.10174625,-0.024217863,0.19659762,0.013399089,-0.43854496,-0.21719182,0.0853086,0.024417644,0.26880875,0.22184902,0.100066565,-0.05966948,-0.04780801,0.22827394,-0.075599074,-0.24154855,-0.19436668,0.0059214514,-0.06390369,0.0056161685,-0.13793838,0.11274725,0.0887878,0.08361171,-0.01243411,0.22414295,-0.04251252,0.12055445,0.23830092,0.179071,-0.061268646,0.0050091413,0.13067265,0.08575065,-0.055585407,-0.10185629,-0.06590295,0.061707765,-0.006152538,0.15799975
RSM0161,0.36172295,-0.15179181,-0.06423671,0.093845524,0.0719928,-0.14188041,-0.09921177,0.057674617,-0.072435796,-0.07830596,-0.31902036,0.005618993,0.09111889,0.22548944,-0.0069126817,-0.16926722,-0.0582696,0.28184706,0.025367677,0.048161246,-0.00064314844,0.04198736,0.096136995,0.14055082,-0.15838286,-0.0673588,0.25526044,0.00029804048,-0.37769705,-0.2566058,0.121614955,-0.0378335,0.21975653,0.209813,0.08291666,-0.04904018,-0.017540377,0.29150644,-0.074582964,-0.2841346,-0.2164072,-0.029847654,-0.0144564025,0.026893174,-0.08363161,0.11891548,0.10481366,0.055075184,0.007601771,0.27676144,-0.040614743,0.17472522,0.21523322,0.172127,-0.11206249,0.07767324,0.11333107,0.12222744,0.0052798027,-0.13808955,-0.12127776,0.10385966,-0.01849478,0.17195486
RSM0163,0.30611646,-0.14615875,-0.033799242,0.07676327,0.058910623,-0.14554569,-0.020484196,0.0713877,-0.13237378,-0.066306345,-0.28857622,0.0068207355,0.1851204,0.19505642,-0.09648292,-0.17552963,-0.0975966,0.2730746,0.059757978,0.055657223,-0.019988548,0.047664803,0.059521817,0.13212167,-0.087215096,-0.01683982,0.16128448,-0.0030118462,-0.42142165,-0.21004094,0.0761294,0.0111489715,0.27373323,0.19579257,0.1163488,-0.034417484,-0.03605827,0.2060203,-0.07273616,-0.21392441,-0.1935197,0.019262815,-0.051772352,0.032424893,-0.15035516,0.13724624,0.080542326,0.06826111,-0.01450062,0.2149202,-0.059803102,0.11295425,0.2520214,0.18071532,-0.044960227,-0.013163284,0.12562439,0.076599374,-0.05817923,-0.1248871,-0.078564554,0.06171438,-0.005231351,0.15349069
RSM0164,0.32300064,-0.15174899,-0.06308325,0.08150546,0.07559159,-0.12562488,-0.06186278,0.07601626,-0.11779359,-0.08341328,-0.3026314,-0.008476084,0.14210202,0.1520045,-0.03098009,-0.15819468,-0.11319905,0.27007502,0.05047934,0.07193349,-0.008527811,0.05245647,0.07467737,0.1650415,-0.10034459,-0.026396642,0.20884602,0.004232348,-0.43622717,-0.22367959,0.072870895,-0.014399102,0.24367972,0.19926648,0.10442258,-0.0800364,-0.038719427,0.23232415,-0.09030311,-0.26081917,-0.20707633,-0.0057393447,-0.051317,0.009291479,-0.1347834,0.12029704,0.09642179,0.08302627,-0.02015442,0.24702814,-0.050018918,0.14782196,0.22227898,0.16964109,-0.070132546,0.039509006,0.11235977,0.10708429,-0.032942887,-0.116495825,-0.09280906,0.0876296,-0.017386517,0.16095707
