type,x_0,x_1,x_2,x_3,x_4,x_5,x_6,x_7,x_8,x_9,x_10,x_11,x_12,x_13,x_14,x_15,x_16,x_17,x_18,x_19,x_20,x_21,x_22,x_23,x_24,x_25,x_26,x_27,x_28,x_29,x_30,x_31,x_32,x_33,x_34,x_35,x_36,x_37,x_38,x_39,x_40,x_41,x_42,x_43,x_44,x_45,x_46,x_47,x_48,x_49,x_50,x_51,x_52,x_53,x_54,x_55,x_56,x_57,x_58,x_59,x_60,x_61,x_62,x_63
RSM0001,0.47784126,-0.14928554,-0.07692969,0.14594768,0.031650987,-0.25162253,-0.2719383,0.093060836,-0.0045283744,-0.115658045,-0.38775933,0.0033793396,0.122160375,0.41019464,-0.033878546,-0.12275551,0.07979793,0.36748645,-0.010373988,0.015159246,0.064914055,-0.015959423,0.2448916,0.05639087,-0.16628256,-0.10674962,0.30920276,-0.118911706,-0.30951262,-0.29876113,0.18586476,-0.05770282,0.27848715,0.2023283,0.014529532,-0.018383725,0.021100868,0.34940058,-0.07938606,-0.21634443,-0.19292201,-0.12611905,-0.056276124,-0.09711814,0.0123256,0.016599348,0.15231866,0.033792116,0.14847234,0.2982548,0.09632066,0.23922963,0.17103982,0.099086136,-0.12741947,0.08194318,0.23967901,0.10680986,-0.09763014,-0.23688331,-0.10018057,0.16502346,0.014715918,0.21804741
RSM0002,0.47925144,-0.14741512,-0.07456893,0.14206252,0.031342503,-0.24763508,-0.2689763,0.08053445,-0.00862686,-0.13198982,-0.39791635,0.016826672,0.118562765,0.4089891,-0.0371198,-0.11721366,0.06413411,0.3727668,-0.01575879,-0.01803155,0.058743775,-0.037614044,0.24762638,0.051441368,-0.16042662,-0.10483054,0.30268562,-0.114133045,-0.304516,-0.30799863,0.19238104,-0.056163143,0.27772513,0.20585638,0.024608545,-0.03631552,0.015121431,0.35250983,-0.07544744,-0.21651322,-0.18400186,-0.12858775,-0.058466565,-0.08852022,-0.017506529,0.012880447,0.1555427,0.02555303,0.13179374,0.28806522,0.08939221,0.23240478,0.17606348,0.10809096,-0.122327246,0.09534974,0.24082541,0.080424905,-0.103619285,-0.21779953,-0.10878482,0.16661811,0.02635946,0.20102565
RSM0003,0.47526628,-0.13863738,-0.08447781,0.14441124,0.011822196,-0.25654426,-0.28650436,0.0967403,-0.004768646,-0.12920845,-0.38512024,0.011347679,0.116544425,0.4297194,-0.010882265,-0.11640443,0.070017055,0.37094408,-0.018414112,0.00335686,0.047647115,-0.028259289,0.23151614,0.05823842,-0.17646095,-0.08624869,0.31586286,-0.13034832,-0.31279454,-0.31477383,0.17189203,-0.06977188,0.24438986,0.19290091,0.01003259,-0.023317602,0.0072453497,0.34705746,-0.06555556,-0.22002119,-0.18168162,-0.12180163,-0.083802626,-0.09892198,-0.002625855,0.0061859377,0.17693236,0.018669857,0.16501753,0.27785474,0.08202984,0.23759149,0.16406402,0.09996886,-0.10586073,0.092619374,0.23457755,0.0886571,-0.08488439,-0.23133652,-0.09303822,0.16034548,0.03020613,0.20302439
RSM0004,0.48029855,-0.15120868,-0.06617361,0.14760594,0.04036364,-0.26497877,-0.25864816,0.074162096,-0.008626708,-0.12520818,-0.39351788,0.0015371762,0.11991984,0.3964567,-0.02800274,-0.091973625,0.08438809,0.34687287,-0.036214963,0.019681415,0.05999082,-0.041850813,0.24085529,0.07058068,-0.18678322,-0.087813675,0.31868762,-0.1102527,-0.31688657,-0.29529703,0.18675771,-0.06013772,0.25603,0.19639586,0.029576534,-0.03555067,0.02040934,0.37489516,-0.058173493,-0.21363926,-0.18297794,-0.13733742,-0.06421121,-0.09164226,-0.017255927,0.029873876,0.15251298,0.02767148,0.1467267,0.30059963,0.09870412,0.2186777,0.17271751,0.09189903,-0.10881355,0.0738043,0.22676194,0.118613124,-0.08834435,-0.21625467,-0.10623647,0.16430311,0.014300799,0.18850157
RSM0008,0.47921455,-0.12122039,-0.14505436,0.18892087,0.03527689,-0.27668726,-0.25637808,0.054063056,-0.09105462,-0.07272905,-0.39207166,-0.008634578,0.14042233,0.38050744,-0.118165344,-0.13243929,0.010970426,0.3602293,0.046605974,0.06966944,0.047623836,0.024409352,0.21984968,0.10413716,-0.22629198,0.05249408,0.32645947,-0.065806694,-0.42770383,-0.36809948,0.17973797,-0.01430409,0.33825013,0.20122929,0.120608896,0.023743395,-0.045398526,0.37730435,-0.057579536,-0.29061037,-0.2015612,-0.124455266,0.0027425957,0.023149319,-0.11428692,0.016362913,0.111574225,0.04956558,0.11139632,0.30277056,0.02034291,0.1898061,0.32250902,0.12637962,-0.10604652,0.053493537,0.20107219,0.13121782,-0.038348097,-0.2580042,-0.12980472,0.1987662,0.06741161,0.19382352
RSM0009,0.5020978,-0.13676372,-0.12411405,0.16671573,0.044732407,-0.2619046,-0.25870788,0.042407528,-0.07670824,-0.07482873,-0.38293332,0.009830639,0.14109018,0.38994005,-0.102772355,-0.11811179,0.0014541233,0.3617773,0.049841866,0.06719203,0.03164705,0.008293962,0.20565036,0.104009405,-0.19564664,0.022531435,0.3361537,-0.05121802,-0.4031778,-0.37851262,0.19377558,-0.021295875,0.3399041,0.21421805,0.11472033,0.04725127,-0.036504786,0.3667679,-0.06459993,-0.28049597,-0.21606788,-0.12533028,-0.007643299,0.035519715,-0.10810812,0.021563355,0.13760035,0.04760186,0.12746833,0.29963452,0.006605166,0.18583986,0.33795512,0.12419353,-0.09432836,0.030536052,0.21311355,0.11692873,-0.041714873,-0.25323576,-0.10792617,0.19704916,0.047510367,0.19446611
RSM0010,0.49822366,-0.102221265,-0.09375845,0.16609657,0.060740866,-0.31202495,-0.24886356,-0.05947111,-0.06529865,-0.18367822,-0.35071793,0.112551816,0.19856846,0.46416673,-0.05365315,-0.1404021,-0.045563497,0.39829418,0.066876195,0.04740312,0.09984864,0.034270145,0.2659762,0.10035619,-0.24875613,-0.14961009,0.39524472,-0.16059077,-0.46883425,-0.37683234,0.11322674,-0.14665686,0.33637387,0.18518181,0.10714069,-0.097506724,-0.033474427,0.43908697,-0.06827438,-0.2657064,-0.17728117,-0.14733057,-0.050536618,-0.058288533,-0.06653432,0.08468629,0.23996699,0.025304677,0.17380203,0.28912705,0.08530154,0.20870958,0.24610828,-0.0017331187,-0.11362469,-0.009586603,0.22482808,0.13166063,-0.053309962,-0.31994787,-0.10720215,0.20896727,0.040050693,0.2488021
RSM0011,0.4687196,-0.16898075,-0.12538882,0.19513108,0.036400277,-0.25275478,-0.26601747,0.080585584,-0.10456054,-0.07761137,-0.3758293,-0.01094023,0.14189628,0.38225585,-0.10206725,-0.10956424,-0.031281613,0.3634322,0.077199824,0.054803412,0.04250595,0.020661933,0.21372604,0.07867444,-0.22352138,0.039495602,0.32364428,-0.061784852,-0.4418242,-0.40552625,0.17327392,-0.0016881517,0.2880447,0.22842483,0.102877825,-0.016489962,-0.03874382,0.35027444,-0.05234892,-0.26613995,-0.20322634,-0.13788356,-0.017665265,0.0001566831,-0.12340017,0.04518425,0.14464931,0.08507594,0.09684133,0.30316377,0.015957087,0.1629137,0.3408685,0.1333216,-0.0794438,0.051788315,0.17923339,0.07078172,-0.04503692,-0.24338366,-0.13254857,0.17506674,0.036004882,0.19831237
RSM0012,0.4835599,-0.37008402,-0.020332402,0.16805698,0.046131615,-0.20786269,-0.12147846,0.13425837,-0.23790212,-0.10369311,-0.4481152,-0.06502802,0.23320891,0.28789413,-0.0366171,-0.24103306,-0.07515806,0.42035365,0.011826149,0.04041058,-0.1158209,-0.04956637,-0.008535191,0.23522104,-0.10213705,0.123746805,0.16976498,0.031220732,-0.5033936,-0.31125703,0.23276457,-0.034397542,0.4055422,0.20648685,0.09707969,0.021167886,-0.0028352877,0.29152223,-0.11050663,-0.4083348,-0.33011287,-0.003611073,-0.089803085,0.11963914,-0.21653108,0.1930082,0.046202406,0.059354283,0.07477695,0.215691,-0.09332517,0.20285453,0.33250517,0.18095233,-0.11420433,0.11821736,0.21875548,0.15020955,-0.124021105,-0.20777225,-0.10162866,0.089375906,0.0825536,0.21484141
RSM0015,0.6313913,-0.2168451,-0.11463041,0.17664763,0.044090535,-0.3481494,-0.37958995,0.10335119,0.012574558,-0.17999925,-0.4930734,-0.008268822,0.14802441,0.5542426,0.0056938557,-0.1382096,0.1014622,0.4729867,-0.02907294,-0.009510282,0.06413615,-0.057290018,0.31952038,0.07188013,-0.23508756,-0.12803476,0.40528867,-0.16630319,-0.4057234,-0.38891673,0.2563275,-0.09971711,0.36519957,0.28015938,-0.016185679,-0.046759266,0.0036945806,0.46688858,-0.08786323,-0.2870441,-0.24076639,-0.17115119,-0.10275315,-0.122052915,0.027515959,0.015637064,0.21368657,0.04873853,0.18328013,0.38226813,0.14173166,0.32451877,0.20177239,0.13205606,-0.18414488,0.13659722,0.3101694,0.09479321,-0.09290967,-0.28068483,-0.13486767,0.20568892,0.01733186,0.28891596
RSM0016,0.50180376,-0.34626663,0.29059324,0.0008001767,0.3271694,-0.30534407,0.29085988,0.17194587,0.061831437,-0.112192616,-0.5240495,0.2079449,-0.13590737,0.36726323,-0.048615362,-0.1964379,-0.18043566,0.52635455,-0.029596267,-0.06522274,0.32097468,0.016702184,0.35756674,-0.17443505,-0.156764,-0.20601612,0.09468868,-0.19049694,-0.39804676,-0.23264408,0.46343994,0.11253308,-0.013539126,0.50674427,-0.16752434,-0.11576932,-0.010374358,0.4099953,-0.25410694,-0.10101124,-0.3634759,-0.053450298,-0.24209294,-0.124696136,-0.14463705,0.0059274416,0.27503884,0.10600308,0.01731021,0.23725384,-0.03551808,0.18673143,0.49920818,0.4061371,0.007500253,0.3838052,-0.008855373,-0.027331041,-0.09138607,-0.20556265,-0.06564211,-0.15458634,0.0008954393,0.32936934
RSM0018,0.649653,-0.18919177,-0.09470408,0.17762183,0.030411756,-0.34400895,-0.37460026,0.12116344,0.004429745,-0.1734719,-0.5270087,0.009992652,0.13246678,0.56079537,-0.0073002237,-0.12707365,0.13306996,0.48006442,-0.0420716,-0.004282144,0.07256594,-0.04969079,0.32791486,0.037275326,-0.24246384,-0.13550542,0.42209813,-0.16565171,-0.37181744,-0.37656727,0.2739065,-0.10595403,0.3502445,0.29079142,0.017774863,-0.010244597,0.03772801,0.46948767,-0.1033786,-0.27993196,-0.2527941,-0.18394287,-0.089967735,-0.10655595,0.04857554,0.0008393783,0.20816708,0.03834262,0.20275982,0.37647432,0.13975136,0.3122049,0.19339688,0.10495304,-0.15396269,0.13304625,0.32058,0.1383179,-0.09406241,-0.30157608,-0.1320533,0.242978,0.013718428,0.27179056
RSM0019,0.5917656,-0.40636185,-0.0331486,0.1897565,0.041972622,-0.30972826,-0.04914232,0.19974726,-0.38491827,-0.090242535,-0.39069074,-0.0973684,0.24740095,0.27315956,-0.12867019,-0.23740575,-0.10943791,0.3847263,0.0057713427,0.024826828,-0.19449458,-0.06226125,0.076547846,0.25996742,-0.120050855,0.11131299,0.04145342,0.04234139,-0.5551445,-0.37981528,0.09006563,0.026495267,0.407524,0.27520046,0.155555,-0.013571678,0.031906035,0.30885735,-0.025186168,-0.4572085,-0.32130262,0.058828544,-0.12029041,-0.013066969,-0.26080003,0.2258113,0.0027606261,0.038274836,0.020506373,0.17226213,-0.13910499,0.1937553,0.41145778,0.25364503,-0.06803207,0.026370425,0.1807988,0.12570064,-0.17843577,-0.30735007,-0.022016576,0.046106312,0.17129198,0.1657113
RSM0020,0.2763311,-0.13072982,0.22644225,-0.031582963,0.25152633,-0.13322109,0.21865544,0.14467058,-0.088488705,0.045790132,-0.2994187,0.094497636,0.21302721,0.18561442,-0.27993673,-0.37846422,-0.0844567,0.7192033,-0.19773728,-0.066753685,0.1839373,0.16093627,0.18205237,-0.08434637,0.10467521,-0.0028966353,0.07041922,0.01248818,-0.5415727,0.025136711,0.24350007,0.016107934,0.17911364,0.38094398,0.10930204,0.0006629928,-0.0954361,0.2131645,-0.14221653,-0.020392688,-0.45875752,0.28728357,-0.33544722,0.012309012,-0.44784573,0.12836017,0.2717921,0.064404316,0.027644139,0.11582708,-0.1805864,0.24187455,0.3595209,0.4540815,0.24404769,0.10794695,0.3118427,0.10488273,-0.12586944,-0.079230994,0.22361961,-0.28791398,0.03442395,0.275189
RSM0021,0.5981936,-0.3888199,-0.032431155,0.18864295,0.05331489,-0.31299824,-0.063433446,0.16974062,-0.35775217,-0.081142806,-0.3849968,-0.10526618,0.25310567,0.27582258,-0.12403319,-0.24999343,-0.11293027,0.39340696,0.004227515,0.042631637,-0.205252,-0.061964132,0.05644999,0.2587113,-0.14080621,0.11922494,0.07353224,0.058840137,-0.54277164,-0.37319735,0.11903672,0.015517494,0.44094074,0.2613571,0.17771885,0.010698868,0.04494952,0.31255573,-0.01773534,-0.4734184,-0.35435873,0.070352085,-0.09275938,-0.007477977,-0.25057054,0.2263836,-0.007953094,0.011437744,0.026256448,0.1926518,-0.13511884,0.22536746,0.3973822,0.26335266,-0.059231162,0.011315906,0.19672704,0.17413369,-0.13197446,-0.30973017,-0.0038310252,0.062009662,0.1516438,0.17464608
RSM0022,0.66596794,-0.31484997,-0.1160416,0.28111875,-0.0013688145,-0.3353507,-0.2672703,0.14440021,-0.15797327,-0.039404247,-0.38944972,-0.024688235,0.09669958,0.373335,-0.15713713,-0.114774235,0.05929808,0.41976446,-0.042403944,0.06482169,-0.14465627,-0.020990727,0.24064684,0.14877965,-0.2055331,0.103012465,0.21497563,-0.028664602,-0.49928766,-0.4417281,0.1540977,-0.031866692,0.35347444,0.25388822,0.11898328,-0.030807137,0.036756784,0.39431313,0.05919902,-0.40587893,-0.27252784,-0.07043633,0.014710716,-0.080391005,-0.07760851,0.11760323,0.04603142,0.00083849474,0.1073358,0.26903495,-0.06668063,0.20372437,0.27706861,0.18963465,-0.13449973,0.08638854,0.20268394,0.13940376,-0.008487267,-0.4022138,-0.14646503,0.17932665,0.113345064,0.157932
RSM0023,0.4743456,-0.3269693,0.3633624,0.15479203,0.35136577,-0.3820837,0.10346903,0.19991042,0.02385358,0.09080589,-0.34563965,0.034828216,-0.011749047,0.511281,-0.14638422,-0.4584262,-0.07688022,0.5137381,-0.10721917,-0.23198842,0.1733261,0.046847574,0.3588265,-0.26660648,-0.0029910386,-0.18476328,0.11425137,-0.1244114,-0.41062647,-0.10803315,0.346215,0.14522915,0.095449395,0.2708334,0.07834395,-0.03353606,-0.106437534,0.50260216,0.012561561,0.061073225,-0.6164169,0.1713172,-0.47562468,0.035159092,-0.22291058,-0.017153062,0.25580168,0.02773256,0.20241834,0.2836291,-0.043542773,0.2510037,0.5758345,0.17354886,0.27951843,0.14924856,0.27807453,0.26347083,0.03510949,-0.14115396,0.18943025,-0.54778534,0.02065653,0.45310107
RSM0024,0.7353367,-0.2279956,-0.12379412,0.1798792,0.05300025,-0.37915382,-0.41402012,0.12377704,0.02925589,-0.16371912,-0.5890107,-0.024907144,0.11924762,0.6079903,-0.0030763093,-0.14235897,0.12703842,0.5036912,-0.043754317,0.0070846174,0.08030283,-0.035196397,0.3549471,0.072492704,-0.26708186,-0.16019703,0.4773777,-0.15574674,-0.41531757,-0.41523752,0.28095484,-0.07481618,0.39121622,0.2935511,-0.016895253,-0.01915344,0.03331736,0.5213995,-0.097809196,-0.31252548,-0.265056,-0.1930349,-0.09390357,-0.14919907,0.02623838,-0.0005106918,0.21792158,0.051358107,0.19950534,0.4302843,0.159474,0.3448035,0.21630318,0.14834636,-0.19662748,0.15916793,0.33864647,0.15477136,-0.11124467,-0.30866888,-0.13960427,0.2526823,0.01594959,0.29966506
RSM0025,0.50949305,-0.43555608,0.2594357,0.020839931,0.25127223,-0.22730498,0.3814996,0.21903726,-0.1529838,-0.0847215,-0.3692424,0.20439842,0.08338893,0.14797807,-0.16756454,-0.2491346,-0.17800628,0.4920507,-0.054333467,0.033607386,0.09366166,0.036692344,0.22992389,0.06435319,-0.035593633,-0.20375268,-0.10307903,-0.08021521,-0.611159,-0.15204537,0.13373189,0.17154941,0.17265257,0.46065104,0.022926327,-0.15274678,0.023936013,0.2637852,-0.19830963,-0.19941981,-0.36473343,0.19176924,-0.23396078,-0.1708864,-0.26185355,0.14934482,0.12747021,0.07642856,-0.16171977,0.16292422,-0.15906869,0.081719115,0.47298956,0.5080728,0.17427365,0.15757,-0.022977147,0.04735892,-0.19019936,-0.33945456,0.103040785,-0.27676228,0.03444691,0.15967816
RSM0026,0.5244401,-0.17277372,-0.121380664,0.13572463,0.108900495,-0.32101977,-0.23234613,0.07263817,-0.028331734,-0.12579149,-0.2993729,0.037062787,0.06385071,0.3955608,-0.047954783,-0.06290631,-0.005592093,0.40337175,-0.006027747,-0.08402054,0.051572002,-0.01794366,0.3037346,0.05047926,-0.21285598,0.03832472,0.3223745,-0.16229355,-0.44194847,-0.35746273,0.23447171,-0.023034368,0.24175373,0.24122128,0.013188882,-0.0045683384,-0.063208,0.3279088,-0.0061369017,-0.21254393,-0.19224411,-0.10407662,-0.123815045,-0.04350958,-0.116401315,0.027737292,0.17340603,0.08714917,0.052593086,0.3183584,0.106222875,0.2630253,0.25452548,0.14737096,-0.10764385,0.04173563,0.22106501,0.063206635,0.0013975025,-0.21173789,-0.11947385,0.08133204,0.05836755,0.25116414
RSM0027,0.6902141,-0.23122305,-0.10060945,0.17673545,0.044718243,-0.38355312,-0.41104752,0.14522167,0.019962624,-0.19989485,-0.5689037,-0.00580853,0.14592765,0.60845923,-0.032848325,-0.16212662,0.120917514,0.5252744,-0.03215861,-0.014517853,0.10206485,-0.043815006,0.3568961,0.054810744,-0.24370182,-0.14413708,0.45767248,-0.18975006,-0.38846275,-0.41177332,0.2803793,-0.10333267,0.38918895,0.3049977,-0.017611396,-0.027676215,0.039575156,0.50269336,-0.11667835,-0.2756906,-0.2274098,-0.21005277,-0.11507804,-0.16221999,0.038818058,-0.0001104932,0.23657022,0.053542987,0.22203104,0.4159318,0.1572452,0.34886327,0.20549574,0.13240337,-0.19065239,0.13369027,0.36426607,0.11368932,-0.1286768,-0.31989452,-0.14640658,0.2550148,0.012278935,0.34047952
RSM0030,0.4833438,-0.29460508,-0.08565022,0.24186873,0.024508217,-0.31487375,-0.04009414,0.13477264,-0.38583866,-0.018442946,-0.40160292,-0.16330256,0.2961372,0.335627,-0.21070567,-0.28233257,-0.14516805,0.30017892,0.11170761,0.12180054,-0.1467596,0.021172853,0.066536866,0.26336133,-0.13146777,0.14800788,0.06388658,0.047844335,-0.57659245,-0.45805052,0.063965306,0.110307865,0.4295206,0.26424035,0.28335273,0.04136651,-0.026567912,0.35308477,-0.03075855,-0.43215972,-0.29157305,0.032650072,-0.0031115757,0.0020333615,-0.30057007,0.18701309,0.054077312,0.0258337,0.029403353,0.21408804,-0.15841031,0.17653522,0.52763355,0.24176621,-0.007162241,-0.06282116,0.1435311,0.13752015,-0.1369171,-0.30052406,-0.0027304199,0.08445621,0.19767222,0.11289306
RSM0031,0.61298513,-0.26758766,-0.0568836,0.27239704,0.046668686,-0.29583094,-0.3842658,0.20646332,-0.06992408,-0.19151998,-0.6203154,-0.0056628333,0.17963545,0.6332479,0.035931673,-0.14389461,0.1079535,0.55303204,-0.016395666,-0.045672543,0.11044768,-0.11482439,0.24569893,0.008460981,-0.22744025,-0.1949528,0.40267903,-0.11348576,-0.32196838,-0.44038364,0.36457986,-0.11739381,0.26299688,0.32609957,-0.011299695,-0.036723893,0.026764188,0.5225661,-0.095889956,-0.30811316,-0.30061895,-0.22309123,-0.08006027,-0.103667215,0.044929713,0.04161278,0.26248965,0.020742556,0.27011073,0.41272008,0.034892753,0.2832515,0.21809644,0.047535628,-0.18067694,0.3167322,0.33172917,0.0831012,-0.16926257,-0.3558533,-0.2363555,0.2416829,0.07278664,0.2821888
RSM0033,0.71316636,-0.23057374,-0.105349995,0.17531812,0.04235172,-0.3839351,-0.4272722,0.14454342,0.033226393,-0.20450774,-0.56784976,-0.0110228555,0.13695447,0.61699486,-0.014236895,-0.13143206,0.12654968,0.5105778,-0.03468924,-0.020156521,0.08634723,-0.022567436,0.345506,0.069141,-0.2573113,-0.15554261,0.47486383,-0.18219079,-0.42973378,-0.4220043,0.26744652,-0.08458661,0.40096378,0.31980348,-0.012007245,-0.058151525,0.03217423,0.49626246,-0.1165246,-0.30265796,-0.23169275,-0.19350721,-0.096754916,-0.15768158,0.023611736,0.003366087,0.24446526,0.054892525,0.20608225,0.43634155,0.15917395,0.3594062,0.19692025,0.13125698,-0.1892612,0.1365937,0.3389081,0.1355834,-0.11562255,-0.2925629,-0.14252731,0.26103884,0.022636082,0.32385388
RSM0035,0.507698,-0.32350004,-0.11124848,0.15931498,0.021410368,-0.16629663,-0.2644773,0.08215272,-0.1627167,-0.19609576,-0.5189948,-0.060058102,0.27071357,0.47809592,-0.01922726,-0.247578,-0.08062134,0.4617933,0.0036621913,0.12983179,0.0009837878,-0.01375426,0.03412104,0.20326947,-0.15044099,-0.06853093,0.33452794,0.07290243,-0.44909704,-0.23230526,0.3219824,-0.106396,0.48142183,0.26058242,0.069202155,0.02546601,-0.02497085,0.36705408,-0.10365033,-0.41005918,-0.268137,-0.0993096,-0.013854828,0.11172627,-0.09602094,0.14987826,0.18778239,0.04427489,0.12280475,0.3389067,-0.10281394,0.24198711,0.32962933,0.109894566,-0.18391886,0.15468565,0.23862979,0.15497592,-0.11528861,-0.30139637,-0.13105614,0.1466702,0.058700006,0.16247441
RSM0036,0.75845754,-0.15939154,-0.111395195,0.16572867,0.058674783,-0.35695684,-0.37436408,0.11064221,0.060637623,-0.12655866,-0.57164216,0.04238119,0.11441387,0.59081143,-0.024256242,-0.16407035,0.1482227,0.49861112,-0.083544575,0.009101433,0.083286405,-0.0074993777,0.34243548,0.06906365,-0.2683728,-0.13100016,0.47561812,-0.14953975,-0.36794475,-0.37983146,0.28138208,-0.10091428,0.42099738,0.29102725,0.022358397,-0.004763,0.049654853,0.5417879,-0.07847424,-0.321171,-0.29427734,-0.1883959,-0.06342161,-0.13452323,0.041583005,-0.015395053,0.21230184,0.013425257,0.23462863,0.41715536,0.14964011,0.37045637,0.19650467,0.12509914,-0.18331572,0.1609552,0.35030234,0.21455796,-0.09321386,-0.3255518,-0.13558619,0.26380962,0.004753653,0.2934646
RSM0037,0.73115236,-0.16936156,-0.096760415,0.17563324,0.05620305,-0.37700182,-0.40727767,0.12066761,0.044891495,-0.14238034,-0.5708015,0.02228495,0.124910034,0.59772533,-0.014775446,-0.1569824,0.13990918,0.49634966,-0.07392563,0.016332902,0.07203407,-0.028578356,0.3563189,0.069323085,-0.28100166,-0.14242446,0.4818172,-0.1597424,-0.37141505,-0.37317887,0.30364332,-0.07188386,0.40385324,0.28456298,0.013579824,-0.00035213647,0.042686712,0.5469884,-0.09162713,-0.34186444,-0.29906344,-0.19695735,-0.06924491,-0.118120715,0.034478977,-0.0014066508,0.20852324,0.016005808,0.20933564,0.41344124,0.14024642,0.36537275,0.18555078,0.13117252,-0.16243927,0.1574021,0.32167336,0.1816794,-0.07224708,-0.31003386,-0.14189732,0.25801435,-0.013282282,0.3059902
RSM0038,0.6706295,-0.214444,-0.11286841,0.18773116,0.05045001,-0.34071398,-0.3960599,0.13443118,0.013637914,-0.17800063,-0.5702368,0.00726724,0.1260029,0.6195079,-0.009186051,-0.14257732,0.1002771,0.50723386,-0.03878873,0.038738895,0.07373389,-0.049255632,0.32577145,0.062614515,-0.25864822,-0.17918292,0.47427478,-0.15502666,-0.42546946,-0.3909187,0.2755828,-0.090348236,0.3651567,0.3064687,0.008653409,-0.05615582,0.029003253,0.5166083,-0.077574715,-0.32227677,-0.2557552,-0.20817891,-0.10064159,-0.14929841,0.050506424,0.020859757,0.24585027,0.056058437,0.19811021,0.435748,0.12533195,0.357993,0.18766794,0.13752925,-0.1999284,0.1568952,0.30072454,0.12189478,-0.10651006,-0.3109464,-0.16695848,0.22224227,0.010193609,0.269871
RSM0039,0.703998,-0.23988761,-0.11101968,0.18985863,0.06377276,-0.36842144,-0.40144616,0.12010278,0.0469861,-0.17122418,-0.55226785,0.01755,0.10113154,0.58383346,0.010569974,-0.15097995,0.10925427,0.50293016,-0.018752633,0.011874606,0.072853446,-0.057054896,0.36373493,0.071191706,-0.24883397,-0.15376016,0.46488845,-0.18165122,-0.42551166,-0.4363336,0.27706552,-0.091103084,0.3724766,0.3152562,0.009480582,-0.054988146,0.040365644,0.51005185,-0.1006236,-0.3140767,-0.2703901,-0.18335216,-0.11181284,-0.140583,0.024403997,0.027625397,0.24785346,0.044077467,0.20080927,0.42570117,0.1583425,0.34862453,0.1972459,0.13946344,-0.19817008,0.16104104,0.3321946,0.13436794,-0.10274522,-0.2882518,-0.17659353,0.25666437,0.013399792,0.3119677
RSM0040,0.5078987,-0.19816193,0.39636907,0.099602126,0.25810444,-0.15911071,0.3384325,0.18833104,-0.038370494,-0.008547822,-0.4893892,0.34042856,0.117808536,0.47992557,-0.24879797,-0.4390954,0.0776269,0.6326319,-0.1129736,-0.18374746,0.33521128,0.17108153,0.3204053,-0.34513393,-0.12541729,-0.36794895,0.07592208,-0.21433906,-0.49864888,-0.07807232,0.3831107,0.059339765,0.15816922,0.51975787,0.2621177,-0.05605014,-0.05327762,0.53810364,-0.2379537,0.04850595,-0.6084248,0.019471576,-0.39291024,-0.0058569335,-0.16727488,-0.090711415,0.24567793,-0.0019859343,0.2178776,0.2908475,-0.2732505,0.07393597,0.4356011,0.10988474,0.32859534,0.18126054,0.15683243,0.3364835,0.042231526,-0.21083002,0.086560555,-0.43090513,-0.16885081,0.35297513
RSM0042,0.7398498,-0.24227531,0.16924432,0.020357223,0.20966406,-0.32477498,-0.022488447,0.17475961,0.094920844,0.099375874,-0.4600113,0.21966997,0.017705355,0.39208838,-0.013666054,-0.09134181,-0.15098643,0.5596479,-0.06364612,-0.11301929,0.29356122,-0.027109953,0.21394528,0.0001000091,-0.30931145,-0.073571056,0.32840353,-0.09043365,-0.25301322,-0.23463154,0.49920398,0.037629228,0.10035508,0.12376189,-0.31930873,0.005263639,0.05427971,0.6246595,-0.047940005,-0.23482424,-0.46522927,-0.07455373,-0.028684694,-0.19909416,-0.16769789,0.08446978,-0.059642725,0.123566486,0.18392362,0.2738942,0.14193848,0.20485413,0.38607305,0.28389922,-0.078533635,0.5168406,0.13290237,0.14630918,-0.35498875,-0.2776438,-0.15478288,0.018782476,0.025826642,0.32774803
RSM0043,0.62772226,-0.047994744,-0.16322525,0.17439365,-0.091710076,-0.39625445,-0.29725417,-0.07644905,-0.07137372,0.03641472,-0.22251543,0.08988983,0.12172504,0.39444298,-0.29197863,-0.11073516,0.011834532,0.3115858,-0.06688749,0.113694675,-0.0016877822,0.09946479,0.30827516,0.09550739,-0.37164724,0.13418037,0.32988417,-0.09911313,-0.44440725,-0.35189065,0.10641201,0.013020452,0.42896053,0.1860149,0.17733991,0.055592187,-0.10293479,0.4025372,0.122628614,-0.28642955,-0.22033887,-0.17880154,-0.00037314178,-0.101310164,-0.17309843,0.07644915,0.102932274,0.02973226,0.13524887,0.28035292,0.05927201,0.2510037,0.3116723,0.09095644,-0.11377412,-0.17220195,0.16783279,0.19987653,0.048786268,-0.31259605,-0.06718062,0.07922746,0.11886584,0.22235729
RSM0044,0.6209502,-0.22100462,-0.15156807,0.10395815,-0.06145839,-0.47509983,-0.4455433,0.14945155,-0.032690484,-0.095631324,-0.5556964,0.006458221,0.08994417,0.42586514,-0.080039985,-0.21811397,0.22534144,0.5960577,-0.05269374,0.083061524,0.11958615,0.08142893,0.37749752,0.038418185,-0.36176753,-0.08149402,0.52077955,-0.24771784,-0.4388239,-0.42465454,0.39354366,-0.13030887,0.39483947,0.26788396,0.05928813,0.052122254,-0.050852623,0.5270027,-0.15573055,-0.21571082,-0.3612535,-0.24604236,-0.050736543,-0.10292404,0.1344514,0.05093628,0.15774731,0.052673653,0.31887242,0.45268247,0.040568102,0.34497836,0.30291262,0.14325798,-0.15658571,0.11914417,0.36201128,0.3042407,0.057061214,-0.2454992,-0.29025838,0.30375418,-0.035153184,0.32736328
RSM0045,0.71080035,-0.24158008,0.1708442,0.0031869763,0.20707771,-0.3192954,-0.061903983,0.16743754,0.07369694,0.04000471,-0.44572726,0.19733347,0.042016737,0.4264231,-0.011910485,-0.08760144,-0.13718891,0.5460361,-0.05457179,-0.13916971,0.26522034,-0.02678086,0.20189138,-0.024642047,-0.30783787,-0.11568871,0.3138889,-0.08356815,-0.25732428,-0.25190502,0.5264735,0.036059298,0.11920303,0.13213834,-0.32207054,0.015166661,0.058217946,0.5930045,-0.0654225,-0.21089269,-0.41369638,-0.07994014,-0.05316356,-0.20375362,-0.16345368,0.0588882,-0.017899217,0.15181608,0.16345157,0.30251148,0.1799448,0.17697169,0.35704973,0.2731507,-0.058896776,0.48351228,0.13692546,0.09823552,-0.36427626,-0.27490896,-0.14834993,0.034686565,0.052178007,0.34913972
RSM0046,0.38158667,0.080960274,-0.04297137,0.07752616,0.19783947,-0.18929924,-0.15709093,0.07242941,-0.034937005,0.04630922,-0.4046288,0.08599204,0.19146448,0.26972532,-0.03315423,-0.13493595,-0.08988333,0.5334146,0.03200299,0.076805,0.18531221,0.12662499,0.16761556,-0.005570842,-0.12874563,-0.09157939,0.47558168,-0.036849298,-0.40390757,-0.25098,0.18911418,0.0011838649,0.22196242,0.16574098,0.1325133,-0.015016974,0.0024320432,0.41307443,-0.19533682,-0.14691937,-0.36149982,-0.027276859,-0.09113319,0.1622846,-0.12958793,-0.062900916,0.19294567,0.044579387,0.10150839,0.34046587,-0.039247487,0.07449769,0.3924958,0.18972231,0.23202433,0.02452526,0.29117435,0.24723734,-0.07580823,-0.20623375,-0.030783247,0.12506008,-0.050352424,0.16209614
RSM0047,0.64714813,-0.2554209,0.3167569,0.01432125,0.2328431,-0.20813754,0.38977027,0.20180939,0.1520233,-0.043268856,-0.6220448,0.43586907,0.03611608,0.4033257,-0.1944067,-0.272131,-0.08801821,0.5819814,-0.11125372,-0.12845212,0.3040744,0.0752903,0.3540607,-0.19668426,-0.30307576,-0.31311402,0.12605588,-0.24136384,-0.46752137,-0.15868539,0.5181696,0.17178017,0.09236488,0.4500607,-0.01821472,-0.03404821,-0.08013007,0.496879,-0.30476478,-0.07210353,-0.46441615,-0.06154351,-0.23527709,-0.088262126,-0.18087976,-0.08369089,0.25532582,0.042402595,0.07762103,0.3607344,-0.10279148,0.08982167,0.55901915,0.350748,0.1849585,0.34860018,-0.0853057,0.18196775,-0.1414186,-0.30030268,-0.09747354,-0.3106916,-0.10369484,0.35436076
RSM0048,0.75877804,-0.19665924,-0.13836186,0.31274897,-0.042725008,-0.4061244,-0.268749,0.058643725,-0.029830875,0.010873227,-0.27074862,0.13661201,0.055257116,0.44860792,-0.278308,-0.07228964,0.1308995,0.4044778,-0.03411218,0.031344306,-0.018590406,-0.017551329,0.3914901,0.057067476,-0.32298297,0.09774769,0.30697346,-0.19594677,-0.53693163,-0.49761006,0.08316088,-0.003945451,0.33555916,0.25357085,0.16957454,-0.035645507,-0.07491981,0.470307,0.17893824,-0.28464848,-0.22845474,-0.15354304,0.024064647,-0.25292856,-0.11396886,0.13760889,0.069084994,0.031406112,0.10011828,0.31395966,-0.006916395,0.23594153,0.3227275,0.13516575,-0.17532766,-0.0027071433,0.18262485,0.13267407,0.08102528,-0.3667666,-0.12715654,0.07809638,0.1409132,0.22800355
RSM0049,0.5145907,-0.28468525,0.36801,0.21560717,0.35458544,-0.27105224,0.16981143,0.19580223,0.05031708,0.075292416,-0.37470528,0.11451911,0.0523236,0.6245027,-0.18155035,-0.5148649,-0.007476822,0.5253381,-0.15106983,-0.22706506,0.18889551,0.048879676,0.34181735,-0.2844608,0.008888611,-0.2163824,0.09834972,-0.09304948,-0.48599687,-0.09476896,0.3277777,0.14093165,0.11944379,0.3565118,0.21127763,-0.10027206,-0.08199757,0.53464544,-0.015081935,0.061922766,-0.6698173,0.16050433,-0.5292056,0.025737567,-0.25732273,-0.05566558,0.2804524,-0.0003531679,0.23226056,0.33724532,-0.13758047,0.24729857,0.51828545,0.15006603,0.29658216,0.12907003,0.30277857,0.28767255,0.044795215,-0.12409814,0.21322173,-0.592913,-0.026893016,0.42206305
RSM0051,0.7309421,-0.2412396,0.14879003,-0.012967774,0.2032351,-0.34006295,-0.06544225,0.14031206,0.09456374,0.022530913,-0.42648876,0.2027966,0.03705852,0.38417935,-0.027881414,-0.061460964,-0.18429229,0.56910664,-0.017343786,-0.13034552,0.28225875,0.00064028753,0.23223503,-0.0217651,-0.2846421,-0.08975127,0.33695853,-0.122742146,-0.31100783,-0.2551403,0.48928258,0.021322714,0.13127968,0.15049252,-0.31811142,-0.024627939,0.04183715,0.59219277,-0.051045597,-0.19742668,-0.42113325,-0.06776745,-0.058340244,-0.22739662,-0.16522728,0.08175535,-0.025626678,0.14994529,0.15010503,0.3103184,0.17800727,0.19342104,0.3488525,0.27683264,-0.05912243,0.46948868,0.14277466,0.08966187,-0.357144,-0.28475052,-0.1383075,0.029475203,0.04277702,0.34896743
RSM0052,0.59410715,-0.16165979,-0.017161708,0.21998285,-0.005035603,-0.2941467,-0.2959407,0.13363405,-0.066979945,-0.070308186,-0.5395478,-0.00021969076,0.18254778,0.56792855,-0.010425666,-0.16812219,0.11078227,0.4580053,-0.11142592,-0.03803369,0.07555505,-0.09079437,0.22864099,0.02392081,-0.22181769,-0.08404139,0.31435013,-0.12040493,-0.2460516,-0.37724772,0.33640414,-0.072624445,0.26744387,0.23940283,0.10691288,0.08261968,0.06339504,0.5554477,-0.05195189,-0.32683527,-0.36416435,-0.18171932,-0.06039436,-0.08294451,-0.04272449,0.045751326,0.15030177,-0.07799609,0.3004775,0.31962794,0.026240138,0.29011473,0.19071762,0.044615425,-0.146544,0.26215088,0.2665188,0.19765651,-0.10997664,-0.2810635,-0.1784255,0.19616412,0.068367116,0.27453366
RSM0053,0.7119909,-0.25441888,0.16223505,0.012882191,0.21256511,-0.3334124,-0.046927962,0.16439722,0.07716413,0.08335129,-0.44977596,0.19531913,0.044883367,0.3903738,-0.0049134493,-0.09932907,-0.15618004,0.56847477,-0.05875018,-0.13425472,0.27912408,-0.016131714,0.21850426,-0.006310743,-0.3113025,-0.08467851,0.30556008,-0.07998873,-0.24277166,-0.2605698,0.50729436,0.03692213,0.10810238,0.14512579,-0.29578948,0.0032505228,0.054358017,0.6095265,-0.033114478,-0.2225613,-0.45541352,-0.08554134,-0.03113787,-0.20566757,-0.16394672,0.09487702,-0.038195513,0.13165152,0.18482862,0.28503242,0.13580288,0.20461953,0.36315966,0.27622926,-0.054108083,0.50967026,0.13287713,0.12448089,-0.36292323,-0.26934496,-0.14916763,0.021238372,0.0464973,0.33073393
RSM0054,0.7414668,-0.2275311,0.19392097,0.010812605,0.21928592,-0.3218,-0.032778073,0.15813027,0.09182129,0.09377864,-0.46432903,0.20629896,0.021710072,0.3769756,-0.006896445,-0.10408037,-0.14286783,0.54516816,-0.06252414,-0.13600452,0.27876407,-0.015720384,0.21119447,0.0012761472,-0.3312427,-0.06708066,0.3111327,-0.07581559,-0.26012483,-0.23222499,0.49858773,0.03987142,0.11069795,0.110058196,-0.28915143,0.0061575756,0.066407315,0.645224,-0.044297136,-0.24033897,-0.4825471,-0.07500274,-0.014300277,-0.21728466,-0.17449711,0.11180435,-0.04765359,0.13252077,0.16415249,0.28230652,0.12459277,0.21808453,0.35600898,0.26828593,-0.050499715,0.48565423,0.113936305,0.16894743,-0.3175936,-0.27169475,-0.16195725,0.012246061,0.04016717,0.31612217
RSM0055,0.39578372,-0.059620693,0.15740553,-0.014721351,0.43569735,-0.12621619,0.28716984,0.07610731,0.23235624,0.17925365,-0.42123199,0.1116225,0.1544193,0.15933204,-0.22290632,-0.35833874,-0.23284203,0.5972057,-0.10833168,-0.13484617,0.1278117,0.10902412,0.06975774,0.06595768,-0.10504396,0.17664568,0.27031097,-0.07012195,-0.52493554,0.0146508245,0.34704792,0.21244629,0.289812,0.1853223,0.018331671,0.122956246,-0.1635956,0.3490039,-0.15857133,-0.19457307,-0.50537056,0.25082186,-0.1957602,0.26308566,-0.61239624,0.07856802,0.2410597,0.19397718,-0.09635955,0.22158325,-0.019856947,0.33436838,0.5240433,0.41335356,0.10547358,0.23264872,0.21433412,0.21010037,-0.10472479,-0.04245742,0.1217966,-0.2581601,-0.082679786,0.30660743
RSM0056,0.7424218,-0.16145714,-0.13083355,0.32717565,-0.052860755,-0.36751565,-0.30270895,0.06721797,-0.0044993046,0.007629176,-0.29604852,0.14827187,0.08266572,0.50897616,-0.28835684,-0.10621632,0.15948665,0.37831008,-0.092081636,0.0362694,-0.0015280022,-0.029050741,0.40597272,0.062308382,-0.36273706,0.02707185,0.31011567,-0.1224549,-0.46709082,-0.4089622,0.14962156,-0.0078779105,0.3646065,0.25098494,0.16629598,0.048767313,-0.05923384,0.46378338,0.19788004,-0.30073515,-0.22757463,-0.17966042,0.07807406,-0.23580652,-0.029283682,0.12318581,0.09564442,-0.025880942,0.115548775,0.30039746,-0.09543102,0.24834813,0.32166034,0.066955626,-0.22679698,0.052549344,0.18523613,0.16569826,0.130423,-0.42548123,-0.112594895,0.08788871,0.16477326,0.17550926
RSM0057,0.47664946,-0.07838444,-0.09676574,0.2810445,0.014365724,-0.12098292,-0.16184235,0.10648315,-0.092123054,-0.11394877,-0.615684,-0.09584873,0.34385523,0.55252296,-0.021328343,-0.36580703,0.10502503,0.2342211,-0.13519144,0.018808847,0.01189638,-0.114883445,0.097342834,0.27294567,-0.26430988,-0.021707937,0.3614362,0.1249147,-0.15110372,-0.24342975,0.3387341,0.008730413,0.28171456,0.33492768,0.17014615,0.3241197,-0.060406014,0.29393128,-0.16818516,-0.5123903,-0.2699978,-0.17511919,0.052325405,0.13613448,-0.11046728,0.18772794,0.2598203,-0.03149101,0.15507206,0.27417976,-0.09672338,0.37674698,0.35013336,0.2689274,-0.35586908,0.26233226,0.17705612,0.18212141,0.0017385798,-0.24138102,-0.1535599,0.204793,0.08018729,0.22843476
RSM0058,0.46445325,-0.09091828,-0.09979564,0.26812425,0.035630096,-0.111250006,-0.13194436,0.10269253,-0.071446285,-0.11899713,-0.6028337,-0.068763554,0.33516267,0.5361308,-0.019676588,-0.38348368,0.09780959,0.22537051,-0.1465267,0.015506005,0.014737441,-0.112067826,0.088011526,0.29597732,-0.29114845,-0.00036533907,0.37853852,0.11525156,-0.16197106,-0.23289259,0.31125858,-0.012793846,0.25167122,0.31435525,0.17035747,0.29027545,-0.05917347,0.31212896,-0.17899758,-0.5213209,-0.30780482,-0.15949924,0.04625775,0.15160595,-0.11776914,0.20568873,0.2439419,-0.04860821,0.16004524,0.29512665,-0.115051106,0.3563505,0.34077716,0.28252167,-0.38294595,0.26892254,0.19021197,0.20900057,0.01567928,-0.2486181,-0.1643737,0.19522116,0.077478,0.21542124
RSM0059,0.64522064,-0.21918368,0.15918735,0.24978842,0.09786946,-0.3168649,-0.15577802,0.11362404,0.03184304,0.12521058,-0.06768522,0.22103873,-0.06009663,0.35193896,-0.33967152,-0.19743168,0.1463072,0.43660378,-0.058920007,-0.1469274,0.094019026,0.043727305,0.38509202,-0.24574658,-0.16566677,-0.024822118,0.16138169,-0.21435535,-0.47185692,-0.25143024,0.12783709,0.016096741,0.1836086,0.15982911,0.1783862,-0.088262685,-0.14355108,0.4692159,0.25446284,0.022943106,-0.4088108,0.002333994,-0.21159059,-0.22521038,-0.09225968,-0.0043098093,0.0015289364,0.052550636,0.18740635,0.22678238,-0.097286,0.08363945,0.36080036,0.008446619,0.15094493,0.008364585,0.2083458,0.2801199,0.17316523,-0.23049179,0.07678914,-0.3257511,0.023535978,0.27446574
RSM0060,0.53081065,-0.28158966,0.2068578,0.018974436,-0.040097054,-0.2962977,-0.10611542,-0.020200202,-0.20251682,-0.0081307255,-0.066479154,0.25434718,0.23039655,0.29234233,-0.28835154,-0.2694934,-0.06187671,0.40585715,-0.18164961,-0.09773884,-0.079438925,0.17370118,0.086007774,-0.045977876,-0.050121266,-0.021987746,0.08075648,0.061281387,-0.5515501,-0.023342459,0.319556,-0.13217916,0.3695155,0.20825428,0.072564706,0.011619764,-0.19895771,0.21129817,-0.012230992,-0.122986585,-0.42031375,0.055603366,-0.34185237,-0.07888579,-0.27343604,0.10275957,0.038750943,0.07928289,0.2401268,0.21470866,-0.047787484,0.14678472,0.14660251,0.075375654,0.16708022,-0.19593275,0.24300317,0.20123808,-0.14428014,-0.1241386,0.12907277,-0.3894295,-0.021425527,0.34784344
RSM0061,0.4108169,-0.055768818,0.11236595,0.12914038,0.086040206,-0.30931133,0.017702818,0.019840885,-0.12924637,0.0068699997,-0.2971327,-0.047737714,0.12123377,0.575011,-0.11938271,-0.16632059,0.056991905,0.14797068,-0.37643856,-0.22608203,-0.25011948,0.039212562,0.3221165,0.1646261,-0.20303814,0.16935562,-0.10321146,-0.011935478,-0.36793846,-0.069957875,0.29484963,0.18271741,0.35007542,0.26923722,0.2871541,0.32213244,-0.0595433,0.21258387,-0.10694559,-0.23286335,-0.16765717,0.033389237,-0.18497899,0.07274567,-0.39651528,0.07856082,0.30312797,-0.17690709,0.058592297,0.32765028,0.07012015,0.5118794,0.2765479,0.27075422,0.109112635,-0.27768221,0.2236977,0.1473099,0.122322835,-0.18987623,0.13916019,-0.30847135,0.065342724,0.25309917
RSM0062,0.75638485,-0.1761849,-0.12499711,0.34167144,-0.059834033,-0.35174975,-0.28523985,0.09093255,-0.031664047,-0.007272883,-0.30469367,0.15387483,0.08838505,0.50846004,-0.26152807,-0.11312751,0.16006887,0.3706792,-0.08933375,0.0848632,-0.01884945,-0.03226,0.38800538,0.07436693,-0.33712777,0.046947494,0.3144955,-0.11347747,-0.49689254,-0.42073664,0.13295145,-0.012840999,0.31664246,0.2498118,0.18540461,-0.0050981734,-0.053900834,0.46175542,0.2050229,-0.31045407,-0.21723802,-0.1956677,0.08324656,-0.23786107,-0.053839616,0.16278002,0.11814714,0.014531329,0.116079465,0.32205105,-0.084516615,0.25183707,0.3257026,0.100291535,-0.23247243,0.05151916,0.18100877,0.17561027,0.14052613,-0.40748695,-0.13957179,0.09318913,0.17600882,0.14839411
RSM0063,0.5743805,-0.14607574,0.30594835,0.079412416,0.36567068,-0.41420716,0.24739389,0.10650009,0.2138963,0.17118712,-0.37703222,0.21114124,-0.03304048,0.39015567,-0.13826957,-0.25716293,-0.25625473,0.45112404,-0.21654785,-0.12512708,0.2024569,-0.018183894,0.36457348,-0.02826936,-0.16887894,-0.11043003,0.15908311,-0.073045366,-0.3526311,-0.16779383,0.36134416,0.23397256,-0.054337848,0.20791718,-0.14177948,-0.048204172,-0.087722465,0.5337342,0.05799683,-0.1625016,-0.52667445,0.13595001,-0.28288433,-0.118615314,-0.3852577,0.112424135,0.23054521,0.031585578,0.016805021,0.26530504,0.15772362,0.31991336,0.6333014,0.4176435,0.14077665,0.21901208,0.0677845,0.13176884,-0.17869766,-0.24002318,0.12968215,-0.4406215,0.09399565,0.30694655
RSM0064,0.7515497,-0.15889858,-0.11986877,0.33631358,-0.059565004,-0.3647871,-0.2828205,0.07660042,0.011550713,0.021159979,-0.3116648,0.16953814,0.053711083,0.5042996,-0.26733893,-0.093326926,0.16595776,0.35546857,-0.11262812,0.06685783,-0.017763428,-0.023177117,0.3843017,0.07211172,-0.3618741,0.041595213,0.31951421,-0.14035995,-0.4513384,-0.4047825,0.15120384,-0.00045166985,0.31222993,0.250949,0.17100872,0.015372802,-0.05383901,0.48466116,0.22309652,-0.3108999,-0.24881436,-0.17094581,0.09021587,-0.24100137,-0.0390137,0.16888788,0.09600848,-0.0010459697,0.10737177,0.32497635,-0.08460706,0.24591449,0.31735757,0.09056976,-0.22932097,0.06347274,0.1751409,0.19402526,0.15449083,-0.41460872,-0.13053615,0.07303207,0.14375615,0.13436781
RSM0065,0.67665315,-0.07700235,-0.07005308,-0.035657216,0.08070646,-0.30474007,-0.17684264,-0.09255638,-0.05685363,-0.09897231,-0.4468781,0.11683983,0.26475632,0.3448882,-0.053150874,-0.2181301,-0.09668591,0.46051058,-0.08730796,0.2440333,-0.008627156,0.10476175,0.17246088,0.32082704,-0.16928084,-0.070188895,0.47008643,-0.015680915,-0.5733284,-0.15114187,0.09535164,-0.10822916,0.61756545,0.09746341,0.12670085,-0.018850507,-0.010563278,0.48528224,-0.07899358,-0.47260472,-0.30724522,-0.07334808,-0.08859388,0.0077172634,-0.088934176,0.13732518,0.12864281,-0.0453963,0.051531397,0.29353258,0.079344995,0.28854167,0.28303078,0.20277429,-0.044503424,-0.24520476,0.2342646,0.36995465,-0.11095012,-0.34128645,0.029636279,0.1547252,-0.04206233,0.19607335
RSM0067,0.45496362,-0.20852807,0.4350852,0.10176716,0.1106483,-0.29089218,0.19860539,0.017595015,-0.16507235,-0.05002768,-0.3439317,0.4223472,0.15201093,0.4937836,-0.2823299,-0.42086828,-0.042667147,0.5230789,-0.20028763,-0.20140529,0.25238538,0.24457936,0.1712496,-0.33046556,-0.22608767,-0.28679708,0.04435183,-0.19020422,-0.4001276,-0.07939651,0.6080264,-0.013039499,0.06552755,0.49670866,0.17077835,0.032247435,-0.20042035,0.41162685,-0.22554791,0.014190538,-0.57643706,-0.082986355,-0.4059975,0.040108845,-0.25426486,-0.0073215733,0.23638798,0.030443335,0.40388837,0.22693919,-0.1835837,0.06320728,0.258138,-0.000944336,0.281214,0.104927875,0.08743889,0.23152205,-0.005287927,-0.17246448,0.020041125,-0.5076968,-0.14727694,0.42626175
RSM0068,0.49295148,-0.27092203,-0.06657165,0.17766483,0.007313001,-0.14791188,-0.18481001,0.1757452,-0.25616038,-0.08043268,-0.6255886,-0.049015727,0.30702767,0.5179608,-0.0698179,-0.33479115,-0.091932,0.38332048,-0.06542198,0.1790981,-0.046061244,-0.04787982,-0.0591498,0.27784106,-0.20054178,0.023959683,0.2684861,0.19622494,-0.40581942,-0.19833599,0.40218478,-0.07242372,0.427714,0.2674118,0.1606116,0.20557268,-0.037477482,0.39280978,-0.07794412,-0.5578369,-0.34832904,-0.121354476,0.039944693,0.19553189,-0.13576354,0.27112746,0.1449592,-0.049870465,0.17919755,0.3172882,-0.2696569,0.2766025,0.4416563,0.12328396,-0.25226977,0.26011857,0.14788012,0.23055871,-0.054373987,-0.3402668,-0.1566821,0.15007767,0.13431957,0.10838687
RSM0069,0.62067014,0.08905992,-0.24673608,0.033999432,0.1606501,-0.21729235,-0.27887994,-0.009099358,0.07065668,-0.04709802,-0.53515583,0.11758143,0.22548075,0.482033,-0.052220836,-0.21460354,-0.034167614,0.43233582,-0.051379,0.2476783,0.15988287,0.064545415,0.23615053,0.208812,-0.33906943,-0.16165988,0.69033974,-0.066235065,-0.47276813,-0.17938717,0.20325044,-0.020197093,0.5625028,0.10505259,0.118434265,0.05416256,-0.021324437,0.46612805,-0.2046018,-0.3581399,-0.30420586,-0.16541186,-0.07626782,0.09782583,0.0059167054,0.080751024,0.32647827,0.043173313,0.08048286,0.4147589,0.009207809,0.30169705,0.34143388,0.16870001,-0.07639152,-0.06870368,0.29182872,0.29498613,-0.043182284,-0.2518798,-0.10770537,0.22990547,-0.067426525,0.15533997
RSM0072,0.6939706,-0.35807776,-0.09996967,0.08959409,0.11750495,-0.21341336,-0.1262531,0.028344175,-0.12377417,-0.15972386,-0.4892466,0.072186865,0.23695575,0.28058863,-0.02528791,-0.22474846,-0.09407158,0.547034,-0.054721598,0.1165474,-0.21834765,0.045219447,0.026103282,0.27483493,-0.14232203,0.06034693,0.30727288,0.07305407,-0.6866823,-0.10493409,0.255839,-0.15958793,0.6205787,0.23559514,0.09755807,-0.01274011,-0.014584819,0.36729142,-0.022471352,-0.5427549,-0.37052765,0.011529998,-0.123304136,0.12263304,-0.13789894,0.23614787,0.07599747,0.022530489,0.043761957,0.34075093,-0.14418983,0.3810087,0.19967373,0.16183913,-0.20491764,0.06845248,0.2595629,0.290756,-0.021627272,-0.27653462,-0.08544166,0.08245231,0.0086128665,0.19554783
RSM0073,0.66295177,-0.20174709,-0.08847135,0.31451416,0.028326044,-0.24104027,-0.2920814,0.20839499,-0.036807228,-0.07390849,-0.6622622,0.03257144,0.16403748,0.6832565,0.015625035,-0.17554991,0.095420144,0.48417255,-0.12481412,0.067393236,0.10274332,-0.12330931,0.21251918,0.0765312,-0.29385847,-0.1421908,0.40731278,-0.05721387,-0.2645013,-0.41583765,0.43746412,-0.06869594,0.25038314,0.2965533,0.092133634,0.038766496,0.041837756,0.6404605,-0.034735903,-0.44468877,-0.38647127,-0.24719079,-0.019292405,-0.0847502,0.027070615,0.120560735,0.2642155,-0.08451578,0.30891684,0.4498981,-0.054531757,0.36481228,0.23918219,0.04326867,-0.21648695,0.40710264,0.23171264,0.20278583,-0.050959036,-0.3567198,-0.27790105,0.2210338,0.060565114,0.19489917
RSM0075,0.6292683,-0.25277224,-0.050760373,0.30062076,0.07232968,-0.27987397,-0.31983367,0.2212789,-0.0715743,-0.13548091,-0.65156865,-0.008973455,0.16469298,0.6560974,0.042761315,-0.207627,0.08121965,0.54196686,-0.07751685,0.033901263,0.099207506,-0.10151947,0.20923634,0.047480017,-0.26333976,-0.19860598,0.43110508,-0.08259694,-0.30783087,-0.4141506,0.41724685,-0.09299392,0.20153345,0.3238602,0.050418697,0.010970253,0.027683353,0.60715145,-0.09093094,-0.39847904,-0.3992975,-0.22184272,-0.033694915,-0.077625126,0.055515327,0.12042037,0.26764494,-0.048753917,0.2932528,0.44939035,-0.058059208,0.33250982,0.24156569,0.061074756,-0.23911284,0.40420875,0.29869622,0.18585905,-0.082347065,-0.3488606,-0.26627746,0.22125171,0.07554125,0.2132671
RSM0076,0.5164466,-0.34003806,0.0009760867,0.16592799,0.085260965,-0.18001954,-0.08480863,0.102517344,-0.2382869,-0.079589695,-0.5438542,-0.025293244,0.27336615,0.4275022,-0.07088547,-0.3323211,-0.17883755,0.34314418,-0.019580254,0.20811619,-0.11063212,-0.013376113,-0.119374126,0.36567533,-0.12518325,0.06140421,0.21940829,0.21921219,-0.5342388,-0.14565617,0.3038021,-0.042046368,0.48804423,0.2356075,0.14207527,0.10773291,-0.04998506,0.37312394,-0.10888956,-0.574232,-0.39199597,0.012319485,0.0272918,0.17985825,-0.20483159,0.3082339,0.10743872,0.015977867,0.03380412,0.26415822,-0.27712375,0.27644166,0.44055408,0.16809295,-0.20567887,0.18096094,0.17875054,0.2342601,-0.069206916,-0.27865058,-0.0866104,0.06164979,0.113736644,0.1442277
RSM0077,0.7652777,-0.093168765,-0.25978047,0.23446395,0.14181422,-0.31837574,-0.22372627,0.1271386,-0.030832151,-0.02537997,-0.38430196,0.023291176,0.040599845,0.34356457,-0.17101692,-0.061857205,0.026147004,0.43579745,-0.014567155,0.086071335,-0.12018584,0.04978699,0.34345186,0.1275227,-0.28614426,0.09951153,0.41230845,-0.14838502,-0.61721104,-0.42108747,0.10126214,0.070012026,0.4179694,0.2560725,0.16225696,-0.034090232,-0.018509716,0.46476552,0.07411569,-0.37455428,-0.2938332,-0.096805096,-0.06510072,-0.12707189,-0.05604405,0.103278615,0.13671486,0.07058734,-0.019828407,0.391646,-0.07930716,0.3166765,0.18898706,0.22640686,-0.1476997,-0.026379563,0.22915897,0.17441756,0.09181519,-0.30493122,-0.12272103,0.21493122,0.06017372,0.12670146
RSM0078,0.741566,-0.21987621,-0.063371964,0.23044683,0.049286533,-0.32795614,-0.37260875,0.16062352,0.0073000253,-0.13794127,-0.6275343,0.07003553,0.17112154,0.65529853,0.0032616684,-0.15236063,0.07887325,0.5819523,-0.07558448,-0.005871881,0.1153082,-0.07215714,0.28020823,0.014821532,-0.2960981,-0.1768143,0.47564188,-0.12206796,-0.34335598,-0.38472953,0.40776697,-0.114244826,0.32276157,0.28486997,0.024939759,0.004317564,0.05426937,0.61045897,-0.049390882,-0.38350803,-0.37698993,-0.2095039,-0.053236417,-0.12352235,0.036301922,0.04109628,0.21494819,-0.030860301,0.28731757,0.45156935,0.049854133,0.35784143,0.226544,0.07156639,-0.17085321,0.29042327,0.31990844,0.20926118,-0.12693515,-0.41550967,-0.20927957,0.2596069,0.0524956,0.27914235
RSM0079,0.66061145,-0.22350323,-0.04086477,0.2667188,0.0045533576,-0.26265448,-0.3685627,0.18927594,-0.054429334,-0.08601349,-0.6461749,0.008677855,0.19039164,0.7158056,-0.024087083,-0.2298838,0.12985541,0.50761825,-0.11206109,0.0054784864,0.1384166,-0.13172328,0.22976646,0.013850078,-0.26508915,-0.16878,0.43953735,-0.09019041,-0.23724891,-0.39573413,0.44257858,-0.099342324,0.29933056,0.31107792,0.034074686,0.0715723,0.026352894,0.58820474,-0.058907855,-0.38804895,-0.3673778,-0.26675552,-0.04562656,-0.07554929,0.042083897,0.06972692,0.2521999,-0.06834025,0.3534896,0.40392813,-0.03641052,0.3206272,0.28635377,0.03755445,-0.20467903,0.36332723,0.26688042,0.17188475,-0.1137862,-0.38281462,-0.24039394,0.21846256,0.091013715,0.2388221
RSM0080,0.6220623,-0.2859492,-0.14946415,0.2612948,-0.044203147,-0.52260303,-0.4152871,0.24005704,-0.055845357,0.056802705,-0.45797622,0.038706817,-0.018058864,0.34004235,-0.18608142,-0.14759146,0.24862893,0.5225823,-0.09096929,0.08696299,-0.015245242,0.017805174,0.39948273,0.048871372,-0.38571948,0.03645435,0.45252421,-0.17277922,-0.4755301,-0.5494524,0.29293865,-0.09689403,0.2595513,0.28632027,0.072695985,-0.002531373,-0.023473576,0.47410142,-0.047321174,-0.32690763,-0.40497464,-0.22079359,0.03937752,-0.18677808,0.124913,0.15131587,0.08982527,0.0024449595,0.25530246,0.40148598,-0.06753031,0.19460027,0.39295074,0.18821469,-0.104977034,0.16656318,0.1959499,0.2466405,0.14987245,-0.38703856,-0.3249198,0.2673558,0.021968866,0.20518298
RSM0081,0.5343262,-0.10455708,0.19541664,-0.017267577,0.31040016,-0.3153241,0.3582838,0.07927316,0.12525345,0.21664867,-0.34506586,0.22023527,0.1581459,0.18632782,-0.2769945,-0.2402188,-0.2759989,0.34011438,-0.2192984,0.080706015,0.050088692,0.04762896,0.19951977,0.18957652,-0.0537718,-0.035152256,0.08453841,0.10378302,-0.5786894,-0.035349093,0.093748085,0.20275708,0.2586045,0.08263442,-0.01828215,-0.05908841,-0.0736442,0.38101855,-0.063482605,-0.31373984,-0.43767646,0.23558739,-0.20467645,-0.02271965,-0.43937775,0.16976158,0.20778203,0.0010300959,-0.12949103,0.16248548,0.01183522,0.18448973,0.6121091,0.4324418,0.2708229,-0.07537117,0.07324856,0.17444399,-0.29629847,-0.29757395,0.19350778,-0.36145237,0.07177354,0.14968133
RSM0083,0.62607896,-0.059084564,-0.2615448,-0.011400729,0.12903942,-0.26941508,-0.31112412,0.027139654,0.026832977,-0.056948457,-0.5683336,0.037948508,0.1326024,0.2481469,-0.07287011,-0.21633382,-0.0065504494,0.5864898,0.028998539,0.09451356,0.08414883,0.1468395,0.15509191,0.16797373,-0.34535074,0.08604874,0.6029993,-0.14909317,-0.61139786,-0.2638905,0.32593066,-0.03824998,0.6271737,0.18238547,0.1606723,0.09630882,-0.063691385,0.48118597,-0.19599517,-0.38033637,-0.39419794,-0.11522915,-0.070996456,0.23043437,-0.089925475,0.02320407,0.12077032,0.18460171,0.07144154,0.43223867,-0.074502796,0.39191872,0.35886025,0.20909588,-0.13808122,0.051840555,0.3541794,0.32882258,0.054480582,-0.14800933,-0.1771738,0.2688613,-0.06835958,0.29963985
RSM0084,0.6454772,-0.21802978,0.30168182,0.053527005,0.17433484,-0.16052699,0.2853109,0.198324,0.066908404,-0.028322343,-0.59192,0.41192326,0.10440548,0.36290812,-0.15071465,-0.23366933,-0.11340263,0.58385646,-0.014709063,-0.13830297,0.34702235,0.039800964,0.2526371,-0.18814108,-0.28870237,-0.3072075,0.11225083,-0.26809585,-0.4086171,-0.25936615,0.5003839,0.11078882,0.11068145,0.3158243,-0.028917883,-0.013627326,-0.07263564,0.5447157,-0.31572962,-0.08643998,-0.45857766,-0.13194261,-0.13053198,-0.08142434,-0.1935351,-0.07493259,0.11700791,0.098026596,0.15457004,0.37167975,-0.0942818,-0.0018544011,0.5415215,0.20328294,0.21253935,0.38101092,-0.043035336,0.199721,-0.24643795,-0.31622624,-0.15382488,-0.26365983,-0.09399563,0.3171513
RSM0085,0.37368986,-0.085758165,0.09730912,0.13848731,0.2317556,-0.03094623,0.014850082,0.26546335,-0.087283365,0.005451536,-0.46521467,0.06627885,0.19020185,0.34676647,-0.11792204,-0.16830917,-0.021225384,0.41956896,-0.07760828,-0.27590543,0.043283332,0.028384468,0.05615603,-0.021671463,-0.14917658,-0.117705554,0.09220664,-0.17431752,-0.40894517,-0.21561877,0.33670926,0.18169984,0.26698044,0.208532,0.13728471,0.12358144,-0.09188753,0.40602353,-0.27038875,-0.12461531,-0.43566552,0.048806597,-0.19114143,0.107682504,-0.28985715,-0.01912539,0.104228035,0.1289509,0.03944534,0.3424341,-0.1856675,0.1419018,0.1911265,0.11239644,0.31979498,0.14199986,0.2340325,0.15112273,-0.12290584,-0.12729587,-0.049701296,-0.2508243,-0.09201929,0.1441684
RSM0086,0.64125085,-0.019013364,-0.21628848,0.11687113,0.14970866,-0.31084052,-0.27753317,-0.08028957,-0.044948995,-0.17862952,-0.47280085,0.112681024,0.25591704,0.46044382,-0.039133113,-0.15640114,-0.056975476,0.45955658,0.07413759,0.0770287,0.11253276,0.07773493,0.24510711,0.15642141,-0.30266094,-0.086223215,0.5646027,-0.15775916,-0.58035654,-0.35651416,0.18025208,-0.08496699,0.53467715,0.2040971,0.17795849,-0.023643585,-0.013551467,0.5036083,-0.15375163,-0.39745882,-0.28012884,-0.14047575,-0.067793235,0.12885335,-0.10960286,0.050144073,0.25313675,0.08559548,0.11705917,0.38072973,0.062872775,0.3167508,0.27351254,0.036590837,-0.12439673,-0.019923024,0.32813773,0.21069062,-0.02904094,-0.29309005,-0.09504413,0.29877344,-0.009747835,0.29533103
RSM0087,0.540789,0.024114737,-0.24850035,-0.0069401665,0.06803668,-0.35960257,-0.33387333,0.024375604,-0.041471966,-0.0686228,-0.5190689,0.03975879,0.21989436,0.31738123,-0.098200224,-0.2656056,0.044994894,0.52226794,0.015075309,0.19791766,0.17802581,0.14077173,0.28683746,0.17590736,-0.33872244,-0.08438522,0.65772706,-0.20902674,-0.5385756,-0.3056985,0.21078153,-0.026333084,0.55521244,0.12563294,0.1256219,0.06337623,-0.08816057,0.40947604,-0.2794675,-0.2551041,-0.32253048,-0.18830803,-0.092409074,0.10622439,0.021459151,0.06940984,0.264074,0.112938374,0.12501833,0.4075035,0.04267114,0.25604352,0.44945717,0.21299702,-0.0025297387,-0.16797021,0.31310564,0.32634872,-0.007307393,-0.18078673,-0.17325167,0.27643898,-0.07240006,0.24676445
RSM0088,0.3794172,-0.10181302,0.18098839,0.2366353,0.3279792,-0.16247621,0.06005296,0.20481421,-0.12616846,-0.008585234,-0.38548005,0.109316275,0.1683526,0.38513198,-0.021526152,-0.16066882,-0.10290715,0.38509393,-0.0013312162,-0.30187103,0.057204086,0.042166404,0.07365585,-0.026150912,-0.19673544,-0.19214095,0.11594902,-0.2293242,-0.36200216,-0.285351,0.2916734,0.12029668,0.06387909,0.16135368,0.15057729,0.0042471737,-0.06956443,0.48608893,-0.19190824,-0.154989,-0.4481692,0.039432768,-0.18981543,0.062275995,-0.25672817,0.07539115,0.13625762,0.06775668,0.08640462,0.29114273,-0.13266319,0.14288025,0.16171455,-0.037847128,0.2960732,0.15064521,0.18641771,0.19074982,-0.08865979,-0.18695407,-0.019474065,-0.22497992,-0.080224074,0.17290531
RSM0089,0.64279765,-0.23689298,0.28667098,0.07070367,0.18061355,-0.13632366,0.27781138,0.22750303,0.05635228,-0.037313536,-0.59095854,0.4326229,0.09451313,0.33850712,-0.13479799,-0.20612447,-0.119417705,0.57200646,-0.013450955,-0.11312917,0.31117463,0.054852713,0.23367368,-0.15009485,-0.32470348,-0.2903198,0.15804078,-0.25760663,-0.45883018,-0.28707308,0.48315364,0.1204619,0.09032969,0.27537477,-0.027678415,-0.073763795,-0.08687983,0.5696761,-0.2978931,-0.113873675,-0.46783558,-0.11128198,-0.13232677,-0.087060094,-0.20773278,-0.02065311,0.10094555,0.10238357,0.13850105,0.41157925,-0.11475663,0.022031127,0.52264905,0.22909832,0.23740408,0.38300565,-0.071203046,0.22576545,-0.24307485,-0.31474113,-0.17219368,-0.25732002,-0.09411318,0.30196515
RSM0090,0.62460524,-0.32184595,0.38725346,-0.003700413,0.44304004,-0.39280578,0.28948155,0.13012189,0.19368955,0.15670592,-0.41924596,0.13963671,-0.1559659,0.5554671,-0.15320885,-0.41620058,-0.20349717,0.5167053,-0.14213024,-0.12024922,0.2645122,-0.0032649,0.36892116,-0.2637945,-0.028588891,-0.100354925,0.06268298,-0.009015747,-0.37847802,-0.050121788,0.43044573,0.18359657,0.14105599,0.31928727,-0.045823634,-0.09381671,0.011165395,0.5756772,0.08474929,-0.027594179,-0.6439914,0.1587544,-0.4608377,-0.059183314,-0.30547664,-0.017643321,0.2123282,0.03409758,0.17002237,0.27456215,-0.0098967925,0.39212808,0.58873934,0.3343864,0.12226664,0.33577287,0.20523871,0.16711369,-0.058820885,-0.11611484,0.18831329,-0.47386548,0.100787796,0.4790346
RSM0092,0.48585287,-0.26967326,0.30344564,0.02578738,0.46300316,-0.2597446,0.31646708,0.13855278,-0.12801962,0.0491798,-0.36596444,0.08209441,0.33429354,0.1358028,-0.18684652,-0.429001,-0.19965878,0.6445503,-0.121933684,-0.020149587,-0.01940189,0.23701271,0.034867533,0.28613627,0.003448049,-0.05428217,0.14414045,0.0823327,-0.7926557,0.023957616,0.11089032,0.17865619,0.30898932,0.33278015,0.022256183,0.056657795,-0.044464484,0.31695315,-0.24850279,-0.24200678,-0.5485152,0.3473158,-0.19123632,0.08227289,-0.50799835,0.20383193,0.1947582,0.08801491,-0.19697571,0.18393978,-0.11148264,0.22904752,0.46549696,0.5845673,0.22849254,0.09600711,0.25238153,0.27563715,-0.20636496,-0.28619355,0.28869626,-0.2924091,-0.016362105,0.26399288
RSM0093,0.65900546,-0.16658665,-0.15275589,0.31283894,-0.0071780947,-0.172591,-0.30094993,0.10585936,0.05665046,-0.22878775,-0.6240503,6.898683e-06,0.35856602,0.6378818,-0.019164734,-0.352711,0.22891814,0.3681274,-0.22573939,-0.0078016347,0.073598094,-0.12958242,0.22809766,0.27271965,-0.34475684,-0.18369305,0.50253916,-0.008817876,-0.2215461,-0.19585323,0.28076047,-0.11673043,0.33702883,0.35109058,0.07669717,0.20053126,-0.049549542,0.33347973,-0.09588565,-0.48568442,-0.24561915,-0.25515726,-0.03160997,-0.035588305,0.056346137,0.22478484,0.3955036,-0.048399776,0.19251655,0.34994388,-0.013995556,0.4857375,0.19045576,0.20755535,-0.53616387,0.2699736,0.26028624,0.16766572,-0.027600478,-0.31782228,-0.16814056,0.18489407,0.07406372,0.24844815
RSM0094,0.6370896,-0.04166148,0.028014889,0.08938778,0.10591073,-0.30495447,-0.28667396,0.049479846,0.101108044,-0.0046428596,-0.4081732,0.18375322,0.16682981,0.41537285,-0.06634941,-0.080779,0.09074593,0.56638306,-0.12633042,0.029624458,0.24661951,0.038791556,0.28922254,0.01311497,-0.2553028,-0.19391406,0.49654344,-0.18060407,-0.30561015,-0.24554797,0.29552665,-0.06777649,0.2652718,0.09493936,-0.05495558,-0.021835871,0.030133074,0.57513595,-0.06317151,-0.1988326,-0.3595352,-0.10200611,-0.054202177,-0.17839256,-0.032320566,0.013904303,0.16962537,0.04745803,0.21597487,0.32471484,0.18133551,0.19328019,0.28574714,0.15653689,0.025294125,0.1520588,0.22976571,0.23937921,-0.17645678,-0.33849823,-0.088165134,0.09441868,-0.052029803,0.20501406
RSM0096,0.6485403,-0.17932558,-0.14715265,0.023617774,0.07857123,-0.23014803,-0.22980446,0.003785729,-0.095388584,-0.08253369,-0.5236759,0.0626649,0.19372799,0.25907218,-0.09532621,-0.19814403,-0.07310712,0.49857777,-0.009281103,0.07227133,-0.032134093,0.07227779,0.05646268,0.22923808,-0.25618437,0.19249852,0.43995136,-0.008846948,-0.6432939,-0.23500073,0.3115545,-0.053797957,0.6467045,0.1851137,0.18650931,0.06960209,0.0013443172,0.44563106,-0.10869506,-0.51443976,-0.3985919,-0.03684749,-0.076348774,0.26383328,-0.23707128,0.0849715,0.031897247,0.12512767,0.066247314,0.34740862,-0.10683165,0.32438058,0.3477822,0.1565831,-0.16947302,0.08866282,0.29413638,0.30194932,-0.0022795033,-0.19913195,-0.12506339,0.22006986,-0.025645114,0.26185167
RSM0097,0.6568627,-0.02563022,-0.22296557,0.030073319,0.18874991,-0.1895121,-0.25585514,-0.012985492,0.077419296,-0.06597656,-0.58526653,0.07285477,0.18433197,0.3319747,-0.04609236,-0.1574345,-0.042010114,0.5332582,0.0017475457,0.047893014,0.066528544,0.065410994,0.16969495,0.16802073,-0.2916025,0.07805877,0.57654554,-0.099287406,-0.5787465,-0.2428468,0.29580244,-0.002610439,0.61266464,0.20913993,0.15154423,0.06546391,-0.0053695994,0.49336177,-0.1339536,-0.43554756,-0.39126036,-0.09848901,-0.089803375,0.24470529,-0.14525817,-0.02240582,0.14446649,0.16294903,0.011091652,0.4171791,-0.033880413,0.3987402,0.30881685,0.18417738,-0.12244626,0.11141556,0.35597908,0.25428918,0.0024106223,-0.18535046,-0.1054752,0.25038013,-0.059875198,0.27147776
RSM0098,0.75778747,-0.07377901,-0.24615748,0.16166198,0.12903176,-0.27605766,-0.28558296,0.052973997,0.04097943,-0.017510377,-0.43486023,0.09434547,0.07438436,0.36901143,-0.11156158,-0.07491664,0.016180411,0.47734421,-0.014864556,0.08778741,-0.028869482,0.04384274,0.29310763,0.12818247,-0.3068907,0.102998726,0.5148913,-0.142357,-0.5911499,-0.38064408,0.2172961,0.008690284,0.49934095,0.22667111,0.13947922,-0.0019921071,-0.033615503,0.5078783,0.022497505,-0.3954461,-0.3312928,-0.13966188,-0.065381445,-0.0066441977,-0.09728396,0.06476556,0.12459465,0.091437496,0.028999375,0.4270501,-0.029287435,0.3463341,0.22444768,0.1809519,-0.17265615,0.04410301,0.2885363,0.23608175,0.08510329,-0.29137674,-0.15292995,0.21877162,0.019360255,0.22319303
RSM0100,0.55234987,-0.22068352,-0.026732467,0.18743041,0.10126373,-0.23905984,-0.1061849,0.09953956,-0.20368023,-0.18101561,-0.5659725,-0.10726022,0.34070355,0.40984005,0.08574449,-0.29048288,0.0074084494,0.30580056,-0.07713528,0.010591577,-0.2046053,-0.13087581,0.09379532,0.3455831,-0.11228022,0.058375556,0.2792306,0.1501256,-0.39535826,-0.28840005,0.336539,-0.07423757,0.3380514,0.33537865,0.08280723,0.2147071,0.0125906905,0.27706185,-0.17542191,-0.5712259,-0.32591897,0.01934234,-0.049131434,0.09505036,-0.1619763,0.25608107,0.09304633,-0.0405702,0.060030933,0.27582785,-0.09205559,0.3541232,0.241677,0.39598426,-0.27313006,0.10420692,0.26364183,0.18073586,-0.12270022,-0.21358116,-0.07620865,0.20595764,0.062369585,0.20799667
RSM0104,0.69622487,-0.29370353,0.35617653,-0.03926755,0.33179802,-0.30503297,0.44079572,0.129948,0.17480594,0.04023202,-0.5894271,0.42168093,-0.1106469,0.38580486,-0.14399073,-0.27365342,-0.18793713,0.5965232,-0.14668047,-0.05215352,0.3816138,0.09101793,0.3833586,-0.15614055,-0.30830592,-0.2283567,0.17685452,-0.21226153,-0.46112213,-0.10850352,0.57309616,0.16491598,0.068048336,0.43674675,-0.09703443,-0.03746263,-0.005684408,0.577004,-0.22107115,-0.17077988,-0.5159645,-0.043490067,-0.21788183,-0.13392782,-0.20353454,0.024583286,0.21745871,0.07088944,0.04253284,0.30550537,-0.017600935,0.20608227,0.5721359,0.43810868,0.07716147,0.43176195,-0.0877383,0.18365246,-0.08095996,-0.25860384,-0.08305104,-0.29085144,-0.052322526,0.38051367
RSM0105,0.648272,-0.0814317,-0.08755157,0.26205707,0.07658668,-0.27477497,-0.3355091,0.13513038,0.1305768,-0.09223504,-0.6552135,0.022455435,0.23172495,0.77701676,0.0529456,-0.23415655,0.21926972,0.3283604,-0.15657845,0.024490954,0.0795577,-0.1784066,0.3089142,0.12690358,-0.31844395,-0.1959417,0.4545391,0.04464875,-0.1659228,-0.3064915,0.47068375,-0.09029656,0.25022447,0.32806504,0.024416335,0.22316726,0.023267118,0.5030852,-0.05596158,-0.43141076,-0.3268841,-0.17784895,0.017986216,-0.08445434,0.05176602,0.13859065,0.26442304,-0.064399265,0.26790938,0.4230001,-0.01201964,0.45888165,0.19372137,0.18259457,-0.38321826,0.3537249,0.23670073,0.20389006,-0.0029756636,-0.31677967,-0.16002758,0.2639558,0.054972783,0.21044026
RSM0106,0.64324117,-0.2200488,-0.15754938,0.2830953,-0.0022148122,-0.32273787,-0.29482207,0.06766613,-0.0017175137,-0.0027352455,-0.39846504,0.06810728,0.060640343,0.38188025,-0.1568925,-0.11318496,0.08080247,0.41300473,-0.051686317,0.092906564,-0.033721883,-0.02247496,0.27360365,0.08726947,-0.3237909,0.12658301,0.38006067,-0.13234325,-0.49590373,-0.47634798,0.21230516,-0.007951668,0.32531673,0.19715118,0.17006089,-0.021453654,-0.02496163,0.5062658,0.086750895,-0.38258627,-0.2966819,-0.14642267,0.053482294,-0.05833413,-0.10486521,0.10332909,0.076737136,0.038113035,0.13423087,0.34154227,-0.042538557,0.22831383,0.32551008,0.13988076,-0.19063257,0.16385067,0.16030194,0.21002623,0.095221244,-0.3375196,-0.22414349,0.1937058,0.05001476,0.18576296
RSM0107,0.77118766,-0.12216072,0.10285938,-0.008839194,0.21892816,-0.2638113,-0.094083555,0.14164647,0.2824629,0.049908645,-0.43526742,0.32665688,0.038307816,0.3825701,-0.076150015,-0.061873164,-0.025850592,0.6078612,-0.12688175,-0.110960975,0.30346456,0.042402573,0.2962449,-0.02295679,-0.31130382,-0.22763997,0.46004754,-0.18141808,-0.3851447,-0.21005017,0.39010686,-0.017713604,0.17330934,0.13172024,-0.24812497,-0.11159271,0.030061834,0.6566213,-0.048084594,-0.136904,-0.439557,-0.07932864,-0.08822437,-0.28009978,-0.082013205,0.022901371,0.07476492,0.16363627,0.10030496,0.3954548,0.14702655,0.26054448,0.20933159,0.27961016,-0.016785685,0.37563154,0.2213527,0.20993511,-0.2771566,-0.2479243,-0.09066762,-0.008414063,-0.09990777,0.27969825
RSM0108,0.45842567,-0.28747383,0.16464081,0.09108796,0.18078709,-0.025221225,0.112111166,0.1668437,-0.19701044,0.016290426,-0.39268762,0.10347488,0.2946649,0.24643841,-0.21155527,-0.37413797,-0.11751823,0.4647872,0.011991234,-0.15563941,0.055951927,0.007986314,-0.10576767,0.005484425,-0.053209614,-0.000720285,0.14937979,0.054615658,-0.5249723,-0.10616405,0.30690417,0.008519156,0.44041243,0.17489542,0.24010372,0.07471365,-0.07100481,0.37238717,-0.10324102,-0.29832146,-0.5825913,0.14745113,-0.25978413,0.20554511,-0.32922608,0.08746432,-0.061160088,0.17433748,0.1276906,0.16897151,-0.31382853,0.05500377,0.34336746,0.051971834,0.14350621,0.18203762,0.27100083,0.27037454,-0.15006772,-0.08594028,0.064786434,-0.20310307,-0.049655795,0.25382864
RSM0109,0.77875876,-0.12026672,0.11637552,-0.011856484,0.22386333,-0.2553311,-0.117696434,0.16057646,0.28460255,0.03289528,-0.4444907,0.32851782,0.0422772,0.3950022,-0.09134126,-0.06213293,-0.021566931,0.6131501,-0.13603486,-0.10234725,0.31124315,0.050744385,0.3141321,-0.03969742,-0.30639976,-0.25139734,0.46160376,-0.16201538,-0.35883656,-0.18740454,0.3943265,-0.007669887,0.18025838,0.15053596,-0.24372691,-0.09491202,0.031728577,0.6470998,-0.050818395,-0.1481534,-0.42643654,-0.069926,-0.07838475,-0.30022067,-0.08859725,0.02809017,0.067864254,0.15422061,0.10192091,0.36764058,0.1570837,0.27791488,0.22167657,0.2729886,-0.032426905,0.39282927,0.23310578,0.2134357,-0.29475152,-0.2650706,-0.07002653,5.454994e-05,-0.10314095,0.27928695
RSM0110,0.76969737,-0.2242691,0.16591936,0.00472851,0.26751646,-0.3510677,-0.033101812,0.1749665,0.18377638,0.08792762,-0.46206912,0.26125622,0.0020965417,0.37387726,-0.004550471,-0.10010624,-0.15843531,0.6266499,-0.08305541,-0.12755233,0.3047192,0.0059619416,0.23753384,-0.022242846,-0.3283855,-0.13510129,0.4103954,-0.14538664,-0.31461266,-0.21011415,0.51695085,0.027069258,0.09333159,0.1339031,-0.32248524,-0.023875887,0.049237132,0.6846042,-0.033627976,-0.23082088,-0.5006605,-0.07778251,-0.03317389,-0.25287512,-0.14729601,0.09752927,-0.014819318,0.15195563,0.1718333,0.33622643,0.16565064,0.23668627,0.3220404,0.292692,-0.07289867,0.5504443,0.14094885,0.18428563,-0.29985595,-0.26984647,-0.1651302,0.004853613,-0.022515096,0.35782254
RSM0111,0.6554441,-0.08056851,-0.06864133,0.25961408,0.052718345,-0.2650515,-0.3403727,0.12541816,0.12402522,-0.08976257,-0.642469,-0.0071661733,0.215343,0.78417116,0.043489,-0.22641028,0.23242581,0.3418331,-0.16616754,0.029057177,0.06362283,-0.18519974,0.3057424,0.12530366,-0.32009768,-0.2053934,0.47022867,0.03229766,-0.13351314,-0.30759355,0.48831433,-0.087118514,0.2401193,0.3300678,0.014586316,0.20103328,0.041133735,0.510886,-0.070991606,-0.4329335,-0.32997236,-0.1846096,0.034088742,-0.10378589,0.05183506,0.14852253,0.28833297,-0.08430895,0.2671891,0.42531553,-0.029610423,0.45493644,0.18194903,0.16823748,-0.39174712,0.33428407,0.23306763,0.19229598,-0.006099776,-0.31656992,-0.15460502,0.2531472,0.048683856,0.2075286
RSM0112,0.77372456,-0.09421587,-0.2596782,0.17890939,0.12224197,-0.29577985,-0.29362503,0.06210793,0.019853428,-0.03280936,-0.44858047,0.07539946,0.076037064,0.3615954,-0.12991336,-0.07201909,0.024212841,0.49971408,0.006313382,0.08066987,-0.041134257,0.028835975,0.28023788,0.13881755,-0.31149098,0.10320487,0.4954326,-0.15862994,-0.6272681,-0.39286706,0.20757002,0.007922484,0.46315578,0.22692434,0.1676004,-0.009410838,-0.008932056,0.5006615,0.025560899,-0.4189175,-0.35103518,-0.12402457,-0.061212886,-0.014016016,-0.08721722,0.059998352,0.13859752,0.09764327,0.02733359,0.43038228,-0.033949975,0.33944464,0.24768451,0.18431662,-0.16418025,0.032623768,0.2967701,0.24783981,0.06293345,-0.29610413,-0.15517122,0.22010452,0.009482415,0.21378477
RSM0113,0.66550964,-0.30532786,0.31981882,0.2410637,0.36038268,-0.25945488,-0.13960932,0.20289144,0.08641887,0.043284282,-0.4139912,0.14636211,0.038609996,0.57138515,-0.020760827,-0.34914014,-0.016643824,0.6099129,-0.025919838,-0.24669999,0.15767762,-0.015804794,0.19019628,-0.25466573,-0.022382429,-0.30612808,0.2836363,-0.14359254,-0.3793112,-0.18077104,0.3206297,-0.025270632,0.16917905,0.14654545,0.0684636,-0.19916147,0.0038778246,0.7361878,0.08404221,-0.08113954,-0.6958921,0.0913672,-0.42561325,-0.02760778,-0.09085893,-0.08941234,0.053007513,0.047233976,0.3144045,0.36652154,-0.024961622,0.17909713,0.28448138,-0.075413525,0.20893891,0.2976867,0.3644778,0.39086512,-0.055960633,-0.18554334,0.11455288,-0.3299378,-0.10591222,0.37847713
RSM0114,0.5931131,-0.3549232,0.37497154,0.0026105216,0.3996838,-0.34880272,0.2681275,0.13523944,0.19365644,0.13993166,-0.397392,0.14032003,-0.1394282,0.59107894,-0.15387619,-0.41344818,-0.17849477,0.5017434,-0.14972736,-0.1290074,0.28100386,-0.03093616,0.37732,-0.26515305,0.006542126,-0.121872865,0.09737045,0.0009274758,-0.38270512,-0.08952416,0.4292193,0.13639511,0.086591,0.3141169,-0.041148994,-0.11481602,-0.018211747,0.5842337,0.05202123,-0.006383229,-0.6029786,0.123211265,-0.48350462,-0.087738656,-0.31166747,0.0118399095,0.25168556,0.038129203,0.18462409,0.2879068,-0.026900945,0.36655483,0.57718825,0.3145633,0.09449843,0.30648014,0.19428845,0.16021033,-0.10626858,-0.077202216,0.16763623,-0.46862975,0.088778645,0.46435967
RSM0116,0.5978813,0.12686485,-0.15529661,-0.021550471,0.14310251,-0.20563324,-0.22051671,-0.034886286,0.10483379,-0.016009664,-0.4505429,0.18794116,0.2630263,0.44883135,-0.11667265,-0.19840446,0.017648805,0.45453683,-0.07364866,0.12177996,0.20436408,0.055322945,0.2713573,0.07708923,-0.23425989,-0.15022887,0.63810444,-0.12534626,-0.42586863,-0.20749503,0.17018874,0.00041454402,0.47985885,0.091386825,0.1372544,0.052607145,-0.056905244,0.47016358,-0.19841653,-0.252591,-0.33665606,-0.16397634,-0.18701904,0.08951846,-0.045878667,-0.0046355296,0.31107333,0.06857503,0.13997453,0.3828126,0.105622664,0.24624763,0.34136072,0.11960005,0.06152838,-0.16491453,0.2992919,0.27400416,-0.10726431,-0.1429399,-0.074659616,0.118248016,-0.095936485,0.24210837
RSM0117,0.6747943,-0.21639052,-0.041313805,0.3200202,0.06784859,-0.2528124,-0.27444002,0.22612499,-0.023500565,-0.10760409,-0.6786053,0.04789803,0.14949758,0.6792872,0.022973804,-0.19711486,0.04955381,0.55626816,-0.07616829,0.01810888,0.14085962,-0.1419145,0.21328515,0.040228467,-0.30402595,-0.21369636,0.42684728,-0.10165611,-0.28264344,-0.45727667,0.44461685,-0.07584185,0.18166935,0.3336361,0.03980238,0.005723772,0.020551907,0.63413835,-0.053120915,-0.40378433,-0.4319025,-0.2528866,-0.0373802,-0.11661225,0.021894388,0.13768417,0.2582976,-0.020821018,0.2689391,0.42266008,-0.065631345,0.3402103,0.26925617,0.063821875,-0.22604658,0.4696522,0.2483467,0.1927366,-0.09663425,-0.3571123,-0.26395094,0.20501494,0.09042555,0.21432205
RSM0118,0.6645996,-0.26084903,-0.18301962,0.17191854,-0.019236568,-0.49832815,-0.42281628,0.17384295,-0.014732243,-0.030843735,-0.45454612,0.058089763,0.0044473633,0.28602418,-0.18432857,-0.15953492,0.22375791,0.56467384,-0.06564079,0.05697559,-0.0061673545,0.057044223,0.41744456,0.044949174,-0.35005313,0.019092547,0.46070483,-0.23644297,-0.54858345,-0.4738388,0.3086443,-0.13977131,0.376298,0.30540034,0.06866069,0.009663777,-0.07976586,0.4426032,-0.054983407,-0.26386973,-0.34668395,-0.20479687,-0.06449641,-0.16856663,0.11449115,0.13018931,0.14323029,0.047447227,0.19534922,0.3933032,-0.056270048,0.28742144,0.29973236,0.16595727,-0.14260918,0.09554974,0.2779199,0.23695695,0.11987851,-0.3150903,-0.27535594,0.24807248,0.007135626,0.2876768
RSM0119,0.7638045,-0.14106998,0.0888607,-0.0074128397,0.23979573,-0.27207232,-0.14701538,0.16883461,0.2592554,-0.021200823,-0.4444452,0.2852991,0.045404274,0.3978189,-0.06930904,-0.068468615,-0.035585653,0.6196375,-0.07191571,-0.13952945,0.3349223,0.034076154,0.33678734,-0.049182273,-0.26852563,-0.2564608,0.43100038,-0.17465758,-0.38756445,-0.21928562,0.3559118,-0.0029423668,0.19441624,0.18907265,-0.27411488,-0.101959415,0.03097521,0.60711676,-0.062621534,-0.09805299,-0.40356764,-0.08864247,-0.096091814,-0.30753905,-0.09119367,-0.0016172592,0.10113468,0.16691914,0.07391872,0.3814653,0.18416747,0.24403296,0.23803426,0.30060077,-0.028135363,0.38365114,0.2511239,0.13434003,-0.33645844,-0.27843755,-0.063662924,0.0047369185,-0.05054587,0.3169224
RSM0122,0.5633434,-0.15744732,-0.12811449,0.28137252,-0.037979387,-0.39748967,-0.0641557,0.16962895,-0.44521746,0.018599814,-0.445168,-0.1581484,0.22365326,0.3110841,-0.19239183,-0.20624089,-0.14187936,0.33436495,0.033605855,0.16440418,-0.12610129,0.0012472945,0.13237172,0.20315117,-0.28283027,0.19137928,0.083646245,0.0051949485,-0.48890617,-0.5489371,0.1805108,0.13249817,0.32396084,0.26133144,0.34678495,0.14137577,0.019323919,0.50989765,0.086868435,-0.56156194,-0.38700765,-0.05438118,0.056693163,-0.0021777367,-0.27345744,0.20097826,-0.072154514,-0.056229953,0.11704999,0.21887739,-0.21747173,0.22605419,0.5347401,0.22675373,-0.026859865,-0.028960051,0.06433638,0.1989078,-0.06305136,-0.42540112,-0.10055908,0.1987017,0.2031795,0.018999923
RSM0123,0.5018749,-0.29995412,0.2940568,0.30643335,0.41090015,-0.18238063,-0.04145937,0.22150742,0.0138843935,0.0054075257,-0.42728543,0.062157042,0.112300955,0.7706961,-0.031110214,-0.43959048,-0.08639303,0.4299827,-0.014985219,-0.21750647,0.20756374,-0.057232868,0.15077645,-0.20709687,-0.018964391,-0.39723942,0.24691099,-0.016206488,-0.22627527,-0.0375688,0.3817086,0.035139542,0.08807951,0.22634128,0.053211622,-0.08778581,-0.021158366,0.63407433,0.09523351,-0.098265596,-0.6310622,0.0817101,-0.36523408,0.05736479,-0.08946982,0.03693237,0.2120192,-0.010623257,0.27909017,0.3251106,-0.14392072,0.2191777,0.34931383,-0.11414972,0.11017447,0.36093992,0.2789058,0.28199667,-0.040090986,-0.24645297,0.1600286,-0.3996344,0.031020235,0.28356457
RSM0124,0.7220956,-0.31740195,0.2073232,0.048939012,0.27202854,-0.36526978,-0.015004932,0.2162846,0.062419508,0.07133329,-0.45560718,0.16897157,0.018740939,0.42176577,0.004402748,-0.14104728,-0.19440684,0.6148193,-0.0350805,-0.16935053,0.3167322,-0.02643219,0.20649336,-0.020000802,-0.32994512,-0.08109268,0.33867928,-0.14088476,-0.27406898,-0.29001176,0.57690156,0.089263156,0.040571406,0.16441329,-0.3391868,0.022475863,0.06375015,0.623558,-0.09808332,-0.2719776,-0.5290227,-0.050828055,-0.022353247,-0.20803136,-0.22315452,0.15067379,-0.0373451,0.16957128,0.16785619,0.29070574,0.17175806,0.20301718,0.4255403,0.34419233,-0.07492929,0.61440295,0.12524441,0.13913645,-0.34662086,-0.27652854,-0.16957073,-0.0070757954,0.071699455,0.3741015
RSM0125,0.7719749,-0.15677965,0.09731487,-0.010263043,0.21750133,-0.28825334,-0.12492664,0.18267241,0.23438142,0.008797528,-0.4445939,0.26297536,0.047789913,0.40729043,-0.07768592,-0.0644459,-0.048834518,0.62092096,-0.07032477,-0.13637914,0.31498063,0.05089553,0.33522418,-0.044299055,-0.25604394,-0.26416695,0.4288934,-0.16941701,-0.38127196,-0.22437708,0.3712854,-0.0013472153,0.2121079,0.17309569,-0.25999296,-0.109658815,0.019897575,0.61976975,-0.06541437,-0.09622734,-0.39350435,-0.08521493,-0.0968874,-0.29970425,-0.09568022,-0.015728714,0.11034567,0.19077863,0.06615838,0.3597829,0.17483853,0.24608977,0.21909691,0.29671445,-0.028047565,0.39916858,0.24607128,0.124467306,-0.3387266,-0.26448303,-0.03891043,0.020457303,-0.066869944,0.33015978
RSM0129,0.50585747,-0.15078667,-0.15262723,0.32131484,0.15260215,-0.2103426,-0.06833719,0.12412238,-0.26102602,-0.23438531,-0.6225842,-0.10971117,0.31750542,0.5927725,0.054696646,-0.3069751,-0.09783873,0.24107666,-0.015650082,0.116776764,-0.072238535,-0.14995548,0.105190106,0.37033075,-0.21522577,-0.15449664,0.38626003,0.13012323,-0.37207073,-0.3673227,0.26772815,-0.0256788,0.17413872,0.42268583,0.19712257,0.12400326,-0.0012572883,0.36605814,-0.08560943,-0.624467,-0.29365474,-0.085838005,0.018597715,0.08703495,-0.06808203,0.38821968,0.27726325,-0.06371152,0.046282087,0.29372472,-0.23630582,0.39450458,0.21364394,0.23839502,-0.36497775,0.21780236,0.17621456,0.15821007,0.015391707,-0.38643965,-0.13792625,0.26090142,0.18720469,0.097159736
RSM0132,0.50592965,-0.34873253,0.08328162,0.12164442,-0.0048123254,-0.20431411,-0.01963364,0.0037039088,-0.35145846,-0.10901473,-0.47575358,0.025282167,0.33036545,0.30717427,-0.10993014,-0.32901636,-0.10481528,0.54007363,0.021828763,0.0048762923,-0.087872475,-0.080544874,-0.009135222,0.2150759,-0.13054608,0.21473911,0.1426666,0.057995323,-0.5041001,-0.27887067,0.2960022,-0.18430229,0.51598483,0.24388587,0.18609245,0.120511524,-0.044128433,0.32883683,-0.08002097,-0.50722444,-0.34814733,-0.048857376,-0.06605774,0.17152666,-0.2895382,0.29052892,-0.027269108,-0.0651883,0.2183917,0.18406141,-0.15859447,0.29943308,0.3879527,0.099359535,-0.19289769,0.08289125,0.19550921,0.25428152,-0.09386639,-0.24272893,-0.09101979,0.027760182,0.16600831,0.29394776
RSM0133,0.6131411,-0.40434125,-0.08020477,0.14456852,0.16050665,-0.21535382,-0.12621596,0.0057249195,-0.14558512,-0.16593233,-0.58543605,0.018489774,0.2663666,0.30475473,-0.086946286,-0.31348738,-0.14003977,0.5385161,0.09264687,0.06319572,-0.10706683,0.07983125,-0.06665752,0.28697172,-0.18642314,0.16858639,0.32859528,0.012057901,-0.7500513,-0.29482064,0.1885723,-0.0690186,0.66758174,0.19076815,0.23038962,0.0023838226,0.012699715,0.4768823,-0.1365056,-0.54177403,-0.42008638,-0.012634518,-0.0252621,0.27452117,-0.30232716,0.13790102,0.016137933,0.098864876,0.08272595,0.2992808,-0.13667217,0.31584722,0.3179354,0.08008607,-0.25056145,0.17838463,0.29694647,0.3187178,-0.017573934,-0.24280106,-0.10085436,0.22519012,-0.013782013,0.30769435
RSM0134,0.63555473,-0.22952414,0.25518075,0.18002328,0.2287573,-0.2817425,0.06621498,0.225426,0.008321943,0.11564114,-0.35479426,0.18691505,-0.03153736,0.32486892,-0.06765133,-0.13439216,-0.10650894,0.5518926,-0.0896303,-0.17097855,0.2546584,-0.044180427,0.2640614,-0.102046795,-0.23960592,-0.15142538,0.15696609,-0.17553513,-0.202695,-0.27270314,0.38197282,0.14929253,-0.0755048,0.18822175,-0.13788404,0.011722523,0.020777196,0.58319026,0.084362365,-0.19672948,-0.5009226,-0.022068327,-0.094863035,-0.2332294,-0.17707904,0.07059436,-0.035670713,0.051825654,0.15446416,0.23035839,0.005673317,0.1258629,0.43790674,0.2928423,0.09765651,0.39809015,0.03485462,0.2004821,-0.15936014,-0.3639982,-0.07590651,-0.1601456,0.07354781,0.27146217
RSM0135,0.6291669,-0.13506468,0.0070525943,0.26937813,0.0071827997,-0.22742863,-0.24420421,0.18671101,-0.0877372,-0.033031397,-0.6030664,0.03595148,0.2358723,0.65183514,-0.038493987,-0.24950191,0.06668071,0.4991452,-0.12937856,-0.02678504,0.14601314,-0.122293286,0.18152726,0.059925813,-0.2817118,-0.15979433,0.3851921,-0.061506897,-0.1754513,-0.29930395,0.4410703,-0.043216582,0.25010034,0.23835653,0.06483112,0.1629047,0.019378373,0.58619636,-0.044449832,-0.399555,-0.44266564,-0.20142484,-0.036768835,-0.05689763,-0.03240016,0.14982432,0.16113529,-0.064608775,0.3035839,0.35301676,-0.095753565,0.30660975,0.3059918,0.07323617,-0.15028083,0.30841887,0.24040927,0.24945183,-0.12558478,-0.3487237,-0.18997443,0.11420502,0.08744181,0.20029776
RSM0136,0.5651877,0.005393793,0.23009315,0.2174439,-0.028060101,-0.15697765,0.06757764,0.05814185,0.10179393,-0.008571501,-0.52937204,0.109043084,0.46376038,0.70041937,-0.21741994,-0.56936353,0.44441837,0.18106937,-0.41114405,-0.31439954,0.2195678,-0.23013216,0.36608323,0.08044136,-0.19014019,-0.19909199,0.26618317,0.014633084,0.091605514,-0.08063808,0.22890961,0.052099027,0.095205106,0.42262048,0.22515845,0.42664322,-0.110656336,0.2753168,-0.1476688,-0.2511587,-0.34774548,-0.18230121,-0.19644518,-0.08579247,-0.142738,0.13303232,0.38345906,-0.18085964,0.38701975,0.086808786,0.117302954,0.44200405,0.3205189,0.26786658,-0.3332506,0.104960725,0.16723172,0.2073082,-0.09130599,-0.14497474,0.10216841,-0.22247358,0.10937727,0.47952956
RSM0137,0.7481115,-0.17946301,0.18353468,0.0634073,0.15445091,-0.1253438,0.12226843,0.23408757,0.20347498,0.058325022,-0.47893244,0.360165,0.25319567,0.676926,-0.16451886,-0.3246005,-0.14128953,0.4064693,-0.15479569,-0.16506143,0.35616624,0.014725666,0.23566784,0.00835378,-0.43226752,-0.43070298,0.33618343,-0.06340622,-0.3380346,-0.027256282,0.54446214,0.19148383,0.19822419,0.1540391,-0.23071271,0.12407802,-0.14027353,0.5349682,-0.13849097,-0.12478413,-0.43115485,-0.13184625,-0.06703631,-0.19245356,-0.22708867,0.13332862,0.21593231,0.16202953,0.13577673,0.44584882,0.013836259,0.14400142,0.5167505,0.26521185,-0.0012406404,0.4320652,0.023227204,0.19526167,-0.39728498,-0.3671423,-0.10519158,-0.33820963,-0.0049061268,0.30631828
RSM0138,0.42276028,0.023022981,0.04562113,0.04913381,0.12516983,-0.09883559,-0.1351794,0.04870642,-0.02804847,0.11005759,-0.42116725,0.1582362,0.20349476,0.44782722,-0.1986296,-0.34829658,0.010132491,0.5034151,0.077516936,0.0786723,0.28192285,0.096378,0.11335661,-0.16566847,-0.07653124,-0.17259273,0.4216232,-0.017807689,-0.38175505,-0.14645298,0.17273553,-0.03564882,0.43078083,0.062187262,0.28586555,-0.0894825,-0.055240627,0.49058405,-0.14793785,0.012424391,-0.4846422,-0.0184498,-0.2790066,0.19456705,-0.115594156,-0.16702874,0.15699093,0.063070305,0.29073837,0.34425712,-0.14845139,0.0026834232,0.5017895,-0.03338248,0.332887,-0.049796846,0.30354193,0.35562974,-0.066212624,-0.047671497,0.046834312,-0.09653422,-0.14136961,0.22650091
RSM0139,0.50800997,-0.061475944,0.19271217,-0.004557959,0.38288686,0.021069434,0.07333057,0.18631355,0.13791236,0.11876712,-0.4376749,0.17461585,0.14932789,0.26279524,-0.2733945,-0.3960696,-0.08482113,0.8369677,-0.08306845,-0.10227448,0.26951772,0.12667127,0.06895385,-0.23730133,0.05625766,-0.05914675,0.32547957,-0.06874902,-0.49691293,-0.0045186635,0.29473364,-0.027637107,0.37209252,0.21526398,0.09710181,-0.088357024,-0.07873149,0.54384786,-0.11939278,0.020795008,-0.6140112,0.2307914,-0.41342294,0.09482435,-0.43634915,-0.11090005,0.15954688,0.18335846,0.14055426,0.31138068,-0.16542912,0.24661107,0.303194,0.20965563,0.2910306,0.21533412,0.3955895,0.30927467,-0.19892526,0.000760039,0.22269396,-0.21334463,-0.21788733,0.3089076
RSM0140,0.56724286,0.005884035,0.024517804,0.031910773,0.19473787,-0.29775608,0.31679904,0.21721461,0.05071636,0.22066732,-0.3665655,0.123747915,0.18873464,0.2767638,-0.48987016,-0.19014291,-0.17880031,0.42352122,-0.17417069,-0.012038526,0.16046557,0.089367345,0.44165504,0.032606654,-0.19447184,-0.022124967,0.044977125,0.004369472,-0.5579416,-0.27111724,0.07812686,0.33065483,0.19646186,0.34103677,0.04048596,0.0074046087,-0.073013514,0.30678406,-0.078016415,-0.07734743,-0.31493816,0.16603243,-0.14376137,-0.2839744,-0.50622594,0.13187753,0.27957204,0.1285881,-0.1716372,0.20297852,-0.06175517,0.2164098,0.633289,0.6488288,0.28005418,-0.06483744,0.06921737,-0.0683535,-0.41465673,-0.29588056,0.13764094,-0.23861963,0.14994906,0.072764866
RSM0141,0.68399274,-0.3341182,-0.11998653,0.13029017,0.008312996,-0.30018234,-0.28932506,0.033178516,-0.0978564,-0.18631904,-0.43959817,0.07802174,0.19800009,0.32971168,-0.10718599,-0.13570988,0.00027632542,0.52873445,-0.030457743,0.011683311,-0.08309517,-0.0015075292,0.17755674,0.17271402,-0.1666587,0.080031164,0.32701653,-0.078521974,-0.6587413,-0.3236052,0.26373485,-0.15264527,0.57443565,0.2584339,0.09675558,-0.012491073,-0.035937734,0.3823109,-0.020969186,-0.44404763,-0.24314342,-0.062803045,-0.09896444,0.039423957,-0.14381778,0.10751665,0.075869195,0.0617368,0.078226045,0.31002265,-0.026723988,0.28881064,0.27814743,0.11900565,-0.20070308,0.042399075,0.3084228,0.16746014,-0.050005432,-0.30767718,-0.1038892,0.152048,0.07962925,0.2924547
RSM0142,0.7320784,-0.2637589,0.22026381,-0.052508105,0.33427447,-0.43934256,0.1497892,0.15136465,0.066187434,0.1049399,-0.3905432,0.18481529,-0.010876918,0.41749692,-0.09360313,-0.2054355,-0.26522776,0.6269166,-0.061563585,-0.14739093,0.3936773,0.020985875,0.35170624,-0.023431709,-0.30549896,-0.051011387,0.2970937,-0.16621599,-0.37572035,-0.22438906,0.5396289,0.15959884,0.07212445,0.2575506,-0.31329066,0.03605228,-0.019225266,0.57048994,-0.094407886,-0.19939673,-0.5050269,-0.0055626645,-0.1223843,-0.27295125,-0.29083905,0.19382542,0.060605194,0.22890635,0.055144213,0.25434682,0.20178011,0.32578552,0.5406997,0.48338488,-0.07781638,0.45013195,0.13943827,0.065113895,-0.27890956,-0.23087308,-0.05609997,-0.15261704,0.122768626,0.46221042
RSM0143,0.48344222,-0.05008181,-0.25046203,0.25163168,0.20129201,-0.29689255,-0.24161011,-0.08014005,-0.16369691,-0.22865172,-0.44618595,0.05867136,0.28114295,0.5615828,-0.064662516,-0.23170918,-0.13784696,0.37939817,0.18619129,0.13181037,0.16371873,0.08152182,0.1992234,0.22220379,-0.38766697,-0.13064428,0.5972048,-0.16658738,-0.574499,-0.44091263,0.13200045,-0.026357137,0.42893484,0.26317203,0.272799,-0.043491244,-0.004304917,0.4881433,-0.13344328,-0.34704265,-0.27286762,-0.19081138,0.020429961,0.20520836,-0.108230114,0.15333988,0.3296798,0.09012474,0.13185303,0.30226064,-0.076681376,0.25252366,0.36611316,-0.053051658,-0.22170135,0.051257364,0.28320107,0.19059026,0.09037082,-0.32268494,-0.15597987,0.3128978,0.10324702,0.25091892
RSM0145,0.5982722,-0.15794799,-0.10217796,0.24243383,0.023565173,-0.28654552,-0.22620487,0.106180936,-0.11981456,-0.16550681,-0.52249366,-0.13925682,0.32959548,0.5855769,0.015736561,-0.21062037,0.11871571,0.30224624,-0.059459887,-0.043511532,-0.11686328,-0.18024565,0.31256354,0.21479338,-0.16330475,-0.032196317,0.2880712,0.061704863,-0.253141,-0.3793223,0.27278402,-0.028137654,0.2728612,0.35205096,0.023657072,0.23255683,0.008648191,0.2657125,-0.10852177,-0.42066392,-0.20310514,-0.06589028,-0.0484543,-0.09320457,-0.07345297,0.14114916,0.17403609,-0.03594911,0.12896872,0.29801932,0.046323407,0.33865458,0.21215214,0.36668783,-0.2564191,0.08036171,0.2842307,0.052120954,-0.16930096,-0.29939285,-0.048730094,0.23771515,0.07791014,0.2047074
RSM0146,0.5235577,-0.112181045,-0.018693293,0.22020683,0.20645513,-0.30027735,-0.34837344,0.23172049,0.013114135,-0.12511085,-0.48827988,0.06152532,0.18774246,0.5313509,0.040041953,-0.06713029,-0.007981952,0.6318004,-0.08273825,0.06493328,0.25040412,0.013763822,0.3005107,0.02033702,-0.12783998,-0.4566474,0.51409125,-0.120338514,-0.3591889,-0.3325277,0.22292833,-0.09632584,0.044584554,0.24864669,-0.20049727,-0.14334361,0.036623873,0.5370443,-0.15407023,-0.14557335,-0.29054666,-0.13779542,-0.063657865,-0.22865261,0.06054635,0.075754985,0.36262515,0.027944382,0.095982485,0.43356806,0.08630255,0.14523664,0.28327414,0.22639522,0.082803026,0.2334033,0.28015476,0.0925877,-0.27888495,-0.44358283,-0.101823665,0.16228746,0.03420412,0.1217694
RSM0147,0.37737834,-0.26222354,-0.17959216,0.22797441,-0.061225086,-0.40640515,-0.122433424,0.25125414,-0.5890238,-0.13428736,-0.37835228,-0.23219636,0.17929156,0.24514419,-0.17007585,-0.23471063,-0.05763561,0.36588493,0.14907129,0.101448976,-0.044016354,-0.057882287,0.21180487,0.13309938,-0.24019188,0.036417775,0.09054626,-0.16729541,-0.54380214,-0.6692484,0.13923505,0.040859856,0.26233056,0.3801068,0.34896138,0.009511705,-0.043279503,0.42101672,-0.04240198,-0.32571954,-0.35376662,-0.09868001,-0.070567176,-0.08401502,-0.110101014,0.27765876,0.041554973,0.031823546,0.13677555,0.26345825,-0.26497558,0.25295764,0.48636478,0.21114753,-0.012870887,-0.027434502,0.15880115,0.11368434,-0.023699023,-0.29915583,-0.1594597,0.1586495,0.28080097,0.11246027
RSM0148,0.2867032,-0.11347139,0.020051157,0.022242626,0.07437579,-0.09863554,-0.2200243,0.13652173,-0.09144144,-0.077276796,-0.42931378,0.028222809,0.23336178,0.55349106,-0.17213993,-0.41051582,-0.02233932,0.4297997,0.09631008,0.13924684,0.28857985,0.08727939,0.13139102,-0.16485608,0.04217193,-0.35156178,0.37820807,0.012447786,-0.36195093,-0.1627724,0.20259327,-0.07333798,0.3899437,0.14731967,0.1676632,-0.108698204,-0.12485316,0.40408882,-0.2172805,0.065817416,-0.34016952,-0.056742236,-0.2919726,0.11476817,-0.0087119965,-0.10888941,0.2866856,0.084265284,0.27612942,0.40513524,-0.12727195,0.024640761,0.51176274,0.03634791,0.31203416,-0.08631606,0.32444218,0.21558265,-0.15708093,-0.08699937,0.013232044,-0.08473116,-0.11906822,0.2093634
RSM0149,0.6948327,-0.33358654,-0.12234769,0.30640027,0.0654041,-0.3095855,-0.440565,0.2405578,-0.025505843,-0.25699145,-0.6688803,-0.006310686,0.18479533,0.74869287,0.019092903,-0.1930792,0.07215217,0.5857625,-0.010266305,0.028806,0.116632126,-0.117209144,0.2937006,0.03244272,-0.2571113,-0.25099233,0.49380705,-0.13008125,-0.44135728,-0.47965643,0.41955128,-0.15147363,0.284206,0.3961381,-0.012849066,-0.0785763,0.019889032,0.5729528,-0.09865703,-0.33889607,-0.30195454,-0.24137671,-0.084184654,-0.13257863,0.06338286,0.08220599,0.35414279,0.04428572,0.27807587,0.495273,0.03203652,0.34985217,0.25715613,0.09384042,-0.24569897,0.35559344,0.32882944,0.07143275,-0.14088197,-0.39702123,-0.25736275,0.26308504,0.083252944,0.26885906
RSM0150,0.6668839,-0.32918197,-0.10366537,0.34711316,0.024012635,-0.28215316,-0.41954732,0.25062355,-0.0804102,-0.18562189,-0.7072197,-0.043025978,0.19092226,0.79801655,0.0037633167,-0.20192567,0.10332789,0.52504534,-0.07965966,0.023087664,0.12764575,-0.17873858,0.2683222,0.018249715,-0.23370431,-0.23882183,0.41482604,-0.094337024,-0.29974064,-0.49800792,0.4383024,-0.11313484,0.26609313,0.37052283,-0.009172828,0.010012829,0.037452467,0.57262653,-0.10318307,-0.37775356,-0.33651775,-0.27114987,-0.06282573,-0.10801934,0.05509794,0.06967154,0.3698598,-0.0392029,0.32438713,0.47205484,-0.0193079,0.34862974,0.27059442,0.06747069,-0.22553216,0.4111371,0.31818768,0.06453373,-0.17088391,-0.4137801,-0.27163282,0.23644027,0.117702976,0.23897798
RSM0151,0.6300051,-0.28653982,-0.20942068,0.24055119,0.014867503,-0.22256859,-0.2566628,0.053181913,-0.084879324,-0.25005937,-0.487197,-0.059668656,0.30415773,0.39308605,-0.070041396,-0.21710117,0.12831189,0.4079845,-0.02923383,-0.08306724,-0.14205445,-0.12880239,0.24411492,0.27130207,-0.18193087,0.11448178,0.34301126,-0.04625864,-0.5016991,-0.37638655,0.2079413,-0.11749662,0.4694182,0.3533145,0.083955556,0.120105945,-0.08079904,0.1788491,-0.08975506,-0.4850929,-0.20281348,-0.0674018,-0.09196332,0.03034222,-0.131596,0.16377215,0.16463515,0.081294216,0.040870555,0.26779673,-0.0027219306,0.36005935,0.21431151,0.30801794,-0.3809984,0.07658026,0.28588122,0.04356695,-0.05006249,-0.23191519,-0.1449216,0.1830214,0.08104208,0.29117802
RSM0152,0.5353358,-0.38760883,0.03225736,0.16265008,0.08439154,-0.30741695,-0.15383117,0.15907142,-0.39897978,-0.18102379,-0.5132211,-0.14412233,0.2412277,0.4212434,-0.030184941,-0.30050793,-0.18784262,0.347082,0.050292905,0.06164762,-0.15755105,-0.052948255,-0.073309265,0.3128607,-0.051487938,0.015468946,0.12836592,0.078721784,-0.4814868,-0.37777483,0.2198451,-0.015304527,0.41119063,0.30867168,0.055373915,0.004234253,0.012456539,0.37083048,-0.17815174,-0.4634225,-0.37807775,-0.024364121,-0.15803204,0.023852708,-0.2042324,0.22636874,0.12362812,0.03509097,0.09208032,0.24080704,-0.07352594,0.31450498,0.2498461,0.19582768,-0.12645033,0.14901373,0.31140172,0.12569447,-0.23227529,-0.22735098,-0.038472086,0.06215483,0.17754248,0.28946334
RSM0153,0.5537021,-0.5457655,-0.05011992,0.30144924,0.15032756,-0.299598,-0.12106541,0.1265268,-0.4241794,-0.30215773,-0.54057604,-0.095251344,0.38384795,0.44483325,-0.022524685,-0.3718147,-0.23187512,0.4897815,0.15899418,0.024199732,-0.16941506,-0.022176828,-0.08374655,0.3224194,-0.13670793,0.022432832,0.21172164,0.053391762,-0.71635455,-0.42314008,0.24189723,-0.14955826,0.4750953,0.34458432,0.20737319,-0.05784991,0.02973394,0.37172222,-0.15768617,-0.6012413,-0.3836945,-0.024826223,-0.07788979,0.2340025,-0.24485764,0.33039814,0.1634532,0.03562463,0.1087472,0.20901996,-0.23862393,0.24562167,0.32940006,0.045155674,-0.2443142,0.24993086,0.2978996,0.13659409,-0.12183159,-0.34579217,-0.14743003,0.1986008,0.17068097,0.3042454
RSM0154,0.6466339,-0.18459207,-0.14581856,0.28801382,0.028109713,-0.3071551,-0.44321835,0.1548225,-0.012459842,-0.20848,-0.66962546,-0.098598495,0.23442397,0.85623825,0.05041414,-0.19901577,0.21736357,0.34910303,-0.07375698,-0.010550689,0.071723126,-0.21870631,0.34412566,0.07455738,-0.24403039,-0.18564285,0.4145896,-0.051454384,-0.25403097,-0.4395818,0.4550414,-0.11509818,0.3343081,0.42528418,0.048663013,0.1684294,0.04977246,0.4669359,-0.09819127,-0.39623964,-0.2612239,-0.2336605,-0.09016917,-0.08318646,0.06252396,0.060503613,0.34888265,-0.048757255,0.27408752,0.461991,0.02342397,0.45544526,0.15692094,0.12995869,-0.36793247,0.2885064,0.3211898,0.065475635,-0.069793664,-0.33673543,-0.17182827,0.3012092,0.11922722,0.25935888
RSM0155,0.6334917,-0.0928565,-0.1542017,0.1646778,-0.03303674,-0.30337098,-0.38778976,0.01444837,0.03401904,-0.14998718,-0.47853217,0.1413825,0.23480798,0.6831819,-0.116211705,-0.14563869,0.059262734,0.4527427,-0.055543896,0.15619583,0.20685503,-0.031342383,0.3401278,0.10661985,-0.2943565,-0.23017262,0.50010395,-0.1075052,-0.40139562,-0.30588835,0.25480953,-0.11400531,0.46829352,0.22727895,0.01885396,0.004062521,-0.075167,0.47353604,-0.058974694,-0.3052938,-0.17336413,-0.2681133,0.015900921,-0.12713549,0.023094743,0.052088037,0.31194273,0.024330912,0.18244606,0.41668838,0.067446046,0.25360784,0.3599882,0.0770834,-0.1863022,0.033072066,0.23540476,0.121593244,-0.111670315,-0.4415088,-0.12924215,0.19291738,0.08131846,0.19040143
RSM0156,0.4808002,-0.16368434,-0.11616547,0.20103994,0.1827785,-0.15224344,-0.14913079,0.2424854,-0.19911732,-0.11644219,-0.7197665,-0.22947788,0.14490636,0.5042063,0.016011123,-0.29114065,-0.066684894,0.4227829,0.07444834,0.009453271,0.03151345,-0.118117906,-0.013492587,0.19746353,-0.16520292,0.005942747,0.36492348,-0.0021471279,-0.38801926,-0.43379763,0.3274901,0.115427874,0.36553255,0.34081635,0.187098,0.107348576,0.058901317,0.51372015,-0.21148181,-0.46240157,-0.4422276,-0.11246725,-0.090450786,0.2354276,-0.12396726,0.07340898,0.20761603,0.049171306,0.06278831,0.31986934,-0.20032474,0.3460892,0.30605596,0.148057,-0.15909053,0.3749299,0.34627205,0.20804513,-0.070848554,-0.17484781,-0.16951746,0.28340054,0.107318625,0.259829
RSM0157,0.60662675,-0.13591094,-0.22730298,0.26410225,-0.024678726,-0.37554637,-0.38700283,0.091636516,-0.1403865,-0.11150062,-0.43868458,-0.034953512,0.15392886,0.55285805,-0.13229644,-0.11600383,0.020328201,0.39653286,0.004066682,0.171647,0.020358972,0.039639242,0.29360506,0.10750499,-0.2818145,-0.01858017,0.42089832,-0.07718463,-0.46265092,-0.48645687,0.18335354,-0.01425608,0.3638801,0.28052062,0.16819702,0.017397339,-0.020463152,0.4628031,0.018654209,-0.36181286,-0.18633558,-0.21345147,0.0469442,-0.04837468,-0.005963907,0.05872645,0.22332524,-0.0106525645,0.16902821,0.38586947,-0.03809808,0.20733288,0.39736396,0.09373033,-0.12228853,0.010939172,0.2033751,0.11736371,0.022738764,-0.42570797,-0.1768634,0.28191227,0.12888686,0.1364303
RSM0158,0.53392667,-0.58716387,0.24076533,-0.022023562,0.17074594,-0.23632507,0.18028167,-0.008328771,-0.21904033,-0.07628757,-0.2967954,0.18664794,0.22427614,0.18931359,-0.14017071,-0.3147222,-0.38885894,0.63844544,0.12357509,-0.119213626,0.09473145,-0.0056025507,-0.028178547,0.13559899,-0.11715031,0.22095743,0.093724325,0.0203836,-0.61251146,-0.17308022,0.41414043,-0.11541299,0.36268246,0.1471969,-0.16289449,-0.04455292,-0.11839106,0.30016994,-0.082063615,-0.33933035,-0.4170797,0.06609096,-0.15045397,0.04594425,-0.48968354,0.30059883,-0.16239423,0.20975398,0.15312736,0.11894497,-0.032225244,0.13859625,0.5014149,0.22672346,-0.11100072,0.24423979,0.09337389,0.082491614,-0.2650612,-0.102944754,-0.05779357,-0.22248405,0.10192539,0.40057454
RSM0159,0.5321812,-0.38681707,0.3890156,0.20385563,0.30031675,-0.2965757,0.113522194,0.221484,-0.02065802,-0.0058339327,-0.39282218,0.059375145,0.08141235,0.7284276,-0.25371692,-0.60911214,0.013430199,0.55466807,-0.082385145,-0.2429221,0.219445,0.009051368,0.3716533,-0.32273868,0.083535105,-0.28092867,0.060791187,-0.098403245,-0.5371701,-0.13444573,0.2879285,0.12239771,0.20445743,0.42512283,0.2310599,-0.10528681,-0.13002345,0.5067043,-0.027475942,0.12852609,-0.6159697,0.15190011,-0.6105901,0.010545824,-0.30827358,-0.06512359,0.32830226,0.03888738,0.28629044,0.33639038,-0.14587429,0.24213901,0.57976514,0.13573028,0.29328632,0.078938216,0.35902995,0.24407476,-0.020806713,-0.084179774,0.256714,-0.6331823,0.018731803,0.48876795
RSM0160,0.64599377,-0.46268064,-0.056335736,0.062743664,0.21680439,-0.23492606,-0.09657067,0.13650703,-0.102173515,-0.2052992,-0.5276532,-0.09016075,0.20006843,0.31315947,-0.02411529,-0.26931733,-0.093294054,0.44314224,0.045566738,0.0501037,-0.19062255,-0.007069739,0.07731146,0.32199356,-0.0073959953,0.031760085,0.24594584,0.059734277,-0.7738954,-0.22456813,0.06710911,-0.012727774,0.6269043,0.32701752,0.052632373,-0.12373269,0.026618699,0.32817987,-0.16437864,-0.4522792,-0.33473748,0.076133564,-0.20485315,0.034738112,-0.14590612,0.09485292,0.1513362,0.10591977,-0.08936853,0.31983075,-0.03835294,0.3532428,0.25224236,0.29803944,-0.16032061,0.0649751,0.35699606,0.16745208,-0.1466361,-0.22081847,0.046750862,0.096117236,0.012399821,0.2817854
RSM0161,0.45902506,-0.28942665,-0.14165707,0.22245473,0.24056949,-0.16475141,-0.15975446,0.2768117,-0.24669823,-0.20272298,-0.69616663,-0.24295548,0.15038536,0.5138517,0.046446737,-0.3077358,-0.10668428,0.41903737,0.16279015,-0.0004915324,0.015620661,-0.13102567,-0.006631449,0.20326407,-0.14466016,-0.040429093,0.38501614,-0.040534306,-0.4995148,-0.55043,0.26720366,0.09964972,0.3081585,0.3982112,0.14505164,-0.020349879,0.025753688,0.48457628,-0.23169555,-0.43181986,-0.41804686,-0.09498467,-0.12362603,0.21301386,-0.14341843,0.11658518,0.25892776,0.12686494,0.029378993,0.36386532,-0.1827964,0.3328188,0.32290575,0.19605944,-0.17489687,0.3709493,0.3383604,0.1009263,-0.10552619,-0.16944431,-0.2171338,0.28146362,0.106222235,0.28120297
RSM0163,0.54287523,-0.44417894,0.021590803,0.15173823,0.10330515,-0.2973268,-0.07774585,0.1197931,-0.35289934,-0.11338211,-0.55824715,-0.08218186,0.3673311,0.38068423,-0.15459113,-0.360349,-0.2141089,0.4221399,0.14537755,0.10246521,-0.1337023,0.0029257939,-0.09753464,0.3430065,-0.050187476,0.17944877,0.14068075,0.1294141,-0.67674917,-0.33614892,0.22790587,-0.0122056315,0.58368,0.28402707,0.15800756,0.069827594,-0.079931095,0.31684896,-0.20220764,-0.48273197,-0.36561292,0.065399624,-0.054201614,0.1810441,-0.3460885,0.22720821,0.07244995,0.112246096,0.039184447,0.21288441,-0.15274672,0.17515779,0.57990164,0.23463154,-0.10492212,0.06172337,0.27166927,0.12806754,-0.23400663,-0.21362565,-0.05746416,0.07530021,0.11040108,0.30073977
RSM0164,0.6225611,-0.6033541,0.008962314,0.2026738,0.1255282,-0.2485803,-0.09359034,0.24893506,-0.31061372,-0.107257135,-0.615863,-0.14821729,0.2803992,0.30178162,-0.0712909,-0.37213957,-0.14960444,0.5141355,0.041407842,0.06607777,-0.2160077,-0.061839897,-0.081056826,0.3496831,-0.08044186,0.1895987,0.16039343,0.1050178,-0.6967927,-0.381252,0.19435671,0.0021341462,0.54839617,0.25406876,0.10735444,-0.042603396,0.022023527,0.392881,-0.17173202,-0.5625767,-0.47907862,0.04673729,-0.09345388,0.11242642,-0.30630967,0.22670856,0.036222007,0.088161245,0.043390978,0.2747101,-0.17086627,0.2673019,0.4503307,0.28515735,-0.12720533,0.25366262,0.269423,0.23740725,-0.19944681,-0.26996452,-0.10293654,0.09759339,0.07645275,0.28072482
RSM0165,0.59133536,-0.06980467,-0.25580034,0.112238236,0.06778302,-0.2548696,-0.26376235,-0.07569109,-0.080515765,-0.111863665,-0.3769834,0.010935546,0.24070176,0.45885265,-0.15362568,-0.2697663,-0.0731232,0.44185,0.13285272,0.20212093,0.16828024,0.07297438,0.3216645,0.22663738,-0.33453143,0.007377957,0.54983556,-0.18431032,-0.59123796,-0.3996377,-0.023185479,0.09714759,0.527937,0.14497687,0.18285014,-0.04906076,-0.08608082,0.39393124,-0.13385735,-0.18239978,-0.18870056,-0.14132114,-0.027480703,0.052181203,-0.15291205,0.015254501,0.21304208,0.18454944,0.009048716,0.3513846,0.09175157,0.15566532,0.47512215,0.26184535,-0.080854975,-0.2097957,0.2647106,0.1770757,0.0066142306,-0.22704355,-0.04209317,0.15804662,0.029432634,0.2459793
RSM0166,0.7357563,-0.0072814142,0.022635741,0.12435917,0.0859115,-0.37469926,0.024661956,0.15100823,0.117917776,0.120682836,-0.31112808,0.24993408,0.18038628,0.39118236,-0.3882732,-0.08865463,-0.10678784,0.45585185,-0.16553763,0.13368003,0.22711532,0.08635278,0.49670655,0.14810711,-0.31339097,-0.16989991,0.27891734,-0.07870793,-0.40093306,-0.3760342,0.035927415,0.23816423,0.054378137,0.19040856,-0.14979853,-0.07318517,-0.051360186,0.4627602,0.03773352,-0.1343011,-0.23688254,-0.045728378,0.06550668,-0.4799653,-0.32008567,0.18895464,0.18081924,0.09433631,-0.066966176,0.21914905,0.18014641,0.09580879,0.470778,0.5581539,0.14829235,-0.09481076,0.026933704,-0.016947582,-0.48782557,-0.42153013,0.016102776,-0.032451913,0.121413015,0.06534904
RSM0167,0.6820283,-0.27166972,0.23423065,0.18900609,0.12545376,-0.076366924,0.28749245,0.16410889,0.26915038,-0.09910196,-0.5035022,0.28288606,0.39014605,0.53841424,-0.1389577,-0.5862438,0.017090376,0.19171822,-0.27742824,-0.30826783,0.32512814,-0.115440175,0.29156995,0.2597384,-0.4475602,-0.3890062,0.38001296,-0.1032162,-0.21528968,-0.034987226,0.28264004,0.19053657,-0.031309117,0.23462994,-0.17790624,0.15071142,-0.19512425,0.2707393,-0.2750551,-0.17789902,-0.33027077,-0.164339,-0.121980116,-0.18673636,-0.2646884,0.22568282,0.34671,0.11412081,0.079777114,0.24998115,0.20024699,0.22285889,0.504749,0.5459169,-0.3358752,0.42705873,-0.038931273,0.16805807,-0.26487154,-0.2639767,-0.07233506,-0.410248,-0.036491565,0.50104797
