type,x_0,x_1,x_2,x_3,x_4,x_5,x_6,x_7,x_8,x_9,x_10,x_11,x_12,x_13,x_14,x_15,x_16,x_17,x_18,x_19,x_20,x_21,x_22,x_23,x_24,x_25,x_26,x_27,x_28,x_29,x_30,x_31,x_32,x_33,x_34,x_35,x_36,x_37,x_38,x_39,x_40,x_41,x_42,x_43,x_44,x_45,x_46,x_47,x_48,x_49,x_50,x_51,x_52,x_53,x_54,x_55,x_56,x_57,x_58,x_59,x_60,x_61,x_62,x_63
RSM0001,-0.0059315017,-0.0010040351,0.008965805,0.007818303,0.009834107,-0.009192052,0.007849841,0.008617301,0.012248667,0.0126167685,-0.012691954,0.0033672259,-0.009920073,-0.0043019103,-0.009265761,-0.0160223,0.0020429573,0.011647845,0.009465598,0.0118032,0.016153434,0.017345421,0.01843462,-0.0020684844,0.0026271413,-0.0083653005,-0.007239742,-0.012626996,-0.012900938,-0.00031322843,0.010289877,0.014197354,0.0008222063,0.0037546249,-0.00068379653,-0.0013352741,0.012392303,0.005840659,-0.005534457,-0.003967398,-0.017863786,0.010135295,0.010268011,0.0004770825,0.01080537,0.0010428883,-0.01004405,0.00150753,-0.0014080066,0.010697523,0.0042062034,0.017794713,0.020304764,0.008877965,-0.009425453,0.006951338,0.003208493,0.011258933,-0.0018258652,-0.019040627,0.0035701403,-0.0013345975,0.001817797,0.011309366
RSM0002,-0.009500388,0.013089578,0.0021924037,-0.0056944173,0.000850224,0.008321214,0.0034021,-0.012077032,0.012399799,-0.006534219,-0.018300414,0.016807575,-0.0019772938,-0.003974398,-0.009634201,-0.009218476,-0.0045615854,0.010262261,-0.0055820546,-0.01286858,0.008877268,-0.003920721,0.009191167,0.0024741648,0.010452274,-0.009064398,-0.005177615,0.0018165105,0.0018323901,0.01057297,0.015998278,0.009442941,0.016144302,-0.0011567401,0.009519822,-0.0073995716,0.008286471,-0.0011826638,-0.004369682,-0.0074874675,0.00021490312,0.0032497807,0.0144043,0.01460517,-0.012068541,-0.0016170002,-0.003503046,-0.010566149,-0.013871824,-0.004334661,-0.0016805967,0.008421764,0.007669047,0.009710628,-0.013469619,0.015207634,0.0063627525,-0.010989007,-0.011443882,0.0031170072,-0.0084455,0.011774612,0.008254843,-0.008924782
RSM0003,-0.007142844,0.01336026,-0.006761203,-0.005693552,-0.013076198,0.0019468754,-0.0035033973,0.009277241,0.014348843,0.0006310317,-0.009504652,0.01116801,-0.005420036,0.014915032,0.014071743,-0.013063946,-0.009737917,0.01260083,0.0002796717,0.011779813,-0.0030230419,0.0059961076,-0.010490825,0.011432052,-0.0059099337,0.011973066,0.005883501,-0.011447719,-0.018822635,0.0005614503,-0.0065493993,0.0012521175,-0.010321496,-0.013990383,-0.008423643,-0.0006279362,-0.0019129674,-0.0015353794,0.0008203513,-0.012667831,-0.0032259077,0.013597691,-0.011157759,0.004253007,-0.0041750716,-0.0052065556,0.014850232,-0.009603572,0.012403678,-0.007910276,-0.012877284,0.013286794,0.006118114,0.008504812,0.008134506,0.0147088915,-0.0015554884,-0.0014375334,0.0013494325,-0.008680328,0.0077651367,-0.0010757578,0.011460906,-0.008218909
RSM0004,0.00087491085,-0.015677482,0.008132423,0.013354283,0.015663065,-0.017867628,0.0052460493,-0.005999422,-0.0024962884,-0.0043595033,-0.024607379,-0.010103873,0.00056434283,-0.0036270614,-0.0024633948,0.005803143,0.011830905,-0.0026916633,-0.008323451,0.014910478,0.009435929,-0.011268702,0.008072738,0.018137801,-0.019003766,0.009713596,0.013211571,-0.00027859487,-0.029749518,0.00071617716,0.0095726885,0.008185498,0.004990501,0.002220165,0.015766593,-0.016013635,0.012388304,0.02742257,0.0046715317,-0.0026740169,-0.0053270324,-0.008109535,0.004310062,0.012581396,-0.014867669,0.015705476,-0.0014976736,0.0023206342,0.0034704064,0.017980613,0.004240177,-0.0063474714,0.022646504,-0.0056125177,-0.00087900425,0.0038991729,0.0041852696,0.021272,0.002846729,0.0024671583,-0.011026695,0.008683564,0.004108754,-0.008086521
RSM0008,-0.0041886475,0.004070485,-0.013688989,0.01672953,0.003439373,-0.013363149,0.009379187,0.0009124628,-0.0071228324,-0.0034107063,-0.0067830565,-0.0040393183,0.000543492,0.0006384137,-0.00795815,-0.014288824,0.011127643,0.0051500713,0.0069946893,0.007825937,0.010429645,0.006840617,0.018428268,0.011114267,-0.017526679,0.008350228,0.0018733375,0.0015007289,-0.020777749,-0.00040243822,0.0007666144,-0.00085191696,0.009760407,-0.0034728413,0.0120166475,-0.0063858237,-0.013111154,0.022771593,-0.012337562,-0.014333553,0.00045878315,0.003669806,-0.002841823,0.0024386013,-0.009992305,0.00017763938,-0.0061245584,-0.0136227505,-0.0031590404,0.009558648,0.010051522,0.007061435,-0.0026481838,0.00406949,-0.01616916,0.007428887,0.003399742,0.018959517,-0.010287669,0.0056498703,-0.008024922,0.006633592,0.016284935,0.004612726
RSM0009,0.025163567,-0.012065988,-0.005482999,-0.002650952,0.018157208,0.004798682,0.0093440255,-0.00067626854,0.009108175,-0.00065875513,0.0021557084,0.015128399,-0.009240384,-0.002705473,0.0031149187,0.0050963718,0.0074144327,0.014289004,0.011498972,0.0085133705,-0.007657161,-0.0051077437,0.0061176885,0.0051469104,0.0068583894,-0.017160676,0.016035168,0.002713525,-0.0066048354,-0.020209333,0.008297782,-0.0023376998,0.013074898,0.009254823,0.018068857,0.0041063344,0.0045972024,0.027283158,-0.008130026,-0.0092401365,-0.021042638,0.0016014723,-0.013171343,0.009844039,0.0010583113,0.0043412377,0.018655268,-0.012853795,0.0059180674,0.012073799,-0.014919358,0.0058250483,0.00737105,-0.003662985,-0.0049805697,-0.0038407224,0.013812745,0.012279289,-0.002972575,0.0061162245,0.0045047994,0.014585876,-0.00095679186,-0.0018762744
RSM0010,0.009028589,0.0028753276,0.0017402286,-0.0017169649,0.00084113877,-0.0032891056,-0.0072888364,-0.0011066349,-0.0067989174,0.009469094,-0.0048392294,0.00013364041,-0.010722431,0.004969109,0.009719843,-0.020664284,-0.019802801,0.03292852,0.006579959,-0.00809554,-0.01272392,0.01449904,0.014575672,0.004466271,-0.019904045,-0.013413178,0.0026938473,-0.003147365,-0.022848342,-0.0014302036,0.008584751,-0.01115633,0.024855416,-0.0072826147,-0.0049372376,0.003252136,-0.00040323642,0.03073817,0.014079265,-0.009785543,-0.006189171,0.0138051575,-0.0020969026,-0.0058197016,0.0008574971,0.01370183,0.0121052265,-0.00879863,0.015433551,0.015229005,-0.015063774,0.0032316726,0.020578966,-0.0029780057,0.013855237,0.013236478,0.0010599237,0.0012490707,0.013006216,-0.024729615,-0.00894338,0.004957316,-5.2020438e-05,0.0033807147
RSM0011,0.019701814,-0.014642218,0.0059687244,0.013417645,-0.0038650553,0.005461345,-0.009002969,0.017460486,-0.016132265,0.011676441,-0.006180578,-0.0076357108,0.01316598,0.0086637875,-0.0036937492,-0.004970332,-0.0039514564,0.022837348,0.0105363615,-0.006576554,-0.00021806698,0.020987106,0.023679653,-0.009396293,-0.025198214,0.0027951954,0.009973647,0.012383038,-0.023575917,-0.0095122745,-0.0020387566,0.009964438,0.0056102322,0.01823888,0.012860292,-0.007914769,0.006765559,0.014111048,0.006311049,-0.010511581,-0.012824414,-0.013310466,-0.0063257534,-0.010603049,-0.015585462,0.019524978,0.017324056,-0.0029960084,-0.0073887715,0.002576082,0.007204291,0.00013432585,0.006081525,0.006579573,0.005579062,-0.010662023,0.0017866921,-0.0034216347,-0.004054934,-0.0015474922,0.007159677,-0.0011262103,-0.013922353,0.02089872
RSM0012,0.032053046,-0.016356481,0.0026199403,0.007410868,0.0004586079,-0.005802097,-0.0046847668,0.014062295,-0.00086344377,0.0135758035,-0.020014709,0.009730652,-0.0052784886,0.019737063,0.0045093377,-0.0001572272,0.009762411,0.020310821,-0.008115606,0.015609976,0.0031968113,0.0014833681,0.0069544916,0.008196718,-0.0092162145,0.010396791,0.0023258429,-0.009244575,-0.035371326,-0.01707922,0.019654753,0.016610125,0.021812886,0.0074027884,0.00085650734,-0.0072246953,0.010660985,0.008656453,0.0012482598,-0.0011018339,-0.023467606,0.0031432658,-0.009744215,0.012506957,-0.013741304,0.011899978,0.009925316,0.01241954,-0.012540561,0.01327526,0.010738607,0.010171942,0.022448653,0.003261472,-0.00076226454,0.0001693583,0.0021608267,0.003517453,-0.0006181025,-0.016240478,0.0022900575,0.0047373613,0.010923324,0.003122329
RSM0015,0.011553302,0.006080347,-0.01185991,0.008118272,0.008643443,-0.015242119,-0.0055873757,0.00097366545,0.011240862,0.011108495,-0.0037372587,0.0027369051,0.016731665,0.007355554,0.0018833355,-0.009176151,-0.0054442105,0.022489289,-0.0103586735,-0.006814998,-0.001367063,-0.0020064597,0.015534215,0.008015951,-0.022089427,-0.0053077163,-0.004466014,-0.016537981,-0.026006727,0.00020679655,0.0029294486,0.003030074,0.020729791,0.010489845,-0.011482096,-0.011309253,-0.012548069,0.022908345,0.006563474,-0.01811373,-0.022464938,0.0073037576,-0.00013968842,0.0028921294,0.0052869767,0.00597752,-0.004688619,-0.0008154774,-0.010626839,0.004558992,0.0014875849,0.012717262,0.024933811,0.014878292,0.001153924,0.0047509493,-0.007024311,-0.005815549,0.008208899,-0.02098306,0.0063968226,-0.013793518,6.559729e-05,-0.0016946397
RSM0016,0.013554036,0.009211861,0.01065605,0.004339706,-0.0018693021,0.006023714,-0.0068193823,0.00743709,-0.011621292,-0.0041060285,-0.001242808,-0.0015190295,0.0070412103,0.00081579207,0.0065835,0.0013555647,0.004947377,-1.2696546e-05,0.011934094,-0.0113067115,-0.00014108926,-0.0048996727,-0.0007645609,-0.009122282,-0.0042413934,-0.0033709293,0.008572992,-0.003875258,-0.014885966,-0.0076295957,-0.0034304108,0.009203727,0.0051752734,-0.0050945,-0.009587732,-0.004855302,-0.010308878,0.028326081,-0.0042665084,-0.015383204,-0.021330843,-0.0066465777,-0.008175836,-0.0079874,-0.01801041,0.0060393284,0.017855287,-0.0038375412,0.009610825,-0.0056316173,-0.016418053,0.0056809657,0.020716645,0.0007748515,0.0029248877,-0.009190796,0.008645541,0.01649832,-0.010275831,-0.0076309554,0.0073029245,0.0052233217,-0.0049188253,0.006720611
RSM0018,0.01840649,-0.0034119939,0.0068139127,-4.5713994e-05,-0.007916247,-0.0042695175,0.004499859,0.01134819,-0.0019901474,-0.00932881,-0.015532463,0.012517976,-0.0009445385,0.008802165,-0.0017175265,0.006090161,0.0031188692,0.016201494,-0.0030409899,-0.0037425843,0.00022748418,-0.010904451,0.013572932,-0.012573847,-0.011152684,0.0025298626,-0.0023703251,-0.0132193165,-0.010227514,0.0040436382,0.013259613,-0.0077566165,0.005870677,0.017461417,-0.0009822471,0.010453245,0.0051497743,-0.0015369954,-0.012126279,0.00087724347,-0.014571068,0.00023249046,-0.0040708072,0.011665687,0.0066990866,-0.0013098947,-0.013867074,0.015966052,-0.008191109,-0.0029043981,0.012929398,-0.001429454,0.019178344,0.0076258928,0.012645476,-0.0050449744,0.0026356613,0.0021675886,-0.011814161,-0.016877202,0.009718802,0.009415025,-0.00050883257,-0.010708164
RSM0019,0.0122374175,0.010755151,-0.013796989,-0.004565997,-0.008893789,0.0007538971,0.0073320707,0.01666331,-0.012928624,0.00558084,-0.0104418285,0.011314241,0.0020681983,0.0060931924,0.0077227056,0.002710646,0.013542581,-0.001100096,-0.015088477,0.0031852606,-0.00780033,0.010473443,-8.789162e-05,0.010006392,-0.005141406,-0.00697245,-0.00018274259,-0.0012568622,0.0033865238,-0.006276855,-0.013893373,0.00907428,-0.0062376466,0.016793784,0.0013692137,-0.009225345,0.003223001,0.006892458,0.008860386,-0.00566051,0.0075992984,-0.005374946,-0.0136427125,0.014462053,-0.0036032521,-0.0108444225,0.012232909,0.010363759,-0.0017743299,-0.009383555,-0.0072696153,-0.0059801457,-0.004860616,-0.0082634855,-0.005312215,0.0019122487,-0.0029186315,0.0040535107,-0.011759083,0.009306242,-0.010352665,0.011926418,0.008204498,0.0025861762
RSM0020,0.010015059,-0.00068324007,-0.0011844146,-0.006522156,-0.005334154,0.0071225693,-0.0028606541,0.004306812,-0.017215298,-0.0103049,-0.02178682,0.0076788017,0.014536452,0.024614364,-0.008050855,-0.014287648,-0.008792914,0.02845303,0.00073137204,0.0076439353,0.0003612304,0.018099388,0.021905283,0.016061354,-0.011648003,0.012682756,-0.0044928943,0.0033157507,-0.027038526,-0.002865811,0.006003959,0.016572068,2.7288188e-05,-0.008314294,0.0061552688,-0.009923043,-0.011109484,0.00063853577,-0.007126829,-0.006610772,-0.019776406,0.010223921,-0.0028736594,-0.010725661,-0.016886536,0.015276808,0.013572355,-0.007717891,0.0005664349,0.010143206,0.0037882295,0.009231236,-0.0021420754,0.006851486,0.0072784624,-0.0117716985,0.0052497457,0.020916454,0.008990321,-0.0113318,-0.00043850028,-0.007136936,-0.008471221,0.010792686
RSM0021,0.020900099,-0.008584241,-2.1038857e-05,-0.0056064934,0.013661701,-0.014379557,-0.003852301,-0.0029115549,0.010636677,0.0024372658,-0.0016897386,0.018870011,-0.003083922,0.003252771,-0.002496849,0.0034356564,-0.013954858,0.02719165,-0.009836299,-0.0055527883,-0.008783266,0.002128601,-0.0022128876,-0.005048743,-0.016842023,-0.0019489772,0.018056387,-0.0020502938,-0.004850661,-0.020374957,0.017985148,-0.0062817493,0.012769889,0.017929435,-0.0032856776,-0.016284209,0.008302409,-0.0015466042,0.014071612,-0.01636665,-0.0142283095,0.010926582,-0.009640759,-0.0014008075,-0.009116998,-0.0043508583,0.005725939,0.006514934,-0.009428224,0.011993784,0.008501875,0.016784985,0.004092859,0.009396935,0.012184178,-0.012843825,-0.00030089053,0.015429588,0.011262384,0.0060105943,0.007962671,0.0020065613,0.0026561697,0.018111292
RSM0022,0.041333783,-0.012144457,-0.0025845799,-0.005193367,-0.0064547136,-0.0050128065,0.0015577305,0.0009995314,-0.016532179,-0.0074415356,-0.031851616,0.01550338,0.0002353653,0.021646293,-0.016740149,-0.007204622,-0.0043382775,0.036206484,-0.00040332362,0.010493233,0.0072880224,0.017967932,0.02179642,0.003581119,-0.0047104703,-0.0123695675,0.0035215153,-0.0036202255,-0.029516006,-0.00817424,0.014657608,-0.012691106,0.022146251,0.02526888,0.008021714,-0.013517678,0.0044992454,0.025688795,-0.004463404,-0.008758637,-0.011348829,0.01267321,-0.005979603,0.014756927,-0.0070298626,-0.0070983754,0.0041924855,0.004494809,0.011596273,0.014517773,0.00025210244,0.025708212,0.01016188,0.031375278,-0.0038221779,-0.0030343304,0.019997917,-0.0004890848,-0.0137007795,-0.02357519,-4.1441377e-05,-0.0013788842,0.0045957724,0.009931654
RSM0023,0.0395956,-0.022752337,0.0011964533,0.014274142,-0.0023736998,-0.011385044,0.0049695284,0.018152965,-0.01667488,0.0061096153,-0.025394244,0.00097379315,0.006981669,0.018552277,-0.008968966,-0.00077196583,-0.021253666,0.031786326,0.0054192054,-0.0030478777,-0.00047420964,0.0055328645,0.029305048,-0.006997216,-0.020144437,-0.004563003,0.028773373,0.001265133,-0.022629553,-0.034122307,-0.0050521023,0.0054730116,0.012702794,0.011701333,0.010872216,0.011977807,0.0050333235,0.02082938,0.00465418,-0.012100543,-0.011051252,0.008996728,0.010378586,0.0043751374,-0.010468548,0.02033459,0.021872299,0.01753553,-0.007823826,0.016293313,-0.006967121,0.001341266,0.02426054,0.010019322,-0.005778868,0.014830731,0.005700712,0.00568431,0.0016030198,-0.012590807,-0.013554721,0.004983933,0.009810726,0.023537105
RSM0024,0.012738454,-0.014561989,-0.014816766,0.0031186147,-0.010915028,-0.006053527,0.0012211935,-0.008123107,0.008256844,0.012672155,-0.007766585,-0.013816914,-0.01115907,0.010008717,0.005336534,0.0050727823,0.000370251,-0.007932581,-0.015074945,0.0041410434,-0.0017561322,0.0049212906,0.010936011,0.0013510459,-0.015312749,-0.011019148,0.009387019,0.0105565535,-0.021724049,0.0049010734,0.0036844434,0.008620875,-0.008866511,-0.0011980721,-0.004540447,-0.00016262324,-0.008986414,0.0002610389,0.011516726,0.0035618392,-0.006877744,0.0040624863,-0.011580072,-0.013853055,-0.015724447,0.005923481,-0.0018774006,0.003932771,-0.00014691519,0.011887069,0.0074098026,-0.0031178945,0.008322318,0.009296033,-0.011439304,0.005896084,-0.009276633,0.01049164,0.0034481161,0.009556691,0.002571046,-0.014638043,0.0018008644,-0.0114536695
RSM0025,-0.0035255416,0.0032121376,-0.008104779,-0.013449864,-0.0077309636,-0.0042896224,0.0037115808,0.0006824052,0.0042100684,0.008671292,0.0056886594,0.008140562,-0.0132361,0.0065205456,0.007036835,0.0063135205,-0.01632724,-0.0039516706,0.005549567,0.016033262,0.012343605,-0.009186091,0.016050762,-0.007277904,0.008594541,0.0076497206,0.0050434554,0.0073031546,-0.0041716034,-0.0038624492,0.011405396,-0.0032995131,0.0010107043,0.0072747674,0.010003881,-0.0099126,-0.008050439,-0.009261292,-0.0072558457,-0.0016382758,0.010366131,0.013984607,-0.015694983,-0.0072635235,0.0095661,0.0031167113,0.0070709498,-0.011112876,-0.014005837,0.001044403,0.004898615,0.006226543,-0.012051935,-0.0052736225,0.003999719,-0.007005924,-0.0033332116,-0.011884166,-0.0067201112,-0.0046566026,0.013933177,0.0026623078,-0.002186257,-0.0016938479
RSM0026,-0.0028182114,-0.0053891465,-0.005675055,-0.010515886,-0.0018715339,-0.008729685,0.014832074,0.015013415,-0.0021344866,-0.011526467,0.007361111,0.0018108961,0.010791405,0.015662922,0.010360559,-0.014860876,0.009483742,0.0018994642,-0.00560694,-0.010890238,0.0052509815,-0.004941535,0.0032960856,0.008242434,-0.0109463725,0.013143742,-0.0057385676,0.015355769,0.0032730983,0.0069300337,-0.0013698254,0.0002728538,0.006690543,0.0022161729,-0.012392508,0.0060171336,-0.009009979,-0.00990849,0.00040536816,0.011481662,0.014716529,0.010218966,-0.00055635656,0.009666808,-0.013965734,-0.004107012,-0.0047963765,-0.012701416,-0.014513442,-0.002228462,0.008083346,-0.007639896,0.0035294106,-0.0018404436,0.009337634,-0.0012403309,-0.008921734,0.011724119,-0.0015477118,0.013416997,0.0055104652,0.00063450134,-0.0002925512,-0.01379489
RSM0027,-0.005632138,-0.0059775524,0.0074844463,0.00340721,0.0026993284,-0.0047337813,0.006830035,0.0132648805,0.005993988,-0.009352751,-0.011439463,0.0032264257,0.008927356,3.962616e-05,-0.005265457,-0.015782638,-0.014438558,0.014159893,-0.0015558569,0.0010458524,0.009491692,0.003028636,-0.006437265,0.010162017,-0.00470812,0.011772707,0.0029187857,-0.012697194,0.0136614945,0.012540359,-0.0017832429,-0.014442757,0.0059176115,-0.008821993,-0.0041677123,-0.00055748963,0.010422911,0.0066992827,-0.007948232,-0.0011856087,0.014691348,-0.013980311,-0.004003727,-0.014116314,0.008283899,0.014329856,-0.008081364,-0.0016872445,0.011967193,0.0039047548,-0.0027830107,0.015006809,-0.008979809,0.0010325994,-0.012156051,-0.01258679,0.011540245,0.0052342145,-0.0051412866,-0.0154931005,-0.0052217315,0.014435752,-0.014806675,0.01601841
RSM0030,-0.0058731833,-0.016499117,-0.0061924276,0.0037139163,0.0110042645,-0.01182302,-0.0022506407,0.0019316315,0.013367114,0.004615084,-0.0006937991,0.011589089,0.0044725896,0.014073542,-0.0034494835,-0.0058649513,0.005946137,0.0031928374,-0.009184257,-0.013458138,-0.01288273,-0.0062563354,-0.004971049,0.00046423933,0.0048088934,-0.0060901493,0.012014955,0.0072417883,-0.010452004,-0.017761935,0.01684612,-0.01204569,-0.00684823,0.0011337438,0.010708795,-0.008745967,-0.004403321,-0.010565575,0.006834389,-0.012069125,0.001767114,0.015147562,-0.008214968,-0.007694398,-0.0069144713,0.015538182,0.009992853,-0.0031426034,-0.0131031545,0.012854549,0.009874483,0.003187699,-0.006208353,-0.0017118433,0.0058278693,0.007304698,0.006690418,0.011430131,0.005459039,0.0027106227,0.009378384,0.011821546,0.014162237,0.005397184
RSM0031,-0.0004751203,-0.007407522,0.013599369,0.0051559317,0.00059224933,-0.011657483,0.013908655,-0.0030062983,-0.015078706,-0.010342449,-0.013055347,0.0111553315,0.004102828,0.007346829,0.00571082,0.0075247632,0.014510477,0.009023253,0.013253938,-0.0026609343,-0.0033961562,-0.004209787,0.008324637,-0.00044816636,-0.017040746,-0.0013159158,-0.0029384885,0.011466648,-0.016657429,-0.001800796,-0.010671638,0.013240409,0.0010131623,0.015546724,0.01024345,-0.011514901,-0.012753358,-0.0012763435,0.011539374,0.00877918,0.00026775492,-0.0023506451,0.0007910691,-0.006301937,-0.0037193005,0.0072290744,0.013397981,0.01673225,-0.011801268,0.01626919,-0.0015045835,0.015162698,0.0038061184,-0.002706092,-0.013277891,-0.008914975,0.0064088907,-0.013248148,0.0003923616,-0.016858347,-0.008602621,0.0016696078,0.0046568858,0.008187987
RSM0033,0.004488459,0.0030816798,0.009968395,-0.006917391,-0.015458988,-0.0034065188,0.0014872698,0.01610874,0.0116108265,-0.011025647,-0.0075999326,-0.002551181,0.014511671,0.01593983,-0.010215653,0.0028582334,-0.003964173,-0.008047268,-0.008187765,-0.014823228,0.009731651,0.015379881,-0.01164196,0.013457133,-0.008168593,-0.0054132594,0.0056822817,-0.0026598014,-0.016135974,0.008202086,-0.007590856,0.015159892,0.014652547,0.016248815,0.006715889,-0.014030607,-0.0026859094,-0.010184521,-0.007890181,-0.009099934,0.0081380885,0.008294716,0.0007578564,-0.015066081,-0.01598848,0.013026504,0.0044880463,-0.0007696729,-0.0019616368,0.009504833,-0.006363146,0.014251563,0.00039451694,0.0028637266,-0.00091447274,-0.012685193,-0.014391793,0.015023011,-0.009015129,0.011591321,0.01288372,-0.0024875442,0.012064972,0.006473526
RSM0035,0.031092722,-0.019328665,-0.004774407,0.005331534,-0.010114223,0.0024551935,0.009810385,0.0045706737,-0.014821068,-0.011401871,-0.017064337,-0.011186179,0.010774604,0.0042370316,-0.005394751,-0.0048232623,0.007953255,0.025363164,-0.0071448735,-0.010469473,0.008575373,0.0086745275,0.004723278,-0.0017050516,-0.018834127,-0.01796234,0.02255708,0.008771024,-0.010813751,-0.017871886,0.019881148,-0.0036282272,0.021344922,0.020295022,0.016291335,-0.012799335,0.00847684,0.011167692,-0.011440042,-0.01289163,-0.023630802,0.0039702523,0.0040792217,-0.0066758906,-0.0024746493,0.015789976,0.017458085,-0.0050959606,-0.0012270637,0.011623609,-0.0035390644,0.0076896567,0.004161379,0.015049227,0.0074565285,-0.0047323704,0.0063528456,0.018955838,-0.006738449,-0.006085264,0.0060553765,-0.013149702,-0.0043968465,-0.0032957518
RSM0036,0.048583437,-0.007067573,-0.009874761,0.010616286,0.0029862698,-0.00023716912,0.014984334,0.014786076,-0.0030945998,0.012070934,-0.013809624,0.01962451,-0.004954319,0.010255241,-0.014761711,-0.027159045,-0.00859808,0.012935543,-0.0086560985,-0.0015852635,0.0010951848,0.020909108,0.0011987915,0.01337321,-0.0010702558,0.011174069,0.008856475,0.00089042186,-0.019949326,-0.024733044,-0.004951451,-0.011759633,0.03149064,0.01866029,0.007609077,-0.017366206,-0.003209889,0.014159479,0.006097935,-0.0045918054,-0.018003223,0.0061040437,0.009134451,-0.010072042,-0.01487,-0.001870096,-0.0022647642,0.006530184,0.016885636,0.0141715435,0.0045082825,0.0054980805,0.031683017,0.013994261,-0.0015927684,0.009672513,0.018359317,0.026218167,-0.018057808,-0.011563673,-0.0019908373,0.0013181282,0.012638917,-0.0011135906
RSM0037,0.02750333,-0.006532223,0.00012114155,0.014018801,0.003270703,-0.022587221,-0.009272411,0.00979181,0.0028970453,0.0025296367,-0.009157202,0.013297402,0.006463671,0.015831508,-0.013128972,-0.021766309,-0.0063557965,0.009713286,-0.00575634,0.009645141,-0.0065313624,0.0033787088,0.024740333,0.011098423,-0.024025343,0.0010120701,0.020814396,-0.006314821,-0.028790975,-0.0062500546,0.015001539,0.015909985,0.024542615,0.015910376,0.0056138644,-0.009819923,-0.007036976,0.021844838,-0.0043837065,-0.026026832,-0.027913556,0.0028574402,0.0069070077,0.007046551,-0.020676637,0.009094341,-0.0019389845,0.005822281,-0.008457244,0.0075339964,-0.005157762,0.008348678,0.015178833,0.021134173,0.011007665,0.009877591,-0.00909851,0.000650913,0.011471117,-0.0009762234,-0.0044240886,0.0009313638,-0.009954615,0.015119259
RSM0038,0.024772145,0.0019404531,0.008202833,0.000431866,0.0037578202,-0.010946416,0.012288771,0.008543533,-0.0077527585,0.018610718,-0.03672743,0.0073376372,-0.00078467996,0.026756799,-0.014306747,-0.009475418,-0.0067986622,0.03521748,-0.0059003336,0.008377728,-0.008757549,0.0031784393,0.012193471,-0.002645558,-0.02639062,-0.0061175064,0.024270112,-0.0062465523,-0.047051787,-0.00024124223,-0.00061967445,0.0127870245,0.02793232,0.021144258,0.02065131,-0.012311799,0.011550738,0.029619073,0.008087453,-0.035171125,-0.025470011,-0.006774237,-0.013961008,-0.012531862,-0.0031683636,0.0022858658,0.004740453,0.011271577,0.0023731817,0.014111852,0.0075261756,0.026767816,0.00942222,0.028104808,-0.0036201323,-0.0014781521,-0.009779427,0.0063331933,-0.013641185,-0.013724689,-0.011777027,-0.013125972,-0.0044658533,0.011298276
RSM0039,0.024968332,-0.012027667,0.0010517604,0.0050656064,0.00365701,-0.0037052047,-0.0044258847,-0.0015018205,0.011220586,0.021351457,-0.012633957,0.018872872,-0.008374877,0.0023132453,0.007270353,-0.022521768,-0.011906646,0.01915395,0.014009975,0.0053412863,0.0032673748,-0.007267647,0.019788692,0.0067541613,-0.00930491,-0.014421435,0.010806552,-0.009883813,-0.017931322,-0.011432774,0.012469378,0.0036252602,0.031552967,0.021106042,0.020060929,0.0006084478,0.013022828,0.014766406,-0.00011187583,-0.021547353,-0.030248808,0.009753785,-0.0072186897,0.0070406576,-0.0093159545,0.023555331,0.006461078,-0.008296337,0.006883635,0.0034953386,0.00081728445,0.0009631875,0.012378935,0.00085996237,-0.00827947,0.01080431,0.0043633543,0.013491217,-0.011766829,-0.0036921024,-0.017477574,0.013060397,0.010736593,0.01299617
RSM0040,0.04250799,0.00090596307,-0.012544202,0.0053692474,0.018974936,-0.03038522,0.015817177,0.019500472,-0.016635258,0.019140836,-0.031046135,0.028031519,0.005921226,0.013512131,-0.012104686,-0.013531364,0.0012004855,0.039196476,0.012289759,0.0008254419,0.016449336,0.02582395,0.01710461,-0.0017318433,-0.031997103,0.0029904842,0.014063799,-0.015883213,-0.059070535,-0.031207956,0.026813358,0.014281989,0.032799277,0.018590998,0.011975622,-0.015048384,0.0019890917,0.057997115,0.0033125,-0.0361961,-0.038204696,-0.0037056166,-0.00894647,-0.011013541,-0.03235485,0.014950205,-0.0072744894,0.0001679215,-0.0020660916,0.031052053,0.0019344934,0.024303533,0.045679074,0.014704701,-0.006921868,-0.0064182435,0.008499651,0.03797689,-0.0058825486,-0.030811539,-0.014837268,-0.0003890797,-0.001779987,0.020649172
RSM0042,0.05619027,-0.016381303,-0.010604234,0.016290583,0.010971226,-0.020848732,0.018592203,0.014144519,-0.006422215,0.02115765,-0.029418282,0.028009625,-0.0020911351,0.014689412,-0.0093200775,-0.0072094076,3.7822356e-06,0.044546638,-0.008268742,0.024168575,0.00033999147,-0.0020703967,0.030658118,0.018052397,-0.0070501915,0.010979868,0.03190921,-0.013627462,-0.060493782,-0.014730304,0.0009678992,-0.00033762737,0.024757003,0.01429168,-0.0025535768,-0.0108383,-0.0029493165,0.043356266,-0.0032176967,-0.019936217,-0.033338107,0.018573731,-0.015833413,0.010715715,-0.013662032,-0.0012821198,-0.0025912314,-0.008282995,0.016182046,0.019442137,-0.0057267495,0.019619785,0.048002932,0.031302143,-0.012875721,0.016595598,0.017481599,0.02462172,-0.009278368,-0.03301665,-0.007015119,-0.012802992,-0.0053048423,0.006082186
RSM0043,0.058449972,-0.02328867,0.0020616376,0.015148079,0.0018597048,-0.024851505,-0.005617912,0.023703255,0.0053997426,0.01446511,-0.03526827,0.0027949712,0.007932302,0.009912896,-0.0048162015,-0.004654307,-0.023586594,0.05092098,-0.0036244157,0.015654903,0.011087001,0.00552184,0.03028121,0.0064508836,-0.03514276,0.007231691,0.041069627,0.008756734,-0.03623812,-0.011649285,-0.00052897463,-0.011228579,0.025066013,0.029265616,-0.005491557,-0.004349854,-0.0011997287,0.05378769,0.013011479,-0.038969327,-0.02930004,-0.011232726,-0.01258042,0.0058934577,-0.023763511,0.0144461915,0.004719322,-0.0044202833,-0.011317478,0.029391695,0.007166726,0.0070155514,0.049235646,0.0120642325,-0.0020235316,-0.00019026252,-0.003624868,0.031919282,-0.011811031,-0.022411965,-0.015405645,-0.007935345,0.012781303,0.017379232
RSM0044,0.04771658,-0.01525789,-0.0067580817,0.0062720324,0.014163083,-0.013560278,0.013880703,0.020056384,0.001128893,0.00795271,-0.02889737,0.0081920475,0.019075746,0.03376855,-0.021967268,-0.014001817,-0.01061569,0.040427074,-0.005986481,0.0046013473,0.016950794,0.010818155,0.03237552,0.017034834,-0.012727763,-0.0067552547,0.017615145,-0.00023165715,-0.033541296,-0.018155878,0.02296248,0.0191784,0.015270983,0.009660075,0.01262971,-0.009810416,-0.002981415,0.043763198,0.008344625,-0.02056419,-0.03245508,0.017814692,-0.017245641,-0.0018520093,-0.01783376,0.003106796,0.019224133,0.01595297,0.0020101,0.033654805,-0.0050743883,0.011748779,0.029017052,0.017255409,-0.016623946,0.009498337,0.022696173,0.031459834,0.007040118,-0.013379606,-0.018034324,0.0031438544,0.0026452192,0.008226186
RSM0045,0.037168957,0.005447197,0.007204487,0.001143875,0.016723858,-0.009044544,-0.002316725,0.0051639667,-0.014839685,-0.006767692,-0.03286525,0.022643553,0.015780473,0.03048684,-0.013924591,-0.012435812,0.0053064185,0.03275744,-0.0065157395,0.016821325,-0.0090965135,-0.0065913727,0.002589359,0.0095599815,-0.022896314,-0.016322553,0.027794346,0.0080158245,-0.03974433,-0.034314893,0.022937955,-0.0008616546,0.02474854,0.007941731,0.005108924,-0.003891361,0.00733864,0.04272998,-0.0051340056,-0.022797363,-0.01045253,0.016271874,-0.01692277,0.00031897367,-0.023292352,-0.0006433493,0.01280949,0.015208903,-0.010352076,0.03722587,0.011835386,0.015026767,0.02453359,0.036863614,-0.0079877,0.0078100907,0.0076361233,0.00449013,-0.0064101354,-0.021563,0.00894219,0.012226711,0.018673718,0.0063494532
RSM0046,0.055893302,-0.024108281,0.008463658,0.019803904,0.023539545,-0.011825056,0.012238856,0.008720628,0.011775868,0.016775168,-0.021703398,0.014489447,0.01849723,0.017246123,0.0021590192,-0.009281025,-0.006185498,0.023576302,0.013384696,-0.0046179118,-0.006522112,0.0053817336,0.022743816,0.013193111,-0.010993157,-0.014243506,0.029683422,0.00083992933,-0.038043834,-0.032681163,0.018965883,0.015010898,0.037554912,0.02527137,0.01582429,0.0035026197,0.014776738,0.045051035,0.00041355082,-0.039616343,-0.042020015,0.012138777,-0.016903644,0.006898078,-0.029066635,0.0016039026,0.019345514,0.012951256,0.012386083,0.03260075,-0.0103095425,0.0077021383,0.0223344,0.033809464,0.012975319,0.0010612438,0.0172825,0.028999105,0.0013471447,-0.031321354,0.010492615,-0.0033482849,0.012073891,-0.002329588
RSM0047,0.04771875,-0.02312482,-0.00935322,-0.0049720937,0.0079023065,-0.03064261,-0.0050353375,0.009577539,-0.0022717286,-0.007146909,-0.03924082,0.025665723,0.0053419233,0.03132224,-0.022618316,-0.017117854,-0.005209736,0.05885909,0.014873603,0.01677833,-0.0062925736,0.009397602,0.00950715,-0.0001448724,-0.035322662,0.009114358,0.03860845,0.008326574,-0.059966832,-0.018884512,0.020489862,0.014335302,0.02599353,0.0093565695,0.011982991,-0.016003992,-0.012074555,0.056795675,0.012932063,-0.028946333,-0.054018848,0.016734235,-0.013209658,-0.0025570465,-0.019305458,0.0047927364,0.0036814155,0.00516157,0.005554983,0.03996825,-0.017465131,0.03806494,0.030878266,0.0386472,-0.007409661,0.00531684,0.013226663,0.032340854,0.010606694,-0.0126096215,-0.00659124,0.012095726,0.016922276,0.027895236
RSM0048,0.041456815,-0.0030303507,-0.013770782,0.0034624469,0.024483675,-0.02737846,0.01631204,0.0053626113,-0.0014367916,0.0213286,-0.009931118,0.005439032,-0.0014750257,0.014452569,0.0005373936,-0.011126442,-0.02137739,0.04184925,0.011198377,0.005403175,0.009294529,0.009676635,0.0015031188,-0.0034094583,-0.008034097,-0.00050037587,0.03453383,-0.015943017,-0.025988294,-0.0043612556,0.006702089,0.008623834,0.030848645,0.008716077,0.0024139262,0.0076293987,-0.010382578,0.039039813,0.012117276,-0.0121242795,-0.028769625,0.010359247,-0.010153328,0.0073705986,-0.02163207,0.018326124,-0.0076377117,-0.0056614033,-0.0036771328,0.03168755,0.008113552,0.02437623,0.014021649,0.017924743,0.005984828,-0.0066942545,-0.0015081787,0.0061330604,-0.0053148773,-0.015680125,-0.0072530108,-0.015144197,-0.008260203,0.022462513
RSM0049,0.038387913,-0.0073524127,-0.009330287,0.014824225,0.019068997,-0.017396366,0.008618069,0.0036077392,-0.004696945,0.002524551,-0.024268268,0.0053615468,0.0034768751,0.011772779,0.0016246343,-0.0202959,-0.012606235,0.03886071,-0.009372214,-0.005110221,0.017986286,0.025576074,0.01221078,0.018175308,-0.034459285,0.012750644,0.027747447,-0.007957319,-0.03904383,-0.01781241,0.026519716,0.010608165,0.020350683,0.012590324,0.02006584,-0.01602125,0.006838193,0.030169206,-0.014824749,-0.016862562,-0.044802148,-0.0020929032,-0.00073297694,0.005140394,-0.008057653,0.011874367,-0.0070801117,0.0079319645,-0.004613707,0.019885648,0.000263934,0.021579294,0.046771042,0.011027095,-0.00793523,-0.0071482435,0.020308644,0.016097097,0.008979233,-0.017836599,-0.0044110334,0.00071781164,-0.012149308,0.020328294
RSM0051,0.04817336,0.0033056047,0.011241272,-0.0018776726,0.011426498,-0.021231897,0.006003983,-0.002083562,-0.0055344882,-0.0015638005,-0.019967914,0.000898527,0.0046524545,0.020477286,-0.016730279,-0.01512027,-0.020737905,0.03086335,0.0037412685,0.0026614976,0.001325744,0.014070931,0.016207399,0.0038980648,-0.0070033395,0.011077176,0.027935913,-0.015066095,-0.03041048,-0.016332973,0.015578871,0.011968241,0.024859186,0.018611154,0.0033081365,0.0046401257,-0.0028425227,0.03759827,-0.00560494,-0.008530988,-0.033844493,0.013910378,-0.012609664,-0.006762829,-0.01283334,0.022354223,0.009281189,-0.006405661,0.0122029735,0.03449603,0.0052986173,0.022057215,0.020695658,0.029935388,0.00095472543,0.016883293,0.01411612,0.012753415,0.006088341,-0.02822256,0.0041172784,-0.008781552,0.0076979585,0.023535067
RSM0052,0.0379224,-0.0016314858,0.011230936,0.0023359607,0.028922686,-0.033732835,-0.010106803,0.0019540766,0.0046142517,0.006983765,-0.03186239,0.006967747,0.018053092,0.034521565,-0.0051339297,-0.025862463,-0.024565384,0.029948208,-0.014291083,0.010876559,0.008683953,0.021378448,0.031104293,0.012845339,-0.00814477,-0.012031323,0.032638714,-0.018205049,-0.058321115,-0.008767606,0.0013566623,0.009619627,0.014659945,0.0045542363,0.0120271165,0.009983963,0.0026468998,0.0521143,-0.01032309,-0.014079794,-0.0326762,0.005249673,0.010022508,-0.0014786477,-0.030041667,0.009852671,0.0031610937,0.0021742906,-0.01275766,0.026684593,-0.0061668865,0.0138535835,0.022265283,0.028738575,-0.017784387,0.012973325,0.005451798,0.017093955,-0.00048994226,-0.0060106474,0.008194825,0.012037613,0.00825303,0.02019341
RSM0053,0.03920748,-0.017603053,-0.013952012,-0.003251689,0.024145758,-0.020774268,0.00047824436,-0.00231452,-0.0056512444,0.018247448,-0.031933118,0.016596869,0.005362463,0.019632125,-0.005634393,-0.010998825,-0.012238096,0.032718785,-0.0109367,0.018856172,0.001975144,0.017416729,0.032464597,0.022716807,-0.02902625,0.0027266683,0.01578054,0.0040166453,-0.037247296,-0.033307962,0.013230207,0.012093167,0.040066108,0.025215395,0.012983639,-0.0060608713,0.00039080728,0.039429266,0.011865577,-0.017884824,-0.017841032,-0.009710257,0.006082423,0.0050120596,-0.009619512,0.009056879,0.014446042,0.0038425666,0.0107681705,0.031178955,-0.016238121,0.02801163,0.029808369,0.028875547,0.0022863352,0.018300878,-0.0037745517,0.0060061156,-0.0075800614,-0.021988101,-0.007608991,0.0010002011,0.010929629,-0.0008305191
RSM0054,0.054553557,-0.010151044,0.015287371,-0.004467306,0.030847944,-0.023021365,-0.0062850374,-0.0023810894,-0.015011373,0.007842624,-0.04347646,0.008614132,-0.0028031236,0.007812324,-0.0021449956,-0.01764517,-0.0034767785,0.040659647,0.008406992,-0.0034524535,0.015428081,0.009679207,0.03111955,0.007685922,-0.029304702,0.008974933,0.019590845,-0.00011327924,-0.056595866,-0.020727709,0.012085354,-0.003396742,0.042811908,0.010158953,0.0018217199,-0.006612076,0.008331029,0.057969518,-0.012381578,-0.019889882,-0.040006623,0.0016750151,0.007157974,-0.0071892254,-0.016272692,0.020173658,0.01389158,0.014350904,-5.9455022e-05,0.018460907,-0.017249048,0.02909798,0.030080318,0.016907556,0.008942509,-0.0017980913,0.004065116,0.0198803,0.0115976995,-0.027166476,-0.017595634,0.0028820783,0.018428734,0.0060696327
RSM0055,0.05909606,-0.015972177,0.014365615,0.0023676837,0.0053601814,-0.026641138,0.012637119,0.0069150347,0.0098698465,0.013960094,-0.032127954,0.018603554,0.015539369,0.02515896,0.005611608,-0.014021466,-0.008573211,0.03569187,0.005912305,-0.0043390393,0.00083200174,0.0009834414,0.02650639,0.02267152,-0.0034343067,-0.011547403,0.017368682,-0.016197866,-0.052071862,-0.0115184905,0.016218852,0.009021719,0.03370521,0.021929394,0.013711511,-0.010084744,0.014265973,0.041354798,0.0034194544,-0.040221367,-0.023449806,0.012406982,0.011982704,0.0039279624,-0.028175576,0.023553036,0.014084802,0.0004195995,0.007005738,0.031173907,0.009736557,0.031943236,0.0260847,0.024264349,-0.0074955677,0.004356909,0.016843487,0.02299925,0.0062833107,-0.021043133,-0.0152273225,-0.008349926,-0.009158221,0.022977384
RSM0056,0.041637298,-0.0055268044,0.0024322583,0.008177102,0.030026086,-0.038430125,0.012219632,0.011745848,0.010470195,0.0039602946,-0.025722833,0.028905448,0.02086817,0.007184053,-0.01993908,-0.02214905,-0.025855346,0.048162147,0.0109422,-0.0055663344,0.019097,-0.0006889578,0.03503613,0.015810743,-0.031459246,-0.015492915,0.04376916,-0.001980265,-0.05965197,-0.03966403,0.022419507,0.011874143,0.04278929,0.0021657443,-0.0041020256,0.005359939,-0.006530429,0.045227643,-0.0076691466,-0.01623584,-0.037568055,0.011189824,-0.008871511,-0.006509898,-0.011205543,4.6998e-05,-0.005929503,-0.0059233555,-0.009996459,0.016914025,-0.016332451,0.01469545,0.045520578,0.011491706,-0.0029458771,-0.00027494773,0.0078075984,0.014805348,-0.011401376,-0.019216232,-0.008499754,-0.004114138,-0.0007505322,0.01792657
RSM0057,0.059977412,-0.021227289,0.006180502,0.011890943,0.007955106,-0.030951036,0.012342982,0.005873332,-0.007971895,0.017965375,-0.038789697,0.01760199,-0.0022854407,0.013550278,-0.015108096,-0.0037576419,-0.018792143,0.04022425,-0.010818489,0.009547452,-0.010023375,0.024248516,0.025841745,-0.0015092654,-0.014594524,-0.015965607,0.018068299,-0.0061185253,-0.05595624,-0.024233028,0.023049051,0.01291701,0.035425477,0.024416672,0.015584364,-0.001867808,-0.007731453,0.054734718,0.0061036614,-0.03352356,-0.02533756,-0.011326116,-0.012199605,-0.009939759,-0.026144393,0.009589684,0.017314585,0.005357021,-0.002671424,0.028769813,0.007597851,0.029542102,0.052549418,0.023746438,0.009546804,0.019156666,-0.0012509613,0.016918235,0.008873682,-0.018081827,-0.006446401,0.0038039256,0.0023563534,0.027647903
RSM0058,0.04893007,-0.016441967,-0.004760483,-0.0024263947,0.023210363,-0.021371825,0.015884874,0.00050674437,-0.0006686955,0.0025504322,-0.02503666,0.02705908,0.0056678057,0.016073216,-0.020279337,-0.015236404,-0.022458123,0.019698774,-0.015382159,-0.0069732578,-0.0073757754,0.025033664,0.024599327,0.021083763,-0.035220224,0.0016810688,0.027973678,-0.00829475,-0.037646424,-0.016330726,-0.0009207388,-0.0028923727,0.015318513,0.013206554,0.007105243,-0.007367475,-0.002941802,0.052592356,-0.008373397,-0.038359396,-0.041334625,-0.00017117475,-0.010036432,0.004503134,-0.029169936,0.012474885,-0.0018165108,-0.008763513,0.0031891386,0.037924066,-0.0010495126,0.0061675026,0.03943453,0.038302995,-0.016111882,0.0049383314,0.022626124,0.020891849,-0.0010922591,-0.03472426,-0.0029428555,0.012099453,0.0072778184,0.015895825
RSM0059,0.0430739,-0.021968758,0.009661525,-0.0030785718,0.025629861,-0.0134975165,-0.003980574,0.020555425,-0.00064087845,0.0073209233,-0.026432624,0.014534951,0.0064824726,0.008812674,-0.01071375,-0.028674392,-0.016044382,0.051798075,-0.0029572654,0.020559382,0.0112583265,-0.002026827,0.014313653,0.0020604774,-0.03475965,-0.0022251883,0.017094404,0.00806776,-0.04094398,-0.017604953,0.02695634,-0.0046213926,0.016766258,0.0067623425,0.013085761,-0.0014390239,-0.011799956,0.039860282,-0.0115079945,-0.032032214,-0.022434324,0.0002778726,-0.007440196,0.009242824,-0.021367261,0.01836915,0.016840994,-0.0064869425,0.016122298,0.022063622,0.0078056185,0.022213489,0.04434215,0.03856588,0.010058067,0.021124989,0.0034917784,0.03363535,-0.011310087,-0.012364452,-0.009090024,0.009073689,-0.012276447,-0.00034472803
RSM0060,0.05213187,-0.023764865,0.0068789064,0.01742614,0.0031354118,-0.025701223,0.0073638526,0.014270966,-0.0027825478,0.009087139,-0.016236372,0.028248822,0.020752156,0.019294096,0.0016877489,-0.010087583,-0.0012013724,0.029740471,-0.0011823237,0.013438078,-0.012044122,0.020790918,0.015262009,-0.0032585883,-0.02461775,-0.0110539105,0.027174547,0.0080707,-0.054401454,-0.0075199082,0.0035279791,0.01702979,0.020704078,0.0108103305,0.0108220875,0.007164429,-0.013167627,0.037886307,-0.014087119,-0.021263907,-0.03192468,-0.011781662,0.009762415,-0.010103467,-0.020758953,-0.0022943653,0.011869071,0.015560999,-0.0090033915,0.038656704,0.008822359,0.018183893,0.039905053,0.0132130785,-0.013456437,-0.0038242354,0.010573458,0.019675413,-0.012949003,-0.0077878414,0.0014327317,0.0003575567,-0.001181695,0.01585891
RSM0061,0.04347398,0.001319844,-0.0003581632,0.0070247194,0.027133515,-0.013758802,0.0176534,0.01581934,-0.0026340066,-0.0077610943,-0.008802582,0.014021054,0.020238055,0.007788955,-0.0134322,-0.015595175,-0.007981414,0.024922939,-0.009772355,-0.0012989374,-0.0011083476,0.0018258264,-0.0019789159,0.0123841185,-0.020136047,-0.012739361,0.009690104,0.009704601,-0.035301838,-0.0102601005,0.019701581,0.00097363134,0.026594624,0.013392401,0.017871657,-0.013027584,0.0029395162,0.045480482,-0.015377685,-0.019707605,-0.041693576,0.016482376,-0.003608196,-0.010320274,-0.009359565,0.0074489424,0.0023561835,0.011074634,-0.005181586,0.024697676,0.0025579704,0.024979128,0.02339919,0.02951169,0.00768815,-0.0001708136,0.019114083,0.0058631497,0.017022014,-0.022841292,-0.004395834,-0.010740838,-0.012445756,0.0014359627
RSM0062,0.047640968,0.0067737894,0.013590832,0.0043222606,0.012648583,-0.028012503,0.015259036,0.013538676,-0.008515026,-0.0029934177,-0.020743504,0.024689889,0.02000419,0.011465488,0.006426263,-0.027735563,-0.0019768595,0.027744649,-0.0047295126,0.023065494,0.007700965,0.011698195,0.030804701,0.0023745187,-0.01190692,0.0044586435,0.032988776,0.009131167,-0.043741666,-0.009703211,0.027131645,0.009904643,0.013973858,0.0006672941,0.01659493,-0.0031049128,0.01178725,0.031058874,0.012326372,-0.013907469,-0.020038623,-0.0072791697,0.007611532,0.010191106,-0.020861862,0.0054366128,0.0067986893,0.0158414,0.0076561286,0.018325977,0.0058848686,0.022894181,0.03177934,0.02243698,-0.007060761,-0.0052116187,0.010002639,0.028025126,0.013308332,-0.014732608,-0.017622508,0.00970791,0.011014466,0.002984431
RSM0063,0.05379215,0.0021643662,-0.0072304825,-0.002452027,0.0058232606,-0.01965321,0.009915863,-0.0013514443,-0.013665641,0.020567179,-0.026944255,0.02239646,0.009664126,0.003493862,-0.0014021614,-0.022932999,-0.026215838,0.034515236,-0.005875396,0.0014228752,-0.00797008,0.007255341,0.007980595,0.01862179,-0.036786534,0.0094902925,0.028303562,0.003057514,-0.046389468,-0.027358618,0.010728994,0.01503189,0.030925296,0.024559023,0.0008844859,-0.0006688373,0.0010634245,0.045394484,-0.011153925,-0.03281467,-0.038645525,0.00031464553,-0.0023097547,0.011008793,-0.01068552,0.00761374,0.017946057,-0.00806749,0.0025297927,0.029461816,-0.0020988192,0.010453643,0.04884288,0.017661335,-0.006845085,0.02170947,0.022537466,0.00950732,-0.0017239467,-0.0056883595,0.007581358,-0.0121328905,0.014117056,0.024760526
RSM0064,0.044911016,-0.024630738,0.014325949,0.022154527,0.0068436107,-0.038573958,0.016961955,0.019952489,0.008129436,-0.0010800972,-0.046715986,0.02056726,0.014079956,0.035535317,-0.005091188,-0.027335456,-0.004232425,0.031481165,-0.006319616,0.0028971694,-0.004767402,0.0019448288,0.019841041,0.013133349,-0.022391707,-0.0005455561,0.030276366,-0.0142388195,-0.03879777,-0.029043522,0.031662595,0.016214449,0.019036718,0.028246451,0.0033612358,-0.00093001773,0.00042945135,0.046163194,0.010926325,-0.017430019,-0.043014262,0.014470355,0.00041190942,-0.00014473393,-0.02911615,0.026546152,0.0072408384,0.015721975,0.00033327454,0.037496112,0.0013959367,0.019978981,0.045779496,0.026042955,-0.016693212,0.011284689,0.020888638,0.026785588,0.0025972936,-0.017887814,-0.01617639,-0.012887844,-0.010136764,-4.646839e-05
RSM0065,0.04847111,-0.024223415,0.0026612584,0.003500187,0.013467256,-0.033632744,-0.00045018064,0.009539665,-0.0092195505,0.00013058928,-0.032043688,0.003177631,0.0059210765,0.010300644,0.0043682246,-0.015236435,-0.024938226,0.039312415,0.012877481,-0.0039817193,-0.0031665969,0.004807558,0.01719081,0.026455173,-0.022521118,0.011787746,0.040308207,0.00012199077,-0.059748817,-0.03136929,0.0022343858,0.0015438152,0.021691497,0.015323327,0.008495393,-0.015972177,-0.013201755,0.058381043,0.0058740745,-0.036354262,-0.04126786,-0.00890678,0.0040146764,-0.007308739,-0.025213897,0.022788506,-0.0032342367,0.004239734,-0.013124568,0.019917354,-0.003369238,0.010316178,0.045121916,0.029772649,0.005301017,0.004833152,0.0028488194,0.021728573,-0.012052466,-0.029697351,-0.010275509,0.005916184,0.005686724,0.01342892
RSM0067,0.069963284,-0.019768346,-0.013857406,0.010123619,0.010730256,-0.026440166,0.014751486,-0.0031704286,0.00013131107,0.02208997,-0.05019731,0.031763375,-0.003501891,0.033170637,-0.009109256,-0.02916131,-0.0027641484,0.03432265,-0.0022889692,0.00583152,0.004070164,0.009707148,0.02457591,-0.0027197246,-0.024849372,0.008200345,0.02417319,-0.0026677283,-0.06366248,-0.020147514,0.01888807,0.0053056167,0.033081297,0.022217227,0.008706925,0.002553632,-0.011126926,0.058216516,0.008487005,-0.024672726,-0.029317394,0.001481206,0.011949649,0.0026822805,-0.021446887,0.022498088,-0.006680412,0.017085405,0.01014986,0.021009564,-0.01556988,0.02478327,0.035172462,0.025141917,-0.016926909,0.008198035,0.013893245,0.02096074,-0.00424463,-0.032442175,0.0010743589,-0.004352995,-0.011085809,0.026016053
RSM0068,0.056042314,-0.0073967422,0.0010768428,-0.007472866,0.0050570783,-0.014079367,-0.0011278832,0.02577532,-0.011334336,0.020569775,-0.024877477,0.02159184,0.013108408,0.027847774,-0.0029713085,-0.015550579,-0.006015249,0.034691684,0.0006178858,0.016591826,-0.0030212197,0.0193446,0.02597606,0.0132175395,-0.021191142,0.007079069,0.017582376,0.0012896532,-0.06752844,-0.033663508,0.010356609,-0.010974446,0.01515775,0.0060758092,0.0157922,-0.016663492,-0.0029643017,0.054238163,0.009413725,-0.01969416,-0.043564864,0.00013401185,-0.016385471,-0.012399937,-0.023659242,0.02884204,0.024068963,-0.006330971,0.016502526,0.02791276,-0.001969509,0.008822892,0.05303327,0.02281208,-0.004421342,0.012288078,0.001444888,0.038449634,-0.0068848846,-0.02725833,-0.018661084,-0.008635544,-0.0033395065,0.013953915
RSM0069,0.06502529,-0.0037551858,0.01225223,0.02286541,0.00958566,-0.014154504,-0.0032928032,0.023206051,0.0033443226,0.0049453774,-0.052066516,0.027920019,0.011767603,0.025879448,-0.013247811,-0.030786846,-0.012307357,0.03316437,-0.006252735,0.017018091,0.0036210928,0.018889574,0.01571075,0.009539191,-0.039477207,-0.016230268,0.04632639,0.0012507674,-0.06352982,-0.015120039,0.026688173,-0.00500679,0.024625989,0.009072623,0.021340756,0.0062460303,0.0025080552,0.048249077,-0.016767252,-0.034122627,-0.03424392,0.007719109,-0.009868314,0.00078610226,-0.02612449,0.020806339,0.013265932,-0.009342146,0.015495681,0.02978474,-0.016971083,0.036530793,0.0365794,0.026887365,-0.0059786392,0.017673314,0.017581016,0.027109295,-0.014245568,-0.0105698565,-0.008788414,-0.01585055,0.0033062794,0.006253076
RSM0072,0.046715148,0.0015872326,-0.0054710465,0.012977967,0.010144576,-0.015077207,0.013559582,-0.00063442765,-0.008619789,-0.006043196,-0.045279544,0.0131796645,0.01930197,0.014534902,-0.012009707,-0.016051013,-0.013203456,0.040015236,0.014327574,0.0014358143,-0.0014372296,0.021160772,0.007989977,-0.0043811607,-0.023678798,-0.01744316,0.036619097,0.0028556339,-0.032969557,-0.019657657,0.018869642,0.0122071905,0.016739205,0.027802981,0.00059734134,0.0012769793,-0.015457883,0.030659646,0.001146004,-0.02846615,-0.034074057,0.00055497827,0.0040513673,0.011265831,-0.015816413,-0.0012559432,5.9876482e-05,0.019057423,0.01123442,0.032903563,0.0058700354,0.015676204,0.025437038,0.017971113,0.0075249565,0.0131327165,-0.00215446,0.025236648,-0.00014562097,-0.018023439,-0.01731564,-0.0028482985,0.0007555671,0.015063961
RSM0073,0.056338202,-0.008056519,-0.0054733017,0.02232986,0.017458083,-0.016850354,0.018261021,0.023978055,-0.014653572,0.01823246,-0.04809394,0.018058313,0.020889241,0.019561013,-0.010704423,-0.009242418,-0.011414538,0.0456019,-0.0058083823,0.014982413,0.016347766,0.024495123,0.021896161,0.021128355,-0.011327102,0.007649976,0.033199538,-0.0075500775,-0.051770456,-0.031309936,0.026496649,0.013595753,0.025115903,0.021552298,0.02264929,-0.018461697,-0.011564359,0.06113111,0.006370265,-0.044028893,-0.02489961,-0.005343321,-0.00945266,-0.0006828303,-0.018888546,0.009932623,0.022911688,-0.008002427,0.016796175,0.042028047,0.00887511,0.029365486,0.044861905,0.013988377,0.009711421,0.018895434,0.003176022,0.013111179,0.00977304,-0.013560652,-0.010697153,-0.007906993,-0.0057751993,0.02096316
RSM0075,0.052911922,-0.00646248,0.013208349,-8.360682e-05,0.010880324,-0.035106804,0.00651804,0.005676235,-0.005469761,0.023931876,-0.02928809,0.009148997,0.009884001,0.0039418177,-0.0148326885,-0.011308685,0.0031091345,0.033353504,-0.01423693,0.0085739475,-0.0050135814,0.026017092,0.024974674,0.007415979,-0.021207118,-0.0068909065,0.02838891,-0.0040892144,-0.041990582,-0.009077837,0.0071816575,0.0159349,0.0127273705,-0.0016001457,0.014981131,0.0011383052,-0.008113093,0.04965007,-0.004200355,-0.03538586,-0.042803664,0.0147540625,0.0127637815,-0.008096487,-0.0038514533,0.0076246653,-0.007178221,-0.0064614224,0.0058793947,0.039067388,0.00010895541,0.01926831,0.029720917,0.01509933,-0.018676203,0.004823592,0.02245377,0.025037786,-0.00063425984,-0.010190085,-0.0044685835,-0.011058361,0.008779952,-0.000945824
RSM0076,0.04185477,-0.002635021,0.015629232,0.018807588,0.0071952255,-0.024200257,-0.005713755,-0.0030173464,-0.016138198,0.0051225736,-0.022333398,0.008386465,0.0025252353,0.024858782,-0.012911272,-0.004035334,-0.014851734,0.041138824,-0.013767124,-0.0050616735,0.003142447,0.012884432,0.018049715,0.01621216,-0.030959303,0.0019460743,0.029564682,-0.012937735,-0.042659737,-0.015707616,0.02643242,-0.0018816936,0.019397939,0.0011046922,0.007456974,-0.0015769321,-0.0038173834,0.03694499,-0.0057611302,-0.04049198,-0.048679724,0.008715245,0.0025814725,0.0044425796,-0.024013357,0.024440335,0.0064241965,0.0039031857,-0.004539736,0.013997171,-0.017104672,0.033099815,0.025797071,0.011585635,-0.0014746448,-0.0054723513,0.0054008905,0.024944652,0.010589724,-0.032581918,-0.01786982,-0.003279711,0.008884242,0.02316035
RSM0077,0.036370102,-0.002918902,0.0057066837,0.012289618,0.025053088,-0.019555127,-0.0029417158,0.010443092,-0.010131982,0.013689794,-0.030413974,0.01246622,0.011346931,0.017200423,-0.022122039,-0.030592633,-0.015512635,0.03170099,-0.0033218355,0.013683388,0.007328629,0.013038105,0.027287975,-0.0009185991,-0.024141757,0.011374176,0.040348727,0.0018939717,-0.03582073,-0.015475885,0.02022753,0.0024714165,0.02840055,0.0036153472,0.0043109343,0.0020192587,-0.011941439,0.042075124,-0.014121062,-0.029516313,-0.033475883,0.018673193,0.00056426896,-0.008926394,-0.012394976,0.021250682,0.014380403,0.002968718,0.016832214,0.030689936,-0.020213855,0.004033621,0.026915494,0.024429256,-0.011235331,0.013875744,0.0038950152,0.010482165,0.014535259,-0.004830101,0.004436711,0.014604877,0.017958142,-0.0005116409
RSM0078,0.06084867,-0.029276218,0.008870271,0.009556248,0.009625305,-0.030793423,0.006737963,0.017095761,-0.011410889,-0.005726032,-0.039817084,0.017051777,0.015882121,0.03812503,-0.0019835827,-0.021818612,-0.016019061,0.037553836,0.0105945105,0.0025243652,0.0016057364,0.002198993,0.013618283,-0.0019459436,-0.033825442,0.0032429688,0.045622185,-0.020023895,-0.044464756,-0.028236086,0.021066386,0.020132445,0.022600697,0.0051446925,0.025592158,-0.007616041,0.0027310187,0.038568694,-0.0057274313,-0.039674588,-0.040730964,0.008019293,-0.006476906,-0.011694054,-0.01314211,0.016269013,0.004780178,-0.00470358,0.010407945,0.04377323,0.006830995,0.03611988,0.029680379,0.022330934,0.00456519,-0.0058621094,0.01812908,0.029696478,0.0070097353,-0.032008555,-0.017046554,0.011508488,0.019904703,0.030387277
RSM0079,0.053394057,-0.028208498,0.009313675,-0.000264684,0.010514836,-0.0078103202,0.009940586,0.008075357,-0.017161455,0.0135814175,-0.023828847,0.01294287,0.010582654,0.019816777,-0.016674012,-0.030633612,0.00081801007,0.028449226,-0.014082856,0.019005347,0.009273708,0.008767342,0.023634613,-0.0042153234,-0.0058939625,0.0007864649,0.03645125,-0.019083083,-0.065516524,-0.023386987,0.0074604503,0.0004420931,0.0275841,0.023234906,-0.0009838697,-0.01163857,-0.015305826,0.044337895,0.005061503,-0.025317889,-0.027817603,-0.0074150767,-0.007514925,-0.0017298284,-0.011041533,0.009744089,0.0021554693,-0.0046712547,0.012486257,0.037792675,-0.016703278,0.026953712,0.052753508,0.043073732,0.0026001856,0.015144558,-0.0015706747,0.015343368,0.006366752,-0.035858586,-0.02023887,-0.011161053,0.017538559,0.012377793
RSM0080,0.041635316,-0.021981176,-0.0090525495,-0.008119482,0.025844585,-0.037224885,0.009442251,0.021450264,-0.0026883173,0.006507507,-0.022309298,0.0302518,-0.00096749805,0.035888724,-0.02226276,-0.0083505595,-0.016213479,0.035398755,0.014885868,-0.0020340758,-0.0013960567,0.016936708,0.026785731,0.016830368,-0.024875877,0.002276611,0.04609821,-0.0066650845,-0.059707854,-0.016908687,0.0056387237,0.0051694238,0.019970613,0.03214372,-0.0020945275,-0.0041594,0.011177583,0.033149023,0.01090358,-0.035751056,-0.042542975,-0.0069397753,-0.015538864,-0.014442504,-0.022068927,0.018372009,-0.0034511911,0.0091583505,0.008192861,0.041809026,0.008361141,0.008116675,0.051069174,0.015546738,-0.004635331,0.0055654994,-0.0042347424,0.013817467,0.010926894,-0.025910366,-0.016066138,-0.0054632802,-0.008922125,0.012570208
RSM0081,0.06486359,-0.009394235,-0.011486197,0.01515872,0.0048966473,-0.03877131,0.013682056,0.014633382,-0.0077103875,0.0107853385,-0.03076364,0.004383098,0.025368558,0.014502964,0.0004447167,-0.026471196,-0.019834332,0.037130218,-0.005333926,0.023773532,0.014819518,-0.0027019551,0.010720351,0.006427065,-0.012514022,-0.013575233,0.026689945,-0.003974505,-0.06871589,-0.016377097,0.0038684588,-0.0042914506,0.015841335,0.0029373663,0.021869464,-0.016773915,-0.0012933956,0.062408682,-0.0051861694,-0.04249859,-0.03428974,-0.008618676,-0.014445003,0.008547067,-0.027110739,0.008218105,0.0044570584,-0.0015859911,0.015976967,0.032846093,-0.015935779,0.008680837,0.04316428,0.012526683,-0.013425248,0.004749878,0.018092914,0.041492388,-0.008918876,-0.03688327,0.00013677527,-0.010879701,-0.0010595107,0.029698215
RSM0083,0.074221306,-0.019086378,-0.0034799844,0.016583413,0.01359091,-0.039274298,-0.00038041323,0.012988826,0.0011412405,0.0013675445,-0.03919566,0.0040964643,0.0005930596,0.029362494,-0.004055873,-0.025935223,-0.0154117085,0.060223967,0.0025293252,-0.0031186566,0.013195097,0.028495777,0.018170161,0.009923429,-0.036206886,-0.01845266,0.02416711,-0.013158087,-0.059493683,-0.040442,0.0113109,-0.009603055,0.022391364,0.0051611313,0.01865134,-0.013961745,-0.00014405369,0.064220354,-0.014028939,-0.04261472,-0.02606295,0.0065504303,-0.014491239,-0.0010732949,-0.020740127,0.0069125057,0.02481685,0.011568515,0.0122824805,0.025614735,-0.008706285,0.027366199,0.05995188,0.03005957,-0.0095135765,-0.0073516537,0.009314293,0.029031897,-0.009071761,-0.016006213,-0.00789737,-0.015213368,0.0195386,0.029010233
RSM0084,0.07866714,-0.0014992686,-0.0130618,0.010173506,0.022981666,-0.04394534,0.016694518,0.0009772098,0.010218422,0.020924399,-0.047068227,0.009795424,0.010714389,0.041073505,-0.011756524,-0.0264234,-0.009013743,0.05059885,0.0051397886,0.019102823,-7.240296e-05,0.009485138,0.03708866,0.014607532,-0.026444865,-0.00207521,0.023600908,0.0034783217,-0.072463594,-0.041755505,0.019640002,0.014637653,0.033458374,0.01245707,0.028351257,0.0061686826,0.013524137,0.063985944,-0.013326668,-0.03999504,-0.053260848,-0.0063447673,0.008516146,0.00316456,-0.041816432,0.007537884,0.01445373,0.008284749,0.007756501,0.05335003,-0.013657733,0.026351912,0.043787267,0.025145644,-0.013885605,0.016422719,0.023549592,0.02793123,0.0042115,-0.028515145,-0.011377254,0.006001559,-0.0036205635,0.0066089304
RSM0085,0.0615926,0.002145102,-0.00086694484,0.0061088083,0.027288152,-0.033103783,0.01419641,0.0012877131,0.006639149,0.0038663612,-0.043761287,0.027905984,0.011127278,0.027878478,-0.022440534,-0.009009803,-0.026332462,0.04665619,-0.0065388563,0.011245101,-0.011769467,0.018826118,0.027200269,-0.0024415608,-0.02264939,-0.012399841,0.022054704,0.0011434663,-0.07102894,-0.032333497,0.0027762179,0.008253428,0.039561007,0.012465338,0.00410823,-0.0032218914,-0.0049757585,0.05319718,-0.002798087,-0.026478656,-0.048168443,-0.0058557703,0.008314962,-0.013707946,-0.025674202,0.012585961,-0.0053721624,-0.0024967208,0.00095524144,0.04621654,-0.004773341,0.021146638,0.040899448,0.040050786,0.0019772595,-0.0011572657,0.016702844,0.03012457,0.012440485,-0.03725118,-0.02139543,-0.011017622,0.008063366,0.0050824154
RSM0086,0.057875153,-0.02276188,-0.0040094093,0.020743554,0.0026757137,-0.032757685,0.0012568942,0.010375236,-0.008211099,-0.00265054,-0.019931417,0.022404859,0.018560592,0.006399573,0.0024129613,-0.017887678,0.0035118675,0.030946972,-0.0074324664,-0.0058262106,-0.0021920896,0.0059363926,0.029669035,0.0019387688,-0.017569138,-0.01657436,0.019489828,-0.010132291,-0.043257866,-0.033903904,0.0255202,-0.0038966895,0.012609794,0.014316098,-0.0015012702,0.0052703703,-0.0044966256,0.03531102,-0.016318444,-0.039469343,-0.032768916,0.01568758,-0.0019520334,0.0012674812,-0.02051803,0.024154259,-0.0057802205,-0.001246055,0.01406982,0.031982202,-0.0025765256,0.009645084,0.039080177,0.017274292,0.0077248076,0.013965906,0.008776998,0.011598537,0.005939847,-0.028627241,0.008039579,0.0008791775,-0.01091955,0.01856582
RSM0087,0.048656784,-0.0089103095,0.0152892815,0.013882394,0.0012738754,-0.02926996,-0.0026856912,0.017840503,0.004494728,-0.005280564,-0.042955726,0.0021450836,0.019177703,0.010467576,0.00020407015,-0.03283823,0.005608104,0.038692694,0.011344879,-0.001777171,0.015622271,0.022497067,0.012134907,0.0077195065,-0.018896166,-0.012574905,0.0139168175,-0.014539438,-0.04614148,-0.013406518,0.010590047,0.009333127,0.01680848,0.0058179875,-0.0012011728,-0.0077618062,0.0072869747,0.032414243,-0.004100363,-0.030094389,-0.025345767,0.011463865,0.0050183856,0.013314052,-0.023288446,0.011348856,0.013245169,0.009225104,-0.0016440235,0.038589746,0.010157913,0.018428478,0.041889302,0.0100103915,-0.00799626,0.01332914,-0.0042672143,0.03625398,-0.007193698,-0.0055378317,-0.010783421,0.009919237,0.0113239745,0.0037552076
RSM0088,0.05704622,-0.0059255743,-0.0048537706,-0.004192532,0.020705087,-0.037027404,0.0037857261,0.0023238352,0.00414086,0.01650049,-0.042620208,0.013841432,0.020583663,0.03121589,0.005462512,-0.017319249,-0.0017392649,0.041208968,-0.003664356,0.0019972543,-0.008663381,0.021203492,0.015787616,0.0070020524,-0.027652564,-0.012671418,0.035875738,-0.010642211,-0.03540743,-0.0183878,0.029158833,0.004143885,0.028157208,-0.0015257224,0.014902142,0.00072815595,-0.005708584,0.036239725,0.00066679955,-0.043882366,-0.02943518,-0.0034799469,-0.017857663,-0.0045097037,-0.010055644,0.026009323,0.015706925,0.0069080396,-0.005339036,0.03962351,-0.0011295374,0.02351328,0.022889754,0.008439694,0.003585187,-0.007581668,0.016309146,0.018588223,-0.004837175,-0.015646834,-0.0033737835,0.008116422,-0.012306204,0.008972718
RSM0089,0.05380668,-0.015004103,0.010188562,-0.0055327737,0.014235324,-0.021316348,0.011224684,0.01712304,-0.011023192,-0.0054702163,-0.044237494,0.020899648,-0.00037268363,0.010461653,-0.003312681,-0.013265788,-0.00032865023,0.050412335,0.0068244776,-0.0053173676,-0.008218542,0.027771482,0.02909255,0.007028186,-0.029880704,0.0055060103,0.0365423,0.004562206,-0.055114783,-0.021346008,0.020206297,0.0019542398,0.018759672,0.0015534279,0.010741148,-0.01760667,0.0020470684,0.036771927,-0.013099199,-0.037245493,-0.026104331,-0.00096431246,-0.0024980633,0.012440474,-0.029662155,0.020148765,-0.0025221328,-0.0018701587,0.009565675,0.03940285,-0.013782375,0.0323462,0.027741607,0.02606035,0.007258763,0.0031011812,0.004895908,0.025771989,-0.0053818403,-0.027773185,0.00826342,0.008984073,0.005819516,0.03012672
RSM0090,0.06891379,0.0009246788,-0.0056801466,0.0053594457,0.022276135,-0.035976067,0.022313034,0.008065503,0.0068471823,-0.005859527,-0.047128282,0.021218635,0.026532592,0.013121168,-0.012680588,-0.029221375,-0.01433261,0.048047952,0.006193279,0.017475251,-0.007918764,-0.00017192904,0.024526846,0.018870955,-0.024913892,-0.01575515,0.040846203,-0.009185462,-0.047914714,-0.037314393,0.008353067,0.016791862,0.037580416,0.01808298,0.00775352,-0.00051856274,0.0048378594,0.03454624,-0.00733654,-0.019400941,-0.050232697,0.0037366846,-0.016144611,-0.00362058,-0.015797878,0.0049173394,0.018474797,0.01149741,0.012295591,0.042996418,0.001948228,0.025566125,0.04406313,0.042198244,-0.0013194663,0.014308927,0.009383557,0.019084148,0.0017964912,-0.026769774,-0.0043603443,-0.014192571,8.822544e-05,0.028169522
RSM0092,0.03208794,-0.010029287,-0.0013210535,0.015889885,0.014204524,-0.025680363,0.004852619,0.0018267883,0.00072601216,0.009138009,-0.01761443,0.0070409058,0.008371463,0.012556625,-0.0068974835,-0.021063078,0.0063770707,0.047077134,0.007690063,0.019868916,-0.012051514,0.011056243,0.0057744575,0.010354259,-0.030153833,-0.015378974,0.01784752,0.009505717,-0.051485233,-0.037846785,0.027040565,0.011707676,0.021492299,0.028654708,0.015259957,0.0046234634,-0.004445524,0.024460971,0.0105260415,-0.031038916,-0.024323454,-0.0048263087,-0.014435068,0.0052449405,-0.02574515,-0.0019239708,0.017860668,0.008827662,-0.002027891,0.040472902,-0.013488361,0.027881244,0.027251855,0.02946833,0.004798293,-0.0070170634,-0.0049224454,0.011316687,-0.00509261,-0.014224049,-0.019858725,-0.0018481638,0.00061273214,0.009185352
RSM0093,0.05589653,-0.021135714,0.0035018555,0.022657542,0.028195895,-0.02094449,0.0020779879,0.011827094,-8.664605e-05,0.0058377073,-0.029779714,0.01459058,0.00387791,0.014627891,-0.0036146855,-0.0075626723,-0.011264001,0.054267853,-0.007707531,0.021979526,0.018508969,0.02643782,0.010389718,0.02059867,-0.031492017,-0.0035046902,0.0325965,-0.009020548,-0.051772203,-0.033973746,0.0009412994,0.009116525,0.017309401,0.014328223,0.00739886,-0.0010758961,-0.007127513,0.045634475,0.001821727,-0.025717309,-0.046807304,0.0012298172,-0.008420888,0.011021159,-0.007828674,0.029508095,0.025104288,0.0058170795,-0.0021450545,0.04671747,-0.0115974825,0.038120642,0.033342797,0.015843544,-0.017338142,0.016126445,0.020286532,0.023291176,-0.011227545,-0.010407962,-0.020422935,-0.0071980744,-0.003006508,0.006865254
RSM0094,0.06326213,-0.0108431475,-0.014233779,0.008285352,0.026062863,-0.028051617,-0.003065504,0.003042638,-0.0012670867,-0.0019281586,-0.049321868,0.0072461134,0.004292085,0.014089668,-0.019976534,-0.008434755,0.0012337094,0.04147861,-0.015374478,0.025477923,0.002489504,0.000908943,0.027842898,0.010061256,-0.025881082,-0.0033383523,0.03764501,-0.0146978265,-0.050333854,-0.02417237,0.034897596,0.00636718,0.047026493,0.012216211,0.02771544,-0.0069529815,0.005338765,0.0617925,0.009050247,-0.025386298,-0.05028342,0.016861506,-0.015484845,0.0015393508,-0.014180445,0.027089883,0.011570959,0.010982895,0.012830577,0.02633933,0.008087356,0.03924815,0.04932045,0.038771752,-0.012384098,-0.0046821455,-0.0007405237,0.03735342,0.0032774855,-0.025331888,-0.017703345,-0.002746535,-0.0006254413,0.0037669304
RSM0096,0.054863326,0.0015933564,0.012049252,0.0064568333,0.0022685234,-0.011734122,0.009911192,0.010975241,-0.014527212,0.0017753812,-0.027412718,0.024482248,0.0041236887,0.014891931,-0.0275602,-0.012000688,-0.0015020708,0.028473312,-0.008612954,-0.0033743635,0.017477114,0.021290189,0.033109542,0.0074855364,-0.021190185,0.009488068,0.037570484,-0.007144271,-0.07050417,-0.037942573,0.020198757,0.008586278,0.022684712,0.020573994,0.014377255,-0.016442169,0.007393737,0.05534592,-0.015934862,-0.04477537,-0.04391636,-0.005161084,-0.0153071685,0.01378005,-0.03755311,0.011994202,0.019077584,0.0077841203,-0.002501958,0.03322538,-0.018613921,0.011873221,0.02679178,0.019470252,-0.008722243,0.0047032842,0.0127790375,0.03197943,0.006913518,-0.018246746,-0.019169938,0.0033709314,-0.0021958847,0.011521693
RSM0097,0.04675986,-0.02574924,0.009208051,0.019239116,0.006569525,-0.02211367,0.009743308,-0.0026095107,0.0030389146,0.0023336723,-0.05222113,0.01684442,0.021878997,0.01005614,-0.0022727796,-0.015025978,0.0028379757,0.04082633,-0.009922181,-0.005282197,-0.00861516,0.0077467323,0.03667043,0.008767516,-0.020215845,-0.0052363398,0.01792736,-0.013370953,-0.06468235,-0.038125228,0.01139553,-0.008866399,0.02297675,0.02906621,0.020516139,-0.017219922,0.006114506,0.05734697,0.0023076287,-0.03768779,-0.048665483,-0.01185597,-0.009920991,0.014792417,-0.009453213,0.0002297442,-0.0008131948,0.0047698184,-0.009038637,0.02444067,-0.019652776,0.03630664,0.049196497,0.02258179,0.010098642,0.022140572,0.024486696,0.013231528,0.009583669,-0.015734505,0.0040126243,-0.0053355386,0.012788035,0.018936547
RSM0098,0.05074834,-0.015522364,0.007172063,0.015458098,0.023138346,-0.009422267,0.0030053614,0.016199568,-0.0066156834,0.023982871,-0.038335454,0.03165952,0.0076860096,0.007572131,-0.007894495,-0.023840861,-0.018242393,0.040346794,-0.002600942,0.016414275,-0.0026699663,0.018958589,0.024308011,0.004961387,-0.013176098,0.0021253843,0.040258504,-0.012459401,-0.042270944,-0.032145787,0.022466833,0.0015034429,0.041092146,0.022924667,0.0018276032,-0.010363767,-0.013957976,0.055555217,-0.014312255,-0.03329177,-0.043231353,-0.011455015,-0.016009541,0.0028063676,-0.028108234,0.025613569,0.0028770703,-0.0093358345,0.0025442545,0.03750653,-0.009308449,0.017484432,0.0270443,0.01678621,-0.0059976596,0.0035081294,0.015560375,0.039562337,0.016576456,-0.032063853,-0.0023015677,-0.012755565,0.01630659,0.027700335
RSM0100,0.05833115,-0.024060613,0.015793908,0.0062717427,0.013479175,-0.0288861,0.012507053,0.0009143142,-0.0053088795,0.0023342266,-0.018014899,0.011448086,-0.005616462,0.009451257,0.004063281,-0.02542647,-0.022312585,0.020637676,-0.008568234,-0.006304512,-0.006126223,0.014624765,0.028294269,-0.001046533,-0.03154515,0.006936009,0.02505058,-0.007551228,-0.054278996,-0.01144025,0.028518777,0.0036286875,0.036901977,0.024100704,0.016696602,0.006406405,0.0075103226,0.052149925,0.006919698,-0.015025893,-0.04258814,-0.0005586419,0.007362411,0.007897807,-0.02828083,0.0025363658,-0.005212729,-0.005331125,-0.014149132,0.032683473,-0.017392023,0.006934721,0.047912527,0.028021026,-0.009282824,0.0016002923,0.01504337,0.012482211,0.0029854584,-0.010297524,-0.014404384,0.0030812789,0.004258824,0.008451649
RSM0104,0.06654083,-0.026378274,-0.0035855835,0.017268298,0.004012041,-0.01355698,0.01179563,-0.0038622604,-0.011058506,0.0040630572,-0.048229758,0.03176067,0.0044902307,0.028234983,-0.023107082,-0.027281439,-0.017362114,0.029086344,-0.0031702581,0.02487557,0.0049000583,0.017276935,0.025153775,0.01714501,-0.031011933,-0.017181983,0.03875755,0.003433525,-0.070250586,-0.014671299,0.02274125,0.010282026,0.03903162,0.013774976,0.01912778,-0.005503271,0.011940767,0.06593823,0.010394805,-0.039990675,-0.034184486,0.00076185074,-0.007874511,-0.012768496,-0.021524727,0.01296746,0.018705834,-0.0061619696,-0.012362812,0.031236405,0.004292384,0.01371284,0.043297257,0.03987382,0.011030075,0.011495755,6.1412116e-05,0.034947634,-0.010682647,-0.024821466,-0.01805791,-0.015392162,0.018728228,0.021093713
RSM0105,0.044589918,0.0006889366,-0.008615815,0.011687644,0.030424235,-0.024251908,0.0021286043,0.017363805,0.010047748,0.008072362,-0.04493726,0.032487907,0.023080904,0.02192774,0.0022775363,-0.01853796,-0.011816531,0.050701544,-0.0012614753,0.015241046,0.0077354177,0.014899707,0.024312895,0.0236321,-0.01667362,-0.015703415,0.024429016,-0.0024027866,-0.07200125,-0.038327236,0.014186643,-0.008722472,0.027371945,0.010789341,0.005209615,0.0052653505,-0.004311066,0.05167956,0.01053654,-0.04317799,-0.044059817,0.013496466,0.0005951236,0.0046364083,-0.025712939,0.013367985,-0.0035317119,0.016600285,0.009420431,0.026852295,0.00051597535,0.0143032065,0.051616624,0.023111999,-0.0011309488,0.019405441,0.0092253275,0.038298715,0.007810658,-0.034957573,-0.01601193,0.013144076,0.016355844,0.025820436
RSM0106,0.04824461,-0.022899434,-0.010563387,0.014254281,0.0018190349,-0.012401133,0.0019527416,0.012002623,0.0070514833,0.003943875,-0.042045396,0.018358195,0.013742882,0.0052508954,-0.02375807,-0.024712289,-0.009129916,0.03388223,-0.014267121,0.023633812,-0.011139758,0.010293775,0.018925436,-0.0012723798,-0.012405681,-0.0011805464,0.041456927,-0.017576499,-0.06499149,-0.03270218,0.030893276,0.012307926,0.02840833,0.021828774,0.026685975,0.009845727,-0.0146841165,0.055800386,0.011654322,-0.046071604,-0.02559414,0.0032814988,0.009176984,0.006014769,-0.026139123,0.017162371,0.0052196626,-0.002958659,-0.0035502592,0.03315402,-0.016292134,0.013590113,0.033537257,0.03993222,-0.013261083,0.02117635,-0.006776991,0.017611817,-0.010153032,-0.034848433,-0.019475123,0.0035508375,-0.011443896,0.0073976116
RSM0107,0.044198085,-0.02029169,-0.0010397094,0.020078382,0.014054999,-0.026081022,0.022915602,0.007197473,-0.013061381,0.023341645,-0.035804976,0.017112467,0.019066812,0.03489053,-0.023760224,-0.03184413,0.0012505274,0.052037794,-0.01272896,0.0040525156,-0.0012016793,0.0032536986,0.012426403,0.023455294,-0.025717735,0.009225496,0.029385287,-0.02107231,-0.067780614,-0.04087964,0.022490917,0.0023341551,0.023583977,0.018325256,0.010006437,-0.0025822923,0.0132743325,0.054291606,-0.016361512,-0.034115814,-0.039239027,0.0011523233,-0.0004991251,0.00833575,-0.008545171,0.015823277,0.021224776,0.009415654,0.009600441,0.03579439,-0.013982847,0.008668034,0.05404702,0.036669325,0.0119845485,-0.0041959,0.020718938,0.030879328,0.0055657746,-0.0138519285,-0.014582496,-0.01299134,-0.00096331886,0.00402284
RSM0108,0.052484788,-0.022465084,0.0066426783,0.021591868,0.018249147,-0.030421026,0.020483846,0.008036829,-0.004491968,0.022305973,-0.0470562,0.022737263,-0.00024586957,0.008149206,-0.023400636,-0.00431266,-0.0105841365,0.03794826,-0.005604062,0.019688329,0.0134477215,0.0057596494,0.026664365,0.00925317,-0.037159447,0.001386288,0.03374484,0.0053480836,-0.048942715,-0.027956562,0.01963121,0.0064939437,0.042512957,0.0057285973,0.010009204,0.009185262,-0.014380966,0.03770296,-0.0041583083,-0.04274022,-0.030501956,0.0052045803,0.007125543,-0.014825863,-0.011051077,0.023510069,0.01730459,0.017723583,0.002003374,0.039849218,-0.0022000356,0.0143723935,0.05610453,0.04244313,-0.014497801,0.0114366645,0.021091882,0.017493546,0.0072103706,-0.030808628,0.0049557975,-0.010707941,0.0033626081,0.008368274
RSM0109,0.044507805,-0.025649158,0.007825624,0.007684768,0.023823885,-0.017958881,-0.0011618049,0.012354884,-0.010591561,-0.0042109895,-0.027573284,0.030123916,0.0068302955,0.037280675,-0.024937088,-0.017049836,-0.016022211,0.05335383,-0.009676133,0.02558058,-0.0026536807,0.013932,0.025775589,0.005296978,-0.018060792,-0.0071975784,0.03504874,-0.005387136,-0.067511626,-0.022073206,0.032613635,0.0016347944,0.026256762,0.024116373,0.013986828,-0.0060374793,0.005843926,0.0511971,-0.0035398589,-0.046360854,-0.024601378,0.008008073,-0.0028268546,-0.00018921957,-0.017267317,0.028768012,0.0018569326,0.0049143243,0.007975994,0.021347692,-0.006114706,0.03195738,0.056857783,0.01797265,-0.0066075725,-0.0013041521,0.024987938,0.038525723,0.003299123,-0.017808665,-0.0038244778,-0.008838127,-0.009030511,0.0008884064
RSM0110,0.058919597,-0.0003544028,-0.010485178,0.0057452973,0.02867293,-0.027526857,0.017384466,0.023487711,0.007078053,0.010213354,-0.046475686,0.02204712,0.017661639,0.009824389,-0.025446115,-0.029316472,-0.021506116,0.042197313,-0.012063241,0.015184496,-0.010451281,0.0014439641,0.02395791,0.013071102,-0.014518307,-0.020091264,0.042866945,-0.00693839,-0.07071882,-0.019518929,0.012503859,0.00858389,0.037081704,0.025248913,0.003874134,0.0072401064,-0.0022215615,0.0570628,0.010615445,-0.029887259,-0.03046027,-0.00695311,-0.0023912631,-0.011826271,-0.012565105,0.022484234,0.02131841,-0.0029064303,0.01497758,0.0373204,-0.019902967,0.013239246,0.033966508,0.033314534,4.8004465e-05,0.016414242,-0.0021503544,0.015708322,-0.011312257,-0.027864322,-0.018978802,-0.012342697,-0.0009322463,0.011795934
RSM0111,0.049518976,-0.0020903102,0.0136892935,0.002676926,0.009655128,-0.019960824,-0.002728154,0.0017328752,0.0068473085,0.009394605,-0.032393742,0.005309306,-0.0038308324,0.02591716,-0.0129341595,-0.013812894,-0.0072094104,0.05917374,-0.013160866,0.026201202,-0.0053651165,0.011299309,0.023577249,0.022906043,-0.015158706,-0.017976925,0.034911837,-0.012309231,-0.048771065,-0.03498594,0.032995272,-0.0018572047,0.020599004,0.013562354,-0.0012666772,-0.018884884,0.010026395,0.056507412,0.003191893,-0.04341122,-0.04587931,0.013053637,0.011741858,-0.009872589,-0.034170162,0.026527083,0.019374654,0.00033921952,-0.0019167567,0.026697418,-0.021254476,0.017023532,0.045604702,0.014116323,-0.014498637,-0.0052424334,0.0024387122,0.022490013,0.015066915,-0.029574629,-0.000217866,-0.0058563612,0.015166582,0.022077473
RSM0112,0.04815593,-0.016561205,-0.005107785,-0.0051357816,0.004859597,-0.025220081,0.00630394,-0.004733348,0.0024660635,0.014134059,-0.0213954,0.020244174,0.0019605353,0.0052257576,-0.015878763,-0.0097594885,-0.0067372774,0.03901959,0.0136175575,0.024613678,0.0006634279,0.009677994,0.019639626,0.0043641366,-0.024962613,0.0038881358,0.017791342,-0.02212915,-0.06158949,-0.012898977,0.029816631,0.002325343,0.014690204,0.008228216,0.014670712,-0.00058479264,0.011792842,0.03720042,-0.0013391401,-0.031347644,-0.048688173,0.004833739,0.0006860773,0.0009519487,-0.020187296,0.0044715665,0.01794664,-0.004818195,0.004310021,0.033301387,0.004515232,0.0105662905,0.03833371,0.02100837,-0.0023184144,-0.00477708,0.01961883,0.03945525,-0.003932115,-0.027760796,-0.0024193227,-0.0053888382,0.0023011381,0.020231271
RSM0113,0.068179816,-0.0065537915,0.015560275,-0.0046267337,0.008204354,-0.033612832,-0.0056159906,0.0077384603,-0.012828074,0.010252593,-0.041206624,0.018334644,0.0070932135,0.025784103,-0.018589444,-0.024026312,-0.018930446,0.062188994,-0.014806643,0.00023880659,0.0011659553,0.00955815,0.012341113,0.0051914807,-0.016491793,-0.014707648,0.026877712,-0.0084178,-0.07145158,-0.027111355,0.03218874,0.0020415424,0.041626904,0.025865689,0.02620966,0.006441083,-0.011882687,0.049170535,0.002682637,-0.038016398,-0.03916205,0.0016654591,-0.00992627,-0.007132582,-0.02458997,0.015082501,-0.0032982498,0.014865221,0.0032342328,0.026161931,0.0035849235,0.012019905,0.03934853,0.035505142,-0.010963619,0.012607972,0.022843603,0.01546907,-0.000505578,-0.014221352,0.002136214,0.0024686167,0.0031226256,0.023582513
RSM0114,0.05669741,-0.0041850507,-0.013090145,-0.005548147,0.018121582,-0.027929725,0.021003129,0.0012016466,0.0070011416,0.006776717,-0.025244612,0.009202745,-0.0037716946,0.007329591,-0.00053104473,-0.009630883,-0.015982926,0.043415084,-0.0027025237,-0.0030959067,-0.0038290373,0.016702987,0.03358899,0.010296954,-0.018814405,-0.011334203,0.04436573,-0.0024261756,-0.039152715,-0.028486961,0.028497277,-0.0039341906,0.012257527,0.0029003224,0.0055227205,0.010351205,0.011061682,0.049582988,-0.013645124,-0.016290424,-0.028612029,4.3915887e-05,-0.0011281073,-0.003573782,-0.016294295,0.011868012,0.019071056,-0.0014304694,-0.0038793706,0.03266729,-0.01845092,0.011758741,0.033964247,0.029577728,-0.01299887,0.004593035,0.0067725433,0.038952988,-0.013637391,-0.034485165,0.0014983537,0.009420683,-0.003017908,0.019353447
RSM0116,0.05265621,-0.007769226,-0.01123988,0.003081844,0.0046172854,-0.027022239,-0.008200775,0.0222075,0.008484272,-0.0038152703,-0.041228518,0.015241157,0.013775526,0.01833472,-0.02353662,-0.019357568,-0.019718567,0.028648734,-0.010529631,0.018263299,-0.010522559,0.020497954,0.0053254957,-0.0046739914,-0.018254401,-0.004652513,0.025689393,-0.0009823476,-0.03655465,-0.028100219,0.02468469,0.009239473,0.025448676,0.0082429135,0.0033973376,0.0090751955,0.009483646,0.053460598,0.013157108,-0.041145425,-0.04294119,-0.0016370773,-0.002739467,0.0042594383,-0.003479919,0.012550984,0.016784431,0.003963964,-0.0035904157,0.033873357,0.005185507,0.03200821,0.023168681,0.017620366,0.007371959,0.01409029,0.0149772335,0.01306126,-0.009624336,-0.0077488213,-0.016535928,0.0023426393,0.010049271,0.0058480976
RSM0117,0.06799526,-0.015278284,0.011205738,0.015722133,0.0059511634,-0.010275902,0.015692689,0.0033950806,0.011181062,0.014099041,-0.043957677,0.02007408,0.015005869,0.020993931,-0.008225932,-0.01926446,-0.017355034,0.05266962,-0.004476966,0.0076938258,-0.010555775,0.011929252,0.008084117,0.009982295,-0.024894087,-0.009187743,0.02220431,-0.007359175,-0.052569766,-0.031918008,0.016252838,0.011643442,0.038055766,0.008855209,0.011521996,-0.01251561,-0.0110992985,0.037848182,0.009662275,-0.038957406,-0.049927257,-0.007550347,-0.010506342,0.001097294,-0.027547924,0.006125163,-3.1336822e-07,0.015401351,-0.009127513,0.018782904,-0.00075100386,0.011571319,0.052054048,0.01707596,0.0069072,0.020028349,0.0043028053,0.033476274,6.869609e-05,-0.01150985,0.0040779174,-0.01310566,0.00022157887,0.010111837
RSM0118,0.055466074,-0.016275832,-0.0061017363,-0.0003017939,0.030142624,-0.026455129,0.001471841,0.008077068,0.0031690064,0.004397494,-0.027411234,0.020429878,0.010210141,0.010043982,-0.027258882,-0.0330278,-0.020447385,0.040716037,0.005077799,0.02314789,0.0036165372,0.019221747,0.03680336,0.025030997,-0.02182172,0.00068113505,0.025833916,0.003664794,-0.053443704,-0.028834045,0.00870592,-0.008340977,0.019148529,0.025187803,0.009543261,0.0006173307,-0.0033151463,0.046928797,0.012322738,-0.018365603,-0.025892517,0.015893258,-0.012088652,-0.013035828,-0.031731274,0.025790995,0.024593256,-0.00017258768,-0.012366803,0.024676323,-0.01329694,0.017072324,0.036491927,0.02369514,0.00457503,0.017738301,0.0073466017,0.03525034,-0.0057040616,-0.0363385,-0.01042492,0.009572288,-0.008274505,0.027439632
RSM0119,0.032489117,-0.0052755573,-0.008199158,0.0041953484,0.021053,-0.007994787,-0.0018292633,0.013052513,0.0059648487,-0.007397039,-0.022202851,0.023631107,-0.0019442849,0.016514076,-0.008393921,-0.023073364,-0.009789709,0.039544493,0.008547865,0.0002916162,0.015662128,-0.0025635802,0.02257958,0.006651674,-0.009299266,0.0043157325,0.012321565,0.002557491,-0.048054006,-0.008980955,0.0025642172,0.010856467,0.02448382,0.02474287,-0.001166859,0.007828321,0.0108556375,0.035196707,0.008948939,-0.014418579,-0.03318111,-0.011365925,0.006845963,-0.013574293,-0.016838493,0.017571438,0.0064631826,-0.006247527,-0.008808512,0.029523728,0.0048456537,0.010000971,0.043170653,0.033541564,-0.01334457,0.012336604,0.017811188,0.015610213,-0.013633959,-0.017970387,-0.0051042177,-0.014556788,0.019206801,0.012913789
RSM0122,0.06319441,-0.011945297,-0.005683036,0.00019190522,0.021430472,-0.03271954,-0.001076575,0.01916778,-0.0071821297,-0.0023602422,-0.0487996,0.014846515,-0.00025856154,0.035292182,-0.017883357,-0.032959715,-0.023519997,0.031445604,-0.007149393,0.0234439,0.017910669,0.0010436773,0.025582328,0.0029697,-0.011667468,0.0014783996,0.030639566,0.003727455,-0.046754256,-0.04193402,0.008681129,0.019911252,0.01992386,0.02475719,0.0091252765,-0.0031343244,-0.0044550337,0.057032924,-0.006789457,-0.040126063,-0.032710392,-0.010903994,-0.01226258,-0.014555573,-0.029863864,0.0035569991,-0.0009173517,-0.004501176,-0.007848657,0.024224943,-0.0019973405,0.009972524,0.05186437,0.031334527,0.0026083905,-0.0064583938,0.000852182,0.020554446,-0.0073718186,-0.03979743,-0.0057063093,0.010494235,-0.008457009,0.002347986
RSM0123,0.05517161,-0.028627066,-0.009785792,0.016665371,0.025583308,-0.039050743,0.017520076,0.015867256,-0.012982194,0.013535017,-0.05400065,0.0036502467,0.005627779,0.039811824,-0.028139507,-0.017585512,-0.013114083,0.033935577,0.011562562,-0.0013316312,-0.0036157123,0.02019342,0.022089688,0.014550595,-0.02806475,0.0052545364,0.04861989,-0.017047115,-0.047597855,-0.022666179,0.024380522,0.0091966735,0.022986932,0.031641316,0.016546646,0.0040729395,-8.322372e-05,0.05165944,-0.007304649,-0.036200404,-0.043086894,0.017955707,0.0114232935,-0.008276874,-0.024427913,0.027407188,0.0068994164,-0.001503076,-0.0119886715,0.03756292,0.0068996185,0.034679007,0.06030824,0.044995,-0.00336513,0.006044435,-6.810704e-05,0.018863501,-0.010040588,-0.032259636,0.0069077676,-3.8305745e-05,0.003948722,0.005347236
RSM0124,0.05335301,-0.026005864,0.0032013603,0.0067572133,0.02845709,-0.017961359,-0.0036073048,0.013630211,0.0051538814,-0.0020599419,-0.029498357,0.0119614545,-0.0014751682,0.031880636,-0.02036532,-0.025236359,-0.014499852,0.03848439,-0.0005990188,0.0071692443,-0.0008928938,0.004917975,0.027030827,-0.002629768,-0.033293344,-0.008635491,0.039175965,-0.019872038,-0.054976255,-0.04597655,0.03272355,0.020698177,0.04646037,0.011238354,0.006046903,-0.00032398698,0.012807141,0.036160875,-0.016288271,-0.047496155,-0.050515246,0.005329537,-0.005944979,0.014561737,-0.035506815,0.03034421,0.0042371573,-0.0004655197,0.0038309481,0.042059544,0.007867212,0.025769953,0.043641575,0.04170429,-0.006248408,0.020532224,0.0022040075,0.03636645,-0.0153097315,-0.02587061,-0.0023935193,-0.007834716,0.0167597,0.0052576847
RSM0125,0.041244704,-0.014676005,-0.0059644436,0.004750653,0.0022153885,-0.03112861,0.015825933,0.01935274,-0.008290919,0.019197283,-0.020250186,0.0075906278,0.0028486035,0.031613562,-0.012251137,-0.015583063,-0.018410755,0.035044156,0.013223531,0.008846544,-0.0018402999,0.013435663,0.029568467,0.011861993,-0.0043368787,-0.008339115,0.021641122,-0.00022960991,-0.04786395,-0.024401423,0.020077346,0.008769492,0.036633596,0.0023605896,0.013502225,-0.004500462,-0.003235513,0.05044407,0.0061126123,-0.015696822,-0.019477082,-0.013324564,0.0048296032,-0.005401473,-0.015215134,0.003986835,0.022331504,0.017981792,-0.008826252,0.013365575,0.0049127904,0.013534241,0.018980866,0.026922973,-0.01447357,0.019081814,0.008494062,0.006054218,-0.012143926,-0.0052264226,0.009988041,0.009204054,-0.0047107614,0.025280368
RSM0129,0.051687267,-0.017864527,-0.00394804,-0.0015783156,0.013450889,-0.035278928,0.004543023,-0.0042522303,-0.006189466,0.009810554,-0.044509042,0.009325624,-0.0017283006,0.013704425,-0.018014552,-0.010979052,-0.012170333,0.022605425,-0.0051876036,0.00998733,0.009468323,0.023086416,0.030127933,0.0011428756,-0.03101017,0.009774976,0.039007515,-0.0015874082,-0.0367779,-0.03777578,0.0075875344,0.015104889,0.018546892,0.015970955,0.024459157,-0.019181672,-0.010245092,0.03577146,0.008613597,-0.0237438,-0.019436065,0.0118122045,-0.00026682005,-6.775e-05,-0.028150996,0.025983265,0.0110808015,0.008736566,0.014264876,0.023287693,-0.007460451,0.012040757,0.03427161,0.012410714,0.008791965,0.0054057543,0.0126824705,0.034612138,0.00886743,-0.03662965,-0.014146319,4.0406663e-05,0.01448131,0.026065318
RSM0132,0.06590785,0.00043426733,0.0094839465,-0.004942811,0.011686388,-0.032606743,0.011480035,0.017878313,-0.016969709,0.009810146,-0.029931039,0.007959504,0.011795641,0.011317171,-0.017398426,-0.027828725,-0.007849725,0.05653898,0.0031418495,0.012530348,0.012775304,-0.0013734347,0.028379597,0.0030419417,-0.027474489,0.0037002377,0.044937003,-0.009250377,-0.048389632,-0.038184837,0.0106398985,-0.008704023,0.045192424,0.014498105,0.017017093,-0.013350508,0.012527016,0.039212544,0.0029067197,-0.029031362,-0.034595884,-0.010148356,0.003727755,-0.0048407316,-0.01883692,0.029245162,-0.0044145864,-0.0054470333,0.0038650658,0.032774378,-0.0120813195,0.03877987,0.04994177,0.027067462,-0.017866774,0.0030774837,-0.00370783,0.032383826,-0.014531951,-0.03651044,-0.01822362,0.011322219,0.016044548,0.015175241
RSM0133,0.07048333,-0.011029717,-0.013723429,0.0201154,0.029758587,-0.027450329,0.008287278,0.01382968,-0.006781818,0.0014103564,-0.04645799,0.01612544,-0.003401743,0.0107762385,-0.009046528,-0.009466421,-0.021139553,0.04379851,-0.015708271,-0.0013618184,0.013749865,0.012530498,0.03341812,0.009064462,-0.010774408,-0.0049513197,0.018564148,0.0030589213,-0.056707487,-0.028890407,0.024560109,0.014428325,0.028248522,0.0071176705,0.026497727,0.009034906,0.012914784,0.049821652,-0.016443465,-0.04380895,-0.052698426,0.0142599745,-0.0060737794,-0.0043320335,-0.019466586,0.01972777,-0.0015258505,0.0063851876,0.0041282875,0.037430834,-0.01587987,0.009930305,0.036513638,0.027824767,-0.014693927,0.0021031832,-0.0013434782,0.016907236,0.0070333043,-0.027479427,-0.01290877,-0.015719421,-0.007231442,0.003932014
RSM0134,0.07035797,-0.029309575,0.0021912486,0.015810724,0.0079240585,-0.015448355,0.011022441,0.028449448,-0.008633698,0.009645158,-0.029340403,0.029900739,0.016172173,0.028483357,-0.009166445,-0.032388963,-0.016908458,0.06331104,-0.004207632,-0.0041493527,-0.004489953,0.010486596,0.018227885,0.021942224,-0.031578604,-0.00045730156,0.048031498,0.005902286,-0.062844396,-0.026448457,0.02228346,-0.00883038,0.021386342,0.013318826,-0.0015048425,0.0054505523,-0.0052857124,0.04450621,-0.0039050018,-0.04771608,-0.03320228,0.007334597,-0.014399132,0.008255235,-0.029519988,0.025034528,0.010571323,0.005031786,0.017947322,0.038261604,-0.005639854,0.021402968,0.037641432,0.047754392,-0.013710533,0.010068459,0.009473548,0.04229914,0.0098320935,-0.039468613,0.0055304044,0.0020239258,0.006387047,0.030293817
RSM0135,0.054191016,-0.024888534,-0.0027962334,0.020626934,0.005444157,-0.031365108,0.019493835,-0.0019779906,-0.004400109,0.0016429293,-0.036026895,0.0045531862,0.019445809,0.041059144,-0.012138694,-0.029050635,-0.027256954,0.03842012,0.011386936,0.008188029,0.0091471765,0.0065418426,0.03608804,0.025213223,-0.030201847,-0.0072164447,0.038708746,-0.011108406,-0.056550037,-0.01679095,0.010844026,0.010401437,0.032864865,0.012835659,-0.00094819494,0.009825443,0.007200037,0.054281153,-0.006087697,-0.04339191,-0.05358652,0.013500324,-0.0038770335,0.002941493,-0.033990547,0.025018666,-0.004867944,0.013982547,-0.005968691,0.03597507,-0.018335132,0.03541897,0.0620012,0.044891708,-0.009517271,0.0011827976,0.017960047,0.02142992,-0.011169562,-0.029939855,-0.019853221,0.009107769,0.0073562213,0.007330452
RSM0136,0.057492044,0.00090738985,-0.006610585,-0.0027371524,0.030497996,-0.019394407,0.010271941,0.023224711,-0.018220328,-0.0013559685,-0.043410577,0.034258045,0.016433831,0.022979928,-0.0015806502,-0.015391032,-0.019182382,0.03771081,0.008960588,0.006603668,-0.00072573515,0.011759446,0.011851386,0.02911457,-0.016555073,-0.004689125,0.05243277,-0.018672332,-0.06400651,-0.03546387,0.016051387,-0.0062686107,0.030193215,0.030160166,0.013049385,0.0050820988,-0.004159979,0.06686847,0.0051194043,-0.02500001,-0.05497877,-0.0016779252,0.010664074,-0.014537294,-0.017815715,0.026216848,0.011033412,0.015228489,0.016502218,0.0398646,0.0037855825,0.040489342,0.034833636,0.023566464,-0.016575838,0.008678643,-0.003483707,0.040774975,0.0073747286,-0.025840033,0.004408378,-0.0069681304,0.0010096821,0.023461973
RSM0137,0.0685263,-0.01000667,0.010041057,0.018506246,0.011018472,-0.042248726,0.013848337,0.00494097,0.0034922415,0.02350517,-0.0365885,0.016944058,0.0016427276,0.046640422,-0.0074033896,-0.01211298,-0.0054948092,0.045966525,-0.009954111,0.0037339346,0.0009809728,0.024858117,0.023433993,0.003871309,-0.041042354,-0.018317787,0.039874468,-0.007340128,-0.07794313,-0.049316116,0.014247044,0.021350857,0.04778369,0.011427383,0.018883131,-0.0153548,0.004136023,0.06382957,0.00450173,-0.052721206,-0.046328902,-0.002945417,-0.019716991,-0.010336013,-0.043399274,0.02603967,0.025261907,0.014505721,0.0013731716,0.04265645,-0.0011679315,0.035227682,0.056995306,0.02485369,-0.011651882,-0.0018216394,0.009933383,0.037078228,-0.0152398795,-0.03809585,-0.019151855,-0.012609647,0.009164226,0.0071070716
RSM0138,0.060081605,-0.00905299,-0.0049827136,0.014680465,0.018925888,-0.03485765,0.016983597,0.0031199795,0.0073958472,0.020547861,-0.03911365,0.011129,-0.0024589777,0.03508413,-0.018487556,-0.010863588,0.0011943284,0.056784097,0.014820404,0.0026554654,0.004026174,0.012326379,0.014155379,0.020134991,-0.019046031,-0.013483822,0.03377594,-0.0010830741,-0.052775517,-0.011672406,0.010065909,0.010565069,0.034979336,0.008119241,0.011081454,-0.0074769626,-0.0048959455,0.03893576,0.011902295,-0.02175993,-0.048772167,0.011649329,-0.010704435,0.015125748,-0.028457012,0.0029084606,0.019873045,0.010205502,-0.004936004,0.02503885,-0.0058162436,0.03274554,0.04938241,0.029368525,-0.010665234,0.011746713,0.005293484,0.013730609,0.013248088,-0.019237965,-0.002564486,-0.009683946,0.0174392,0.0019602536
RSM0139,0.06322834,-0.0014370466,-0.013357596,-0.0048993304,0.019737296,-0.020780675,0.008092065,0.0024233249,-0.018369956,0.0054485593,-0.029654087,0.026471725,0.0011981021,0.006654878,-0.009430527,-0.019984793,-0.018830424,0.0334369,-0.013252954,0.022367638,0.018853443,0.0034989088,0.022446632,0.010146334,-0.024889853,-0.007977614,0.034133423,0.0051190737,-0.04218983,-0.0117003545,0.012031011,0.015368027,0.036313888,0.0059426194,-0.0012805897,0.0006947359,0.009128027,0.05826121,-0.004616448,-0.04617024,-0.04088586,0.008524896,-0.017947434,-0.005236998,-0.03343414,0.014270655,0.0025999206,0.014858496,0.016414555,0.023052258,-0.0018812149,0.034970302,0.038681045,0.0253983,-0.006162102,-0.0023806999,0.0008034924,0.011721016,-0.009704963,-0.029595396,-0.0010510085,0.012960531,-0.010887157,0.013671758
RSM0140,0.013619594,0.0074385214,-0.007687025,-0.003242041,0.019079609,-0.019033156,-0.010682771,-0.010690304,0.0025712196,0.011746235,-0.025226388,0.006318293,0.006643039,-0.0044396166,0.010144927,0.0069103586,-0.005833868,0.026726397,0.0031168964,0.0005562129,0.007264268,-0.010413747,0.009450474,0.0058169146,-0.019069307,0.006102772,0.023640579,0.0010558126,-0.007330822,-0.019670509,0.018421685,0.0056508915,0.02009779,-0.0014758006,0.016691245,0.004950341,0.011953443,-0.00070150755,-0.007986422,-0.0021177924,-0.0005479275,0.0081567485,0.0040780045,-0.005125532,-0.019063106,0.01753956,-0.012065249,0.013766873,-0.009459338,0.0038935554,-0.014573634,0.01706044,0.00715588,0.010483092,-0.013617398,0.0034523334,-7.848983e-06,0.0019579912,0.0010189118,-0.010687548,-0.016357182,-0.007784314,-0.0072376593,-0.008052416
RSM0141,0.033968356,-0.020724861,-0.007662769,0.016345683,-0.0041254023,-0.010062607,0.013634626,0.018283678,-0.010109695,-0.003908918,-0.007009958,0.016142163,0.010407169,0.0012506595,-0.0042660926,-0.005240736,-0.007840997,0.0147933345,-0.006804225,-0.0068933843,0.010306243,0.0040530167,0.015327304,-0.0011876705,-0.014046078,-0.015452964,0.004202347,-0.007932653,-0.04134445,-0.026309162,0.019686148,0.00923274,0.0052738152,0.011185778,0.0043987986,0.002160123,-0.008583852,0.03692496,0.0053015375,-0.010947706,-0.0028103974,0.006116694,0.0015336125,-0.00936187,-0.0093742255,0.016105805,-0.008568577,-0.00969988,-0.005406605,0.021789385,-0.012831858,0.015697824,0.013697478,0.008439844,-0.0067910487,0.0052517597,0.010220401,0.023501977,0.0053174053,-0.01856515,-0.00065827504,-0.012924083,0.011427358,0.002433354
RSM0142,0.042279728,0.000349455,-0.0035646865,0.018445196,0.017207332,-0.004575632,0.010826934,0.0012383615,-0.0039897263,0.018843496,-0.01817736,0.009618993,0.0140644815,0.02805686,-0.018447502,-0.017075283,-0.0047073327,0.040982362,-0.0033109295,0.007092662,-0.0037665323,0.011274792,0.0205358,-0.0054351557,-0.022264607,0.009722525,0.009960259,-0.014737826,-0.03587984,-0.03496316,0.02216166,0.01718549,0.025320614,0.022344435,0.021276755,-0.003854206,0.00064435386,0.031848554,-0.009840401,-0.021076038,-0.023091296,7.404883e-06,0.007758911,-0.009780421,-0.019260122,0.022340113,0.022268854,0.006312913,-0.00785208,0.023042977,0.003934368,0.032192502,0.0477065,0.009292265,-0.010460677,0.016869737,0.011389628,0.012892139,0.0116807725,-0.020455865,-0.01927459,-0.013486645,0.009724392,0.020654231
RSM0143,0.04221382,-0.021379817,-0.008220732,0.015273807,0.022872267,-0.021866074,0.015935233,0.025313323,0.0014079835,-0.007993185,-0.017046046,0.0042637824,0.009703299,0.021352595,-0.02427397,-0.0020718374,-0.012481251,0.023291321,0.0044501442,0.006916065,-0.013073244,0.02061447,0.013513246,0.02092904,-0.02670084,-0.018244095,0.021552108,-0.009319551,-0.02863201,-0.03283204,0.016521944,0.008021736,0.03708642,0.03110912,-0.0018042794,0.0032197153,0.010601118,0.030887581,-0.0008975684,-0.010436253,-0.034380175,0.015281186,-0.0050039245,-0.0012745879,-0.029954411,0.019598266,0.010990055,-0.00029797532,0.0117630465,0.02300775,-0.016736833,0.026461674,0.04166197,0.010724725,-0.01775482,0.01438657,0.008082098,0.019209009,-0.002566015,-0.021170836,-0.01141649,0.003812115,0.008930292,0.0006792042
RSM0145,-0.0033295332,-0.014291253,0.0008444667,0.007922342,-7.152693e-05,-0.010441434,-0.004317256,-0.0038898662,-0.0033843492,-0.0024000271,-0.0045102155,-0.008087955,-0.001031086,0.005182206,0.012652767,0.003582969,-0.008720024,0.0068319654,-0.010968783,0.004362604,-0.015013092,0.005349013,0.015271243,0.001866186,-0.005698294,0.012750114,0.0053694467,-0.009681346,0.0022445412,-0.0050875917,-0.0126209045,0.0026913248,0.0024964258,-0.009156849,0.0077008675,0.0024450757,-0.008112413,0.0046508443,0.011781043,-0.012596765,-0.002166243,0.0028832639,-0.010963406,0.00021405552,-0.0023996225,0.01284813,0.008832948,-0.0071509127,-0.0021728696,0.005858646,0.005572851,0.0018550846,0.006961605,-0.004749689,0.008009452,0.0026505878,0.016048154,-0.013623141,0.0042948206,-0.0050922236,0.01002032,-0.0041457675,-0.0030355933,-0.009317217
RSM0146,-0.004388584,0.004756305,-0.005069707,0.0091600865,0.015448418,0.0070807547,-0.006713012,-0.0091599515,0.0014277976,0.008242369,-0.005267539,-0.012551181,-0.00032205452,-0.014044435,-0.009547606,-0.0073680766,0.015480282,-0.0057509076,-0.00781816,-0.015529031,0.007959135,0.007074044,0.0010202463,-0.0064712567,0.01166234,-0.010278845,0.0060633207,-0.004168051,-0.0055232705,0.009800625,-0.01278182,-0.01259131,-0.0013812766,0.0044172476,-0.011009325,0.014372139,0.008977378,0.005871788,-0.0032198275,0.009023817,-0.0009036573,-0.011886346,-0.003949596,0.0059808427,-0.012146405,0.014536421,0.011393542,0.00951897,-0.00394155,-0.0038497953,-0.0067608044,0.0055282963,-0.0006804492,0.004819571,-0.0003482891,0.0071262075,-0.01307961,-0.0024080449,-0.012649851,0.014736782,0.0058915024,0.010319253,0.010750711,0.0027784307
RSM0147,-0.0109948255,-0.008925239,-0.0134643,-0.0054527256,0.014650522,0.010584804,-0.010360181,-0.0010402133,-0.009163984,-0.014879157,-0.0015322361,-0.0126498155,0.013144303,0.012871487,-0.0038178428,-0.010958039,0.00055875565,-0.01336063,-0.007709381,0.00017377498,0.0015689505,-0.009677912,0.012182016,-0.011618417,-0.006298183,-0.012445602,0.0009986175,0.0030653619,0.0029468434,-0.013287179,0.002164009,-0.013893043,0.013318248,0.016112553,0.014934649,-0.015657485,-0.00022251782,0.017311422,-0.014853818,0.010822233,-0.0011382422,-0.012212804,0.0053267227,0.009238237,-0.0026991838,0.0016064973,0.010111441,0.009587153,0.007445486,0.017515967,-0.0065689245,-0.0045567458,0.001121673,-0.004332077,0.006800615,-0.013353626,-0.014110829,0.012194438,-0.0065627606,0.0077691292,0.01030748,-0.0018215998,0.007540363,0.010056552
RSM0148,0.024236146,-0.02016038,0.009064932,-0.010552195,-0.0010861079,-0.025573991,-0.0022161237,0.0056138774,0.009951788,-0.0010285437,-0.019121971,0.01989725,-0.006715262,0.003426141,-0.018190656,-0.0068314746,-0.0038565896,0.023229897,0.014126871,-0.0034562694,-0.0036253775,0.015988968,-0.00045957117,0.00051572046,0.0013478384,-0.008294836,0.03222451,0.0030708609,-0.016032007,-0.016578067,0.0077692885,0.0065299165,0.01242422,-0.0034269113,0.010367808,-0.016705018,0.0054881573,0.03593026,0.0018429761,-0.026376337,-0.01467062,0.015391729,0.0113458745,0.008574665,-0.005891433,0.022348374,-0.0014359084,0.012037871,-0.0101976525,0.020883799,0.010943782,0.01991929,0.034520112,0.026947377,0.010952071,-0.0031624914,0.00960716,0.004756563,0.0027462565,-0.0003855668,-0.009829809,-0.013259224,-0.004643766,0.0016538218
RSM0149,0.043212112,-0.001150779,0.004525788,0.0045963936,0.0035845772,-0.0015290048,0.0055215345,0.021573257,0.0038856275,-0.003889287,-0.028857501,0.018064031,0.02170038,0.019303618,-0.021834387,-0.0282626,-0.0035905975,0.014280953,0.014099656,0.021063767,-0.0012362124,0.0029288565,0.00704693,0.0028928414,-0.012200516,-0.0038921933,0.03313552,0.0036983346,-0.05191065,-0.012754966,0.020976147,-0.00749225,0.011859892,0.018235335,0.01957882,-0.0091404915,-1.9966325e-05,0.02150794,0.00299324,-0.011857702,-0.013756238,0.012435771,0.007713647,-0.004167305,-0.009556389,0.02609838,0.011167039,0.015326766,0.013088036,0.012444652,0.010757911,0.020670865,0.019540006,0.022431545,-0.0036502383,-0.008298665,-0.007140241,0.0077679665,-0.0033560786,-0.0140817035,0.0019239744,0.0015088728,0.013896029,0.010254335
RSM0150,0.029684624,-0.020511238,0.006317167,0.007258069,0.0073001836,0.001503767,0.007059951,-0.0015454172,-0.015664252,0.0070805023,-0.02388725,0.014579211,0.008042708,-0.00027194526,-0.019824455,-0.01799943,-0.0025229638,0.010145154,-0.008261183,0.015901696,0.013619837,-0.008028207,0.00433415,-0.0030058858,0.008684557,0.011180239,0.02236352,-0.015716707,-0.010446191,-0.02340942,0.008502622,-0.008836247,-0.0016930324,-0.0068996907,-0.009986081,0.0040008286,-0.008152797,0.0058638486,-0.004525158,-0.015384147,-0.021292388,-0.0057455795,-6.3362495e-05,0.008586124,-0.016018212,0.0070402967,0.014026829,0.0016539228,0.014026787,0.0025954233,-0.0006780853,0.018766258,0.010378214,0.024207836,-0.0077903834,0.0040154504,0.0014859095,-0.006574473,-0.012542603,0.0017659088,0.0024242736,-0.011070007,-0.00029320113,0.0029956407
RSM0151,0.020459857,0.0006764941,-0.009194548,-0.0075679338,-0.0041806377,-0.0069615054,-0.015011992,-0.0031832678,-0.011415486,-0.011672485,-0.012337844,0.0042671636,-0.00035156764,0.016613243,0.004689907,0.01227053,0.006336022,0.004568492,0.0075708213,-0.0015159003,0.00210036,0.014884855,0.011331505,0.005564605,-0.0038928317,-0.0054585966,0.008151087,-0.008198886,-0.0059534553,0.0043236716,-0.0062648747,-0.0058477893,0.011178594,-0.0040361728,-0.009117725,0.013677874,-0.011045083,0.008957712,0.0073520895,7.408718e-05,-0.0159787,0.0025815386,0.014198413,0.011494016,0.013157698,-0.007891352,-0.011768509,-0.0044539534,-0.0058557126,0.012172783,0.014236641,0.010593449,-0.0042242333,-0.0016432266,-0.0042506303,0.002641626,0.0025692354,0.0032133684,-0.0077398364,-0.006476101,0.0008885651,-0.010948916,-0.012427808,-0.0047172476
RSM0152,0.013128195,0.015294802,-0.0023810796,0.013144641,0.008000983,-0.010562334,-0.013824623,-0.0083116945,-0.015364158,-0.0062802755,-0.0013609909,-0.001768557,0.0011971919,0.0030895781,0.0028081045,0.008100447,-0.013170684,0.001947469,0.012759112,0.013842008,-0.012642858,0.0033983262,0.012026825,0.0049601067,-0.0031408076,0.0030370806,-0.0027732225,-0.011742709,-0.0018904741,-0.0062525207,0.005359875,-0.012115397,0.011190538,-0.0072338223,-0.0011664188,0.01277737,-0.000875064,0.012334999,-0.015732396,0.008874951,0.0012592279,0.0037660254,-0.013231554,-0.0020541085,0.00079168327,-0.005016052,0.009759157,0.0063113,-0.00557141,0.00019843971,-0.008475646,0.0010143387,0.0063689197,-0.007181549,0.010899375,0.004880008,0.014698891,-0.0023818174,0.014009242,0.013540227,0.006762112,-0.0066958317,-0.0054697637,-0.009104677
RSM0153,0.015384381,0.013012272,-0.009504994,-0.00044289828,-0.010326569,-0.00992512,0.002945556,0.0047006425,0.0058353855,-0.007771356,0.0076632826,0.0061205397,0.008514872,-0.0075966087,-0.007290479,-0.01233734,-0.002874162,-0.0023280943,0.015839562,0.01164715,-0.003743152,0.0035099715,-0.004058398,-0.003137939,-0.007451852,-0.013218854,0.0008316678,-0.015410901,-0.0026087607,-0.016429145,0.009357372,-0.015505186,-0.010666464,-0.0011449668,0.013551138,0.008423211,0.0030369544,-0.0082835695,-0.0029658037,-0.01691332,-0.0069203875,-0.012329682,-0.007171071,3.1377473e-05,0.013815983,0.0092900265,0.016222192,-0.010627037,-0.00397097,-0.0024520184,-0.010076663,0.00508588,-0.012759499,-0.000522258,-0.0043490985,0.015753109,-0.0031237036,-0.010247872,-0.0043725157,0.0029801852,-0.00019404905,-0.0013485409,0.0022644065,0.007807201
RSM0154,0.03156033,6.532029e-05,-0.006766479,0.004231071,0.010606306,-0.008959838,-0.010963397,0.012131802,-0.015941268,0.014216633,-0.02627574,-0.0077139796,0.009333135,0.016054727,-0.004252167,-0.020231213,-0.007259361,0.003270791,0.004843731,0.015491873,0.013327875,0.0136465775,0.009151252,-0.0013794999,-0.0046042376,0.010626131,0.0039988025,-0.017324721,-0.02983381,-0.013460984,0.018228645,-0.00756534,0.02256283,0.005584132,-0.008770062,0.009496749,0.0043645543,0.007978996,0.0056698164,-0.004058555,-0.018526673,-0.009383321,-0.016074715,0.01320943,-0.015287818,-0.008296417,-0.0047722184,0.016501678,4.4060638e-05,0.026751747,0.00055552414,-0.0009309039,0.010031255,0.020120446,-0.0025165668,-0.012891955,-0.005885454,0.010919677,-0.016659914,-0.012968368,0.010609505,0.0026316894,0.015699003,0.0029145016
